{"learner":{"attributes":{},"feature_names":["V1","V2","V3","V4","V5","V6","V7","V8","V9","V10","V11","V12","V13","V14","V15","V16","V17","V18","V19","V20","V21","V22","V23","V24","V25","V26","V27","V28","Amount"],"feature_types":["float","float","float","float","float","float","float","float","float","float","float","float","float","float","float","float","float","float","float","float","float","float","float","float","float","float","float","float","float"],"gradient_booster":{"model":{"gbtree_model_param":{"num_parallel_tree":"1","num_trees":"500"},"iteration_indptr":[0,1,2,3,4,5,6,7,8,9,10,11,12,13,14,15,16,17,18,19,20,21,22,23,24,25,26,27,28,29,30,31,32,33,34,35,36,37,38,39,40,41,42,43,44,45,46,47,48,49,50,51,52,53,54,55,56,57,58,59,60,61,62,63,64,65,66,67,68,69,70,71,72,73,74,75,76,77,78,79,80,81,82,83,84,85,86,87,88,89,90,91,92,93,94,95,96,97,98,99,100,101,102,103,104,105,106,107,108,109,110,111,112,113,114,115,116,117,118,119,120,121,122,123,124,125,126,127,128,129,130,131,132,133,134,135,136,137,138,139,140,141,142,143,144,145,146,147,148,149,150,151,152,153,154,155,156,157,158,159,160,161,162,163,164,165,166,167,168,169,170,171,172,173,174,175,176,177,178,179,180,181,182,183,184,185,186,187,188,189,190,191,192,193,194,195,196,197,198,199,200,201,202,203,204,205,206,207,208,209,210,211,212,213,214,215,216,217,218,219,220,221,222,223,224,225,226,227,228,229,230,231,232,233,234,235,236,237,238,239,240,241,242,243,244,245,246,247,248,249,250,251,252,253,254,255,256,257,258,259,260,261,262,263,264,265,266,267,268,269,270,271,272,273,274,275,276,277,278,279,280,281,282,283,284,285,286,287,288,289,290,291,292,293,294,295,296,297,298,299,300,301,302,303,304,305,306,307,308,309,310,311,312,313,314,315,316,317,318,319,320,321,322,323,324,325,326,327,328,329,330,331,332,333,334,335,336,337,338,339,340,341,342,343,344,345,346,347,348,349,350,351,352,353,354,355,356,357,358,359,360,361,362,363,364,365,366,367,368,369,370,371,372,373,374,375,376,377,378,379,380,381,382,383,384,385,386,387,388,389,390,391,392,393,394,395,396,397,398,399,400,401,402,403,404,405,406,407,408,409,410,411,412,413,414,415,416,417,418,419,420,421,422,423,424,425,426,427,428,429,430,431,432,433,434,435,436,437,438,439,440,441,442,443,444,445,446,447,448,449,450,451,452,453,454,455,456,457,458,459,460,461,462,463,464,465,466,467,468,469,470,471,472,473,474,475,476,477,478,479,480,481,482,483,484,485,486,487,488,489,490,491,492,493,494,495,496,497,498,499,500],"tree_info":[0,0,0,0,0,0,0,0,0,0,0,0,0,0,0,0,0,0,0,0,0,0,0,0,0,0,0,0,0,0,0,0,0,0,0,0,0,0,0,0,0,0,0,0,0,0,0,0,0,0,0,0,0,0,0,0,0,0,0,0,0,0,0,0,0,0,0,0,0,0,0,0,0,0,0,0,0,0,0,0,0,0,0,0,0,0,0,0,0,0,0,0,0,0,0,0,0,0,0,0,0,0,0,0,0,0,0,0,0,0,0,0,0,0,0,0,0,0,0,0,0,0,0,0,0,0,0,0,0,0,0,0,0,0,0,0,0,0,0,0,0,0,0,0,0,0,0,0,0,0,0,0,0,0,0,0,0,0,0,0,0,0,0,0,0,0,0,0,0,0,0,0,0,0,0,0,0,0,0,0,0,0,0,0,0,0,0,0,0,0,0,0,0,0,0,0,0,0,0,0,0,0,0,0,0,0,0,0,0,0,0,0,0,0,0,0,0,0,0,0,0,0,0,0,0,0,0,0,0,0,0,0,0,0,0,0,0,0,0,0,0,0,0,0,0,0,0,0,0,0,0,0,0,0,0,0,0,0,0,0,0,0,0,0,0,0,0,0,0,0,0,0,0,0,0,0,0,0,0,0,0,0,0,0,0,0,0,0,0,0,0,0,0,0,0,0,0,0,0,0,0,0,0,0,0,0,0,0,0,0,0,0,0,0,0,0,0,0,0,0,0,0,0,0,0,0,0,0,0,0,0,0,0,0,0,0,0,0,0,0,0,0,0,0,0,0,0,0,0,0,0,0,0,0,0,0,0,0,0,0,0,0,0,0,0,0,0,0,0,0,0,0,0,0,0,0,0,0,0,0,0,0,0,0,0,0,0,0,0,0,0,0,0,0,0,0,0,0,0,0,0,0,0,0,0,0,0,0,0,0,0,0,0,0,0,0,0,0,0,0,0,0,0,0,0,0,0,0,0,0,0,0,0,0,0,0,0,0,0,0,0,0,0,0,0,0,0,0,0,0,0,0,0,0,0,0,0,0,0,0,0,0,0,0,0,0,0,0,0,0,0,0,0,0,0,0,0,0,0,0,0,0,0,0,0,0,0,0,0,0,0,0,0,0,0,0,0,0,0,0],"trees":[{"base_weights":[-3.8769254E-3,1.8680649E0,-1.5475893E0,-1.9950125E-2,1.9061337E0,-1.7929251E0,-2.5555876E-1,1.926567E0,-1.9905882E-2,-9.82657E-2,-1.8435916E0,7.0423925E-1,-1.1549425E0,1.9381336E0,-1.9832985E-2,-1.9961629E-2,1.3252181E0,-1.9052539E0,-1.284083E0,1.6401589E0,-2.1416773E-1,-1.6297935E0,3.6305156E-1,1.9948033E0,1.3854095E0,-1.9785522E-2,1.8341045E0,-1.9201581E0,-5.6281537E-1,-3.7601045E-1,-1.9991139E-2,-1.9748427E-2,1.7967255E0,1.0692394E0,-1.9975385E-2,-1.7987931E0,3.5414255E-1,-1.9924171E-2,1.2310804E0,1.995213E0,-1.5789473E-2,1.4982225E0,-1.9836064E-2,-1.884058E-2,1.940328E0,-1.7065771E0,-1.9795315E0,-1.9920476E-2,1.7968177E0,1.0418397E0,-1.4319704E0,-1.9024389E-2,1.8377287E0,1.708549E0,-3.511172E-1,-1.9992065E-2,-3.8782814E-1,1.8536478E0,-1.9793281E-2,-1.9717313E-2,1.580196E0,1.9986657E-2,1.9023951E0,-1.980861E-2,1.6008608E0,1.9724987E0,-1.6521739E-2,-1.9070807E0,-9.4483316E-1,-1.9999249E-2,-1.6538088E0,-1.75E-2,1.9793916E-2,-1.983539E-2,1.6151978E0,-1.9976689E-2,1.5578003E0,1.8650208E0,-1.8545454E-2,-1.9298246E-2,1.8442827E0,1.5578003E0,-1.9894458E-2,1.8218672E0,-1.990419E-2,-1.6666666E-2,1.9862374E-2,1.8009998E0,-1.9480519E-2,-1.9175258E-2,1.9717267E-2,1.807762E-2,3.3230719E-3,-1.3846154E-2,1.9879214E-2,-4.325413E-3,-1.999659E-2,3.034793E-3,-1.9977566E-2,8.009032E-3,-1.998637E-2,1.8230058E-2,-1.9440558E-2,1.9793916E-2,-1.8904109E-2,1.892157E-2,-1.8518519E-2,1.9146182E-2,-1.862069E-2,1.9589946E-2,-1.8857142E-2,-1.7142856E-2,1.9793916E-2,-1.8730158E-2,1.895498E-2],"categories":[],"categories_nodes":[],"categories_segments":[],"categories_sizes":[],"default_left":[0,0,0,0,0,0,0,0,0,0,0,0,0,0,0,0,0,0,0,0,0,0,0,0,0,0,0,0,0,0,0,0,0,0,0,0,0,0,0,0,0,0,0,0,0,0,0,0,0,0,0,0,0,0,0,0,0,0,0,0,0,0,0,0,0,0,0,0,0,0,0,0,0,0,0,0,0,0,0,0,0,0,0,0,0,0,0,0,0,0,0,0,0,0,0,0,0,0,0,0,0,0,0,0,0,0,0,0,0,0,0,0,0,0,0],"id":0,"left_children":[1,3,5,-1,7,9,11,13,-1,15,17,19,21,23,-1,-1,25,27,29,31,33,35,37,39,41,-1,43,45,47,49,-1,-1,51,53,-1,55,57,-1,59,61,-1,63,-1,-1,65,67,69,-1,71,73,75,-1,77,79,81,-1,83,85,-1,-1,87,-1,89,-1,91,93,-1,95,97,-1,99,-1,-1,-1,101,-1,103,105,-1,-1,107,109,-1,111,-1,-1,-1,113,-1,-1,-1,-1,-1,-1,-1,-1,-1,-1,-1,-1,-1,-1,-1,-1,-1,-1,-1,-1,-1,-1,-1,-1,-1,-1,-1],"loss_changes":[2.6242438E5,6.0396875E3,1.5775578E4,0E0,3.2399375E3,3.5911875E3,6.8578433E3,1.8323125E3,0E0,3.2859026E3,1.3987188E3,3.3038813E3,2.956811E3,1.2599375E3,0E0,0E0,1.1721598E3,7.3078125E2,2.6189214E3,1.0809741E3,4.4439556E3,1.0481143E3,2.0021665E3,5.66875E1,1.4290259E3,0E0,2.4173096E2,4.5540625E2,1.3629263E3,2.6644167E3,0E0,0E0,2.8032617E2,1.0259531E3,0E0,8.133584E2,8.646888E2,0E0,8.029176E2,7.921875E0,0E0,1.2997871E3,0E0,0E0,7.104712E1,1.2012012E3,1.846875E2,0E0,1.0226318E2,1.3211537E3,1.7279468E3,0E0,1.8541016E2,3.881997E2,1.1018368E3,0E0,1.2760723E3,7.347449E1,0E0,0E0,5.0641602E2,0E0,3.5652197E2,0E0,9.2526953E2,3.2875E1,0E0,8.5018555E2,2.1604136E3,0E0,1.4179917E3,0E0,0E0,0E0,4.7638892E2,0E0,2.4044263E2,1.843374E2,0E0,0E0,1.9943604E2,2.2863623E2,0E0,8.782367E1,0E0,0E0,0E0,2.1465417E2,0E0,0E0,0E0,0E0,0E0,0E0,0E0,0E0,0E0,0E0,0E0,0E0,0E0,0E0,0E0,0E0,0E0,0E0,0E0,0E0,0E0,0E0,0E0,0E0,0E0,0E0,0E0],"parents":[2147483647,0,0,1,1,2,2,4,4,5,5,6,6,7,7,9,9,10,10,11,11,12,12,13,13,16,16,17,17,18,18,19,19,20,20,21,21,22,22,23,23,24,24,26,26,27,27,28,28,29,29,32,32,33,33,35,35,36,36,38,38,39,39,41,41,44,44,45,45,46,46,48,48,49,49,50,50,52,52,53,53,54,54,56,56,57,57,60,60,62,62,64,64,65,65,67,67,68,68,70,70,74,74,76,76,77,77,80,80,81,81,83,83,87,87],"right_children":[2,4,6,-1,8,10,12,14,-1,16,18,20,22,24,-1,-1,26,28,30,32,34,36,38,40,42,-1,44,46,48,50,-1,-1,52,54,-1,56,58,-1,60,62,-1,64,-1,-1,66,68,70,-1,72,74,76,-1,78,80,82,-1,84,86,-1,-1,88,-1,90,-1,92,94,-1,96,98,-1,100,-1,-1,-1,102,-1,104,106,-1,-1,108,110,-1,112,-1,-1,-1,114,-1,-1,-1,-1,-1,-1,-1,-1,-1,-1,-1,-1,-1,-1,-1,-1,-1,-1,-1,-1,-1,-1,-1,-1,-1,-1,-1],"split_conditions":[-1.7847999E0,-5.7835597E-1,1.4414353E0,-1.9950125E-2,1.9607837E0,-9.849113E-1,-4.5138922E-1,1.0335827E0,-1.9905882E-2,-2.0283267E0,1.070106E0,-3.2647505E-1,7.2866696E-1,-3.6448364E0,-1.9832985E-2,-1.9961629E-2,4.032982E-2,1.2022754E0,-5.161551E-1,-9.8485154E-1,-1.6871047E-1,1.2842902E0,2.131464E-1,1.993309E0,1.6888204E0,-1.9785522E-2,-1.6311398E-1,-4.646785E-1,1.34928E0,-9.9080974E-1,-1.9991139E-2,-1.9748427E-2,-5.0847083E-1,-1.7055799E-1,-1.9975385E-2,1.1070981E0,-1.6989549E0,-1.9924171E-2,2.546249E0,-1.7759048E0,-1.5789473E-2,-4.9853432E-1,-1.9836064E-2,-1.884058E-2,-2.3238546E-1,8.1601024E-1,1.5622975E0,-1.9920476E-2,3.6022058E-1,-7.685335E-1,1.3944917E0,-1.9024389E-2,1.1916203E0,-2.135718E-1,-3.1478283E-1,-1.9992065E-2,-1.1873333E0,-1.2512954E-1,-1.9793281E-2,-1.9717313E-2,1.2098029E-1,1.9986657E-2,-1.5118496E-1,-1.980861E-2,1.9793576E0,6.0367014E-2,-1.6521739E-2,-1.4509026E0,-6.2306386E-1,-1.9999249E-2,-8.597448E-1,-1.75E-2,1.9793916E-2,-1.983539E-2,-2.1386716E-1,-1.9976689E-2,-2.1159577E0,1.0776156E0,-1.8545454E-2,-1.9298246E-2,1.3633096E-1,-1.5118576E0,-1.9894458E-2,-1.2130508E0,-1.990419E-2,-1.6666666E-2,1.9862374E-2,1.2583345E-1,-1.9480519E-2,-1.9175258E-2,1.9717267E-2,1.807762E-2,3.3230719E-3,-1.3846154E-2,1.9879214E-2,-4.325413E-3,-1.999659E-2,3.034793E-3,-1.9977566E-2,8.009032E-3,-1.998637E-2,1.8230058E-2,-1.9440558E-2,1.9793916E-2,-1.8904109E-2,1.892157E-2,-1.8518519E-2,1.9146182E-2,-1.862069E-2,1.9589946E-2,-1.8857142E-2,-1.7142856E-2,1.9793916E-2,-1.8730158E-2,1.895498E-2],"split_indices":[13,3,3,0,0,19,11,9,0,0,6,13,19,13,0,0,3,25,12,10,7,6,18,6,4,0,4,13,11,9,0,0,24,20,0,10,10,0,3,9,0,10,0,0,11,10,12,0,24,0,14,0,0,21,27,0,14,0,0,0,12,0,20,0,16,27,0,9,12,0,16,0,0,0,25,0,12,18,0,0,26,10,0,14,0,0,0,27,0,0,0,0,0,0,0,0,0,0,0,0,0,0,0,0,0,0,0,0,0,0,0,0,0,0,0],"split_type":[0,0,0,0,0,0,0,0,0,0,0,0,0,0,0,0,0,0,0,0,0,0,0,0,0,0,0,0,0,0,0,0,0,0,0,0,0,0,0,0,0,0,0,0,0,0,0,0,0,0,0,0,0,0,0,0,0,0,0,0,0,0,0,0,0,0,0,0,0,0,0,0,0,0,0,0,0,0,0,0,0,0,0,0,0,0,0,0,0,0,0,0,0,0,0,0,0,0,0,0,0,0,0,0,0,0,0,0,0,0,0,0,0,0,0],"sum_hessian":[9.081047E4,4.1041895E4,4.976857E4,4E2,4.0641895E4,4.1826086E4,7.9424863E3,4.0430395E4,2.115E2,1.2142893E3,4.0611797E4,3.8423022E3,4.100184E3,4.0311645E4,1.1875E2,5.2025E2,6.9403937E2,3.6578184E4,4.0336118E3,1.9026182E3,1.9396841E3,3.1231448E3,9.7703937E2,3.656055E4,3.7510916E3,9.225E1,6.0178937E2,3.6176113E4,4.0207233E2,1.7776117E3,2.256E3,7.85E1,1.8241182E3,1.1281841E3,8.115E2,2.8780723E3,2.4507234E2,2.6275E2,7.1428937E2,3.65568E4,3.75E0,3.6300916E3,1.21E2,1.625E1,5.8553937E2,7.8755396E3,2.8300572E4,2.505E2,1.5157234E2,7.5878937E2,1.0188223E3,1.95E1,1.8046182E3,7.778617E2,3.5032233E2,2.51975E3,3.5832233E2,1.4932234E2,9.575E1,6.975E1,6.4453937E2,3.5225902E4,1.3309011E3,1.035E2,3.5265916E3,5.8078937E2,4.75E0,6.2333223E3,1.642217E3,2.662825E4,1.6723224E3,7E0,1.4457234E2,1.205E2,6.3828937E2,8.57E2,1.6182234E2,1.7918682E3,1.275E1,2.75E1,7.503617E2,1.6182234E2,1.885E2,1.5057234E2,2.0775E2,5E0,1.4432234E2,6.0703937E2,3.75E1,2.325E1,1.3076511E3,3.0316968E3,4.9489468E2,2.25E0,5.7853937E2,3.6857233E2,5.86475E3,7.5171704E2,8.905E2,2.0582234E2,1.4665E3,6.0353937E2,3.475E1,1.4457234E2,1.725E1,1.7793682E3,1.25E1,7.368617E2,1.35E1,1.4532234E2,1.65E1,6E0,1.4457234E2,1.475E1,5.9228937E2],"tree_param":{"num_deleted":"0","num_feature":"29","num_nodes":"115","size_leaf_vector":"1"}},{"base_weights":[2.1948071E-2,1.8551011E0,-1.562238E0,1.9723889E0,7.698882E-1,-1.7705764E0,7.721275E-2,-1.90103E-2,1.9748563E0,-1.4155307E-1,1.7727958E0,4.023277E-2,-1.8311825E0,1.4063214E0,-7.9092646E-1,1.9759625E0,-1.8118057E-2,5.9903705E-1,-1.9820387E-2,-1.961495E-2,1.9030653E0,1.0738025E0,-1.9762026E-2,-1.8562778E0,-3.2531545E-1,-1.9611893E-2,1.530722E0,4.356543E-1,-1.4558606E0,-1.686965E-2,1.9765544E0,1.2392304E0,-1.9869382E-2,-1.9019673E-2,1.9442458E0,-1.9663926E-2,1.5882411E0,-1.3984303E0,-1.9178811E0,-1.9750688E-2,1.4874899E0,-1.946358E-2,1.6216629E0,-1.9739969E-2,1.217849E0,5.468767E-1,-1.9794537E-2,1.9767346E0,-1.2601398E-2,-1.9674808E-2,1.5596509E0,-1.7696053E-2,1.9609362E0,1.8738548E0,-1.948524E-2,-1.8161358E0,-3.8091928E-1,-1.9480425E0,-1.0199368E0,-1.9184899E-2,1.8416468E0,1.6855146E0,-1.9270325E-2,-1.9601379E-2,1.5891066E0,1.7306237E0,-1.9679401E-2,1.976864E0,-1.1111374E-2,1.6626093E0,-1.9274257E-2,1.9698895E0,-1.6219672E-2,-1.8412959E-2,1.9437749E0,8.5292816E-2,-1.9800447E-2,-1.9767368E-2,4.989304E-1,-1.0263119E0,-1.9640145E0,1.2178643E0,-1.9780159E-2,1.9661428E0,-1.7916936E-2,1.8412639E0,4.7765973E-1,-1.9271048E-2,1.7582182E0,1.9503386E0,-1.8723674E-2,1.9784752E-2,1.8366408E-2,1.7578153E-2,-1.9222545E-2,1.9751547E-2,-1.4202127E-2,-1.6973274E-2,1.9762779E-2,-1.968844E-2,1.7285056E-2,-1.9708706E-2,1.0868916E-2,1.6388005E-2,-1.9762753E-2,-1.8147616E-2,-1.9804515E-2,1.8857734E-2,-1.9492326E-2,-1.3201056E-2,1.9933924E-2,1.8723404E-2,-1.854589E-2,1.9675892E-2,-1.9605346E-2,1.8418934E-2,-1.8686997E-2,1.9740889E-2,-1.2603368E-2],"categories":[],"categories_nodes":[],"categories_segments":[],"categories_sizes":[],"default_left":[0,0,0,0,0,0,0,0,0,0,0,0,0,0,0,0,0,0,0,0,0,0,0,0,0,0,0,0,0,0,0,0,0,0,0,0,0,0,0,0,0,0,0,0,0,0,0,0,0,0,0,0,0,0,0,0,0,0,0,0,0,0,0,0,0,0,0,0,0,0,0,0,0,0,0,0,0,0,0,0,0,0,0,0,0,0,0,0,0,0,0,0,0,0,0,0,0,0,0,0,0,0,0,0,0,0,0,0,0,0,0,0,0,0,0,0,0,0,0],"id":1,"left_children":[1,3,5,7,9,11,13,-1,15,17,19,21,23,25,27,29,-1,31,-1,-1,33,35,-1,37,39,-1,41,43,45,-1,47,49,-1,-1,51,-1,53,55,57,-1,59,-1,61,-1,63,65,-1,67,-1,-1,69,-1,71,73,-1,75,77,79,81,-1,83,85,-1,-1,87,89,-1,91,-1,93,-1,95,-1,-1,97,99,-1,-1,101,103,105,107,-1,109,-1,111,113,-1,115,117,-1,-1,-1,-1,-1,-1,-1,-1,-1,-1,-1,-1,-1,-1,-1,-1,-1,-1,-1,-1,-1,-1,-1,-1,-1,-1,-1,-1,-1],"loss_changes":[2.6702178E5,5.423828E3,1.6847031E4,3.7139062E2,3.802037E3,4.802797E3,6.419027E3,0E0,1.6460938E2,2.9723936E3,9.670581E2,2.9578816E3,1.5996406E3,9.237842E2,2.7452583E3,8.6671875E1,0E0,2.5770288E3,0E0,0E0,3.0361084E2,1.4705747E3,0E0,1.1720781E3,2.0824368E3,0E0,6.735957E2,2.2335527E3,2.289622E3,0E0,2.4875E1,1.2845156E3,0E0,0E0,1.2087158E2,0E0,8.148363E2,2.100253E3,9.921875E2,0E0,4.038421E2,0E0,4.7155518E2,0E0,1.0582292E3,1.3522478E3,0E0,1.7546875E1,0E0,0E0,4.1048706E2,0E0,6.3697266E1,1.9672412E2,0E0,1.0923066E3,2.022756E3,5.2084375E2,2.5645688E3,0E0,1.397279E2,3.8115088E2,0E0,0E0,4.798589E2,2.4796173E2,0E0,5.0625E0,0E0,3.79635E2,0E0,3.6393555E1,0E0,0E0,8.9782715E1,9.453447E2,0E0,0E0,1.3511517E3,1.5400493E3,8.203125E1,7.6281714E2,0E0,2.8745483E1,0E0,2.100332E2,8.513781E2,0E0,2.3561914E2,2.4705933E1,0E0,0E0,0E0,0E0,0E0,0E0,0E0,0E0,0E0,0E0,0E0,0E0,0E0,0E0,0E0,0E0,0E0,0E0,0E0,0E0,0E0,0E0,0E0,0E0,0E0,0E0,0E0,0E0,0E0],"parents":[2147483647,0,0,1,1,2,2,3,3,4,4,5,5,6,6,8,8,9,9,10,10,11,11,12,12,13,13,14,14,15,15,17,17,20,20,21,21,23,23,24,24,26,26,27,27,28,28,30,30,31,31,34,34,36,36,37,37,38,38,40,40,42,42,44,44,45,45,47,47,50,50,52,52,53,53,55,55,56,56,57,57,58,58,60,60,61,61,64,64,65,65,67,67,69,69,71,71,74,74,75,75,78,78,79,79,80,80,81,81,83,83,85,85,86,86,88,88,89,89],"right_children":[2,4,6,8,10,12,14,-1,16,18,20,22,24,26,28,30,-1,32,-1,-1,34,36,-1,38,40,-1,42,44,46,-1,48,50,-1,-1,52,-1,54,56,58,-1,60,-1,62,-1,64,66,-1,68,-1,-1,70,-1,72,74,-1,76,78,80,82,-1,84,86,-1,-1,88,90,-1,92,-1,94,-1,96,-1,-1,98,100,-1,-1,102,104,106,108,-1,110,-1,112,114,-1,116,118,-1,-1,-1,-1,-1,-1,-1,-1,-1,-1,-1,-1,-1,-1,-1,-1,-1,-1,-1,-1,-1,-1,-1,-1,-1,-1,-1,-1,-1],"split_conditions":[-1.7847999E0,-1.4178574E0,2.189558E0,-6.4916146E-1,1.8977821E0,-9.849113E-1,-2.9162666E-1,-1.90103E-2,1.0335827E0,-1.1761102E-1,9.7050375E-1,-6.840792E-2,1.1497016E0,-1.1480667E-1,-1.04980126E-1,-7.054187E-1,-1.8118057E-2,2.2319337E-2,-1.9820387E-2,-1.961495E-2,-2.3786353E-1,4.24677E-3,-1.9762026E-2,1.29E0,1.130971E0,-1.9611893E-2,-1.2849891E0,-2.0590977E-1,-2.7493286E-1,-1.686965E-2,1.9607837E0,-3.2275578E-1,-1.9869382E-2,-1.9019673E-2,-3.6967066E-1,-1.9663926E-2,-7.4765307E-1,7.389978E-1,6.783487E-1,-1.9750688E-2,1.8822324E-1,-1.946358E-2,1.1966057E0,-1.9739969E-2,1.11651376E-1,-8.2273906E-1,-1.9794537E-2,3.8388932E-1,-1.2601398E-2,-1.9674808E-2,-1.7335953E-1,-1.7696053E-2,1.74E1,-2.3442878E-1,-1.948524E-2,-1.4509026E0,1.9789958E-1,-9.674113E-1,-1.3375751E0,-1.9184899E-2,-1.1826453E-1,7.130717E-1,-1.9270325E-2,-1.9601379E-2,-2.9528558E-2,4.2545083E-1,-1.9679401E-2,-2.6413176E0,-1.1111374E-2,1.3473526E0,-1.9274257E-2,1.9188188E0,-1.6219672E-2,-1.8412959E-2,-1.3203847E-1,-2.465124E-1,-1.9800447E-2,-1.9767368E-2,1.2950264E-1,-1.3804181E0,-6.0090446E-1,-9.165085E-1,-1.9780159E-2,-1.6423146E-1,-1.7916936E-2,5.875548E-1,-1.1228136E-1,-1.9271048E-2,1.0999018E0,-6.998495E-1,-1.8723674E-2,1.9784752E-2,1.8366408E-2,1.7578153E-2,-1.9222545E-2,1.9751547E-2,-1.4202127E-2,-1.6973274E-2,1.9762779E-2,-1.968844E-2,1.7285056E-2,-1.9708706E-2,1.0868916E-2,1.6388005E-2,-1.9762753E-2,-1.8147616E-2,-1.9804515E-2,1.8857734E-2,-1.9492326E-2,-1.3201056E-2,1.9933924E-2,1.8723404E-2,-1.854589E-2,1.9675892E-2,-1.9605346E-2,1.8418934E-2,-1.8686997E-2,1.9740889E-2,-1.2603368E-2],"split_indices":[13,11,3,3,3,19,20,0,9,25,17,11,22,22,25,10,0,26,0,0,24,20,0,28,14,0,10,25,26,0,0,26,0,0,0,0,1,3,20,0,25,0,0,0,12,16,0,2,0,0,2,0,28,3,0,9,15,20,12,0,16,2,0,0,4,15,0,13,0,10,0,0,0,0,27,0,0,0,4,23,24,15,0,16,0,24,22,0,2,12,0,0,0,0,0,0,0,0,0,0,0,0,0,0,0,0,0,0,0,0,0,0,0,0,0,0,0,0,0],"split_type":[0,0,0,0,0,0,0,0,0,0,0,0,0,0,0,0,0,0,0,0,0,0,0,0,0,0,0,0,0,0,0,0,0,0,0,0,0,0,0,0,0,0,0,0,0,0,0,0,0,0,0,0,0,0,0,0,0,0,0,0,0,0,0,0,0,0,0,0,0,0,0,0,0,0,0,0,0,0,0,0,0,0,0,0,0,0,0,0,0,0,0,0,0,0,0,0,0,0,0,0,0,0,0,0,0,0,0,0,0,0,0,0,0,0,0,0,0,0,0],"sum_hessian":[9.194588E4,4.2623547E4,4.9322336E4,3.8465457E4,4.158088E3,4.3761168E4,5.5611675E3,2.3997612E1,3.844146E4,2.1788293E3,1.9792587E3,1.4172246E3,4.2343945E4,2.196989E3,3.3641787E3,3.843071E4,1.0748942E1,1.554137E3,6.2469226E2,6.62445E1,1.9130142E3,9.3727203E2,4.7995258E2,4.1649617E4,6.94326E2,7.774251E1,2.1192466E3,1.1827485E3,2.1814302E3,5.7494354E0,3.842496E4,1.2461552E3,3.0798187E2,1.9998404E1,1.8930157E3,1.352367E2,8.0203534E2,4.9421704E3,3.6707445E4,3.6346402E2,3.3086194E2,5.3494774E1,2.0657517E3,2.894713E2,8.932772E2,4.5210187E2,1.7293282E3,3.8423215E4,1.7498266E0,1.1273938E2,1.1334158E3,7.9993877E0,1.8850164E3,7.4254114E2,5.9494194E1,3.5032449E3,1.4389254E3,3.5513406E4,1.1940426E3,3.0746948E1,3.00115E2,2.0297552E3,3.5996437E1,9.299079E1,8.0028644E2,3.0761603E2,1.4448581E2,3.8421965E4,1.2499094E0,1.1014188E3,3.199699E1,1.8807666E3,4.2497125E0,1.3248686E1,7.292925E2,2.7806204E2,3.2251829E3,5.1094962E2,9.279758E2,6.06013E2,3.490739E4,3.5787558E2,8.36167E2,2.9061594E2,9.499061E0,1.7974545E3,2.3230078E2,3.6246403E1,7.6404004E2,2.9036774E2,1.7248304E1,3.797252E4,4.4944226E2,1.0734208E3,2.7997967E1,1.8782668E3,2.4997647E0,5.999403E0,7.23293E2,1.2349102E2,1.5457101E2,1.779834E2,7.4999243E2,1.590565E2,4.4695648E2,3.4739932E3,3.1433398E4,2.9588165E2,6.1993908E1,1.9998006E0,2.8861615E2,1.7829559E3,1.4498598E1,1.4430937E2,8.799142E1,7.472917E2,1.6748339E1,2.8861792E2,1.749832E0],"tree_param":{"num_deleted":"0","num_feature":"29","num_nodes":"119","size_leaf_vector":"1"}},{"base_weights":[-1.4841719E-2,1.8322597E0,-1.5565461E0,1.9492478E0,7.430935E-1,-1.7568544E0,-4.1371858E-1,1.9557229E0,-1.9307138E-2,-4.007768E-1,1.7039062E0,-1.069452E0,-1.8525531E0,8.9413756E-1,-9.693447E-1,1.9560672E0,-1.501573E-2,-1.4766246E0,1.5192767E0,1.7756385E0,-1.9194633E-2,-1.6204298E-2,-1.9607266E-2,-1.8821841E0,-1.5104634E-1,1.1589942E0,-1.9537069E-2,1.1876098E0,-1.3216811E0,1.9563339E0,-1.4210753E-2,6.8210566E-1,-1.9684207E-2,1.8612708E0,-1.9426873E-2,1.8238024E0,-1.9260017E-2,-9.6452224E-1,8.842684E-1,-1.8973212E0,-5.8756447E-1,-1.9550553E-2,1.571248E0,-1.9447314E-2,1.3378704E0,-1.9448625E-2,1.716705E0,2.9443836E-1,-1.9613348E-2,1.9596362E-2,1.8664935E0,-1.9371469E-2,1.9414881E0,-1.7863763E-2,1.917156E0,1.854963E0,-1.876213E-2,1.1628059E0,-1.9598966E-2,1.3166931E0,-1.9498076E-2,-1.7272873E0,-1.9411016E0,1.746217E0,-1.9540796E-2,1.8392239E0,-1.8792434E-2,-1.9392006E-2,1.491544E0,-1.9044185E-2,1.8801919E0,1.2902615E0,-1.9572742E-2,-1.8951451E-2,1.9354706E0,-1.25446515E-2,1.988596E-2,1.9456071E0,-1.604917E-2,-1.8475214E-2,1.8805083E0,1.8241613E0,-1.9315872E-2,-1.9296058E-2,1.5102968E0,-1.8793424E0,7.0445204E-1,-1.9611064E-2,-1.5746377E0,-1.7846664E-2,1.9953245E-2,1.9234263E0,-1.7004304E-2,1.5757045E0,-1.9205833E-2,1.9394615E0,-1.7699411E-2,-1.946447E-2,1.775113E0,-1.4895669E-2,1.9444793E-2,1.9608118E-2,-1.36786075E-2,1.8978123E-2,-1.7742787E-2,-1.776748E-2,1.9475313E-2,-1.9104676E-2,1.6455814E-2,-1.9627944E-2,-1.09278895E-2,1.617642E-2,-1.9443123E-2,-1.9607188E-2,6.1781746E-3,-1.4009561E-2,1.9568082E-2,1.6380966E-2,-1.9119892E-2,-1.4816797E-2,1.959675E-2,1.8946512E-2,-1.882831E-2],"categories":[],"categories_nodes":[],"categories_segments":[],"categories_sizes":[],"default_left":[0,0,0,0,0,0,0,0,0,0,0,0,0,0,0,0,0,0,0,0,0,0,0,0,0,0,0,0,0,0,0,0,0,0,0,0,0,0,0,0,0,0,0,0,0,0,0,0,0,0,0,0,0,0,0,0,0,0,0,0,0,0,0,0,0,0,0,0,0,0,0,0,0,0,0,0,0,0,0,0,0,0,0,0,0,0,0,0,0,0,0,0,0,0,0,0,0,0,0,0,0,0,0,0,0,0,0,0,0,0,0,0,0,0,0,0,0,0,0,0,0,0,0],"id":2,"left_children":[1,3,5,7,9,11,13,15,-1,17,19,21,23,25,27,29,-1,31,33,35,-1,37,-1,39,41,43,-1,45,47,49,-1,51,-1,53,-1,55,-1,57,59,61,63,-1,65,-1,67,-1,69,71,-1,-1,73,-1,75,-1,77,79,-1,81,-1,83,-1,85,87,89,-1,91,-1,-1,93,-1,95,97,-1,-1,99,-1,-1,101,-1,-1,103,105,-1,-1,107,109,111,-1,113,-1,-1,115,-1,117,-1,119,-1,-1,121,-1,-1,-1,-1,-1,-1,-1,-1,-1,-1,-1,-1,-1,-1,-1,-1,-1,-1,-1,-1,-1,-1,-1,-1],"loss_changes":[2.5681062E5,5.22625E3,1.1251656E4,9.345156E2,4.375973E3,2.7493438E3,5.3288677E3,4.696875E1,0E0,3.7580305E3,5.658091E2,4.80011E3,1.8506016E3,1.6516018E3,3.9126382E3,3.609375E1,0E0,1.2389846E3,7.772384E2,3.8189307E2,0E0,2.0031199E3,0E0,7.059844E2,1.9588118E3,1.1136504E3,0E0,1.2018468E3,4.5741084E3,7.3125E0,0E0,7.1972E2,0E0,1.2475122E2,0E0,2.4508984E2,0E0,2.421542E3,1.4771665E3,2.6214844E2,1.3379556E3,0E0,3.0172516E2,0E0,9.560928E2,0E0,3.7013525E2,2.8175288E3,0E0,0E0,3.4932568E2,0E0,2.463684E1,0E0,6.191211E1,2.0006934E2,0E0,7.501032E2,0E0,6.594094E2,0E0,2.7049512E3,2.0478906E2,1.3995255E2,0E0,9.2635254E1,0E0,0E0,5.223821E2,0E0,1.317085E2,1.370415E3,0E0,0E0,4.3277344E1,0E0,0E0,3.2025146E1,0E0,0E0,1.3395166E2,1.3721503E2,0E0,0E0,4.5959058E2,4.4957617E2,1.0457261E3,0E0,1.2478938E3,0E0,0E0,3.529419E1,0E0,3.8732812E2,0E0,4.3284668E1,0E0,0E0,3.3505322E2,0E0,0E0,0E0,0E0,0E0,0E0,0E0,0E0,0E0,0E0,0E0,0E0,0E0,0E0,0E0,0E0,0E0,0E0,0E0,0E0,0E0,0E0,0E0,0E0],"parents":[2147483647,0,0,1,1,2,2,3,3,4,4,5,5,6,6,7,7,9,9,10,10,11,11,12,12,13,13,14,14,15,15,17,17,18,18,19,19,21,21,23,23,24,24,25,25,27,27,28,28,29,29,31,31,33,33,35,35,37,37,38,38,39,39,40,40,42,42,44,44,46,46,47,47,50,50,52,52,54,54,55,55,57,57,59,59,61,61,62,62,63,63,65,65,68,68,70,70,71,71,74,74,77,77,80,80,81,81,84,84,85,85,86,86,88,88,91,91,93,93,95,95,98,98],"right_children":[2,4,6,8,10,12,14,16,-1,18,20,22,24,26,28,30,-1,32,34,36,-1,38,-1,40,42,44,-1,46,48,50,-1,52,-1,54,-1,56,-1,58,60,62,64,-1,66,-1,68,-1,70,72,-1,-1,74,-1,76,-1,78,80,-1,82,-1,84,-1,86,88,90,-1,92,-1,-1,94,-1,96,98,-1,-1,100,-1,-1,102,-1,-1,104,106,-1,-1,108,110,112,-1,114,-1,-1,116,-1,118,-1,120,-1,-1,122,-1,-1,-1,-1,-1,-1,-1,-1,-1,-1,-1,-1,-1,-1,-1,-1,-1,-1,-1,-1,-1,-1,-1,-1],"split_conditions":[-1.7847999E0,-3.6448364E0,1.4414353E0,1.0335827E0,1.6686646E0,-4.4124946E-1,-3.4414625E-1,1.9607837E0,-1.9307138E-2,1.84E2,5.5040514E-1,-4.411031E-1,1.1497016E0,1.0405465E0,-1.1545243E0,-1.7335953E-1,-1.501573E-2,-1.0706434E0,-1.4074279E0,7.3916113E-1,-1.9194633E-2,3.817576E-1,-1.9607266E-2,2.2141495E0,1.130971E0,1.6686646E0,-1.9537069E-2,-5.448854E-3,3.84E0,6.5752673E-1,-1.4210753E-2,-1.090629E0,-1.9684207E-2,-2.3945112E0,-1.9426873E-2,1.6276548E0,-1.9260017E-2,-1.6507024E0,3.458809E-1,-4.9788293E-1,-1.0416569E0,-1.9550553E-2,2.5511183E-2,-1.9447314E-2,-7.758998E-1,-1.9448625E-2,3.186078E-2,-1.04980126E-1,-1.9613348E-2,1.9596362E-2,7.587183E-5,-1.9371469E-2,1.2892821E0,-1.7863763E-2,2.2319337E-2,-2.2669034E-1,-1.876213E-2,1.29E0,-1.9598966E-2,-6.590535E-1,-1.9498076E-2,-5.083811E-1,1.5622975E0,-1.0681002E0,-1.9540796E-2,1.3781528E0,-1.8792434E-2,-1.9392006E-2,5.875548E-1,-1.9044185E-2,4.6906963E-2,-2.0590977E-1,-1.9572742E-2,-1.8951451E-2,9.722488E-1,-1.25446515E-2,1.988596E-2,-2.0854823E-1,-1.604917E-2,-1.8475214E-2,1.6888204E0,-7.3947763E-1,-1.9315872E-2,-1.9296058E-2,-1.7418532E-1,1.0069882E0,-3.2253584E-1,-1.9611064E-2,6.684506E-1,-1.7846664E-2,1.9953245E-2,2.734066E-1,-1.7004304E-2,1.2952543E0,-1.9205833E-2,-1.4149405E-1,-1.7699411E-2,-1.946447E-2,8.6734277E-1,-1.4895669E-2,1.9444793E-2,1.9608118E-2,-1.36786075E-2,1.8978123E-2,-1.7742787E-2,-1.776748E-2,1.9475313E-2,-1.9104676E-2,1.6455814E-2,-1.9627944E-2,-1.09278895E-2,1.617642E-2,-1.9443123E-2,-1.9607188E-2,6.1781746E-3,-1.4009561E-2,1.9568082E-2,1.6380966E-2,-1.9119892E-2,-1.4816797E-2,1.959675E-2,1.8946512E-2,-1.882831E-2],"split_indices":[13,13,3,9,3,7,7,0,0,28,9,12,22,2,13,2,0,6,9,12,0,18,0,10,14,3,0,14,28,6,0,6,0,13,0,17,0,5,9,13,13,0,7,0,22,0,27,25,0,0,25,0,10,0,26,19,0,28,0,10,0,13,12,13,0,22,0,0,24,0,26,25,0,0,10,0,0,7,0,0,4,12,0,0,26,18,25,0,24,0,0,3,0,13,0,22,0,0,2,0,0,0,0,0,0,0,0,0,0,0,0,0,0,0,0,0,0,0,0,0,0,0,0],"split_type":[0,0,0,0,0,0,0,0,0,0,0,0,0,0,0,0,0,0,0,0,0,0,0,0,0,0,0,0,0,0,0,0,0,0,0,0,0,0,0,0,0,0,0,0,0,0,0,0,0,0,0,0,0,0,0,0,0,0,0,0,0,0,0,0,0,0,0,0,0,0,0,0,0,0,0,0,0,0,0,0,0,0,0,0,0,0,0,0,0,0,0,0,0,0,0,0,0,0,0,0,0,0,0,0,0,0,0,0,0,0,0,0,0,0,0,0,0,0,0,0,0,0,0],"sum_hessian":[9.0180266E4,4.1026555E4,4.915371E4,3.7046562E4,3.9799924E3,4.1822727E4,7.3309873E3,3.6985336E4,6.1226803E1,1.8171798E3,2.1628125E3,5.1124272E3,3.6710297E4,2.1856655E3,5.1453213E3,3.6982086E4,3.2488852E0,1.1647666E3,6.5241315E2,2.1213264E3,4.1486164E1,2.343755E3,2.768672E3,3.6081844E4,6.284555E2,2.000232E3,1.8543355E2,7.2213586E2,4.4231855E3,3.6979586E4,2.4995599E0,2.1604668E2,9.4872E2,5.941789E2,5.8234276E1,2.09458E3,2.6746365E1,1.1415155E3,1.2022394E3,3.566438E4,4.17464E2,3.068802E2,3.2157532E2,1.0845904E2,1.8917731E3,1.0396172E2,6.1817413E2,1.2544045E3,3.168781E3,3.56484E4,1.331188E3,6.997504E1,1.4607164E2,8.49872E0,5.856802E2,2.0775818E3,1.6998178E1,3.638092E2,7.7770636E2,1.0435496E3,1.5868987E2,7.310871E3,2.8353508E4,1.5406633E2,2.6339764E2,2.9883392E2,2.2741404E1,8.421796E1,1.807555E3,2.6243763E1,5.919304E2,8.700505E2,3.8435406E2,2.3493694E1,1.3076943E3,1.7495062E0,1.4432213E2,5.8143097E2,4.249173E0,1.3747397E1,2.0638345E3,3.000837E2,6.3725502E1,5.822816E1,9.853214E2,6.8808433E3,4.300278E2,2.6881697E4,1.4718093E3,9.7469845E0,1.4431935E2,2.9233633E2,6.497574E0,1.7645701E3,4.2985096E1,5.829336E2,8.99681E0,1.1295901E2,7.570915E2,2.9994261E0,1.3046948E3,5.7918146E2,2.249493E0,2.0545876E3,9.246931E0,9.496594E0,2.9058713E2,3.69859E1,9.483355E2,6.219472E3,6.61371E2,3.2006964E2,1.0995816E2,1.251527E3,2.202824E2,2.4990394E0,2.898373E2,1.734079E3,3.0491009E1,2.9993074E0,5.7993427E2,7.3360016E2,2.3491325E1],"tree_param":{"num_deleted":"0","num_feature":"29","num_nodes":"123","size_leaf_vector":"1"}},{"base_weights":[3.4265324E-2,1.8214275E0,-1.5103432E0,-1.9374132E-2,1.8490461E0,-1.6694695E0,-3.8014525E-1,1.9340216E0,1.1137028E0,9.9532716E-2,-1.7274712E0,5.2313E-1,-1.5256798E0,-1.8081246E-2,1.9353191E0,-1.4595328E-1,1.8065252E0,-1.9387465E-2,1.0238749E0,-1.3139588E0,-1.8549958E0,-8.0306005E-1,1.0561194E0,-1.9427551E-2,1.64682E-1,1.9359095E0,-1.6880888E-2,8.8956696E-1,-1.9518347E-2,1.8518214E0,-1.8876862E-2,-1.9301139E-2,1.5646458E0,-1.8357617E0,-7.37386E-1,-1.906003E0,-6.1412466E-1,1.1594738E0,-1.944464E-2,-1.9364756E-2,1.250108E0,1.4106102E0,-1.9340664E-2,1.9364716E0,-1.6608778E-2,1.4234784E0,-1.9382501E-2,1.8719839E0,-1.8484017E-2,-1.9016474E-2,1.7783852E0,-6.177048E-1,-1.9435605E-2,1.2297176E0,-9.898145E-1,-1.9241312E0,-3.6403742E-1,-1.9398013E-2,8.946941E-1,1.8093995E0,-1.925293E-2,1.4117967E0,-1.9389134E-2,1.8928592E0,-1.9054277E-2,-1.4587405E-2,1.9367769E0,-1.9114481E-2,1.6349536E0,-1.7456032E-2,1.8829793E0,-1.8615587E-2,1.8908534E0,-1.947291E-2,1.6080601E0,1.5969684E0,-1.9094948E-2,-1.7075808E0,-3.9028954E-3,-1.7268519E0,-1.9425698E-2,-1.9343905E-2,1.8879703E0,1.4311997E0,-1.9237522E-2,-1.726449E-2,1.9029949E0,1.5282539E0,-1.922203E-2,-1.5644506E-2,1.9458648E-2,1.539242E-2,1.9384163E-2,1.7701477E-2,-1.9070115E-2,-1.6566591E-2,1.8905634E-2,1.9329976E-2,-1.7310487E-2,-1.8236576E-2,1.9376213E-2,-1.8754149E-2,1.80727E-2,1.7433466E-2,-1.943367E-2,6.7822803E-3,-1.9450855E-2,-1.9425353E-2,4.418627E-4,1.9735623E-2,-1.4850906E-2,1.7416988E-2,-1.8978585E-2,1.9297153E-2,-1.3167124E-2,1.5973791E-2,-1.8985715E-2],"categories":[],"categories_nodes":[],"categories_segments":[],"categories_sizes":[],"default_left":[0,0,0,0,0,0,0,0,0,0,0,0,0,0,0,0,0,0,0,0,0,0,0,0,0,0,0,0,0,0,0,0,0,0,0,0,0,0,0,0,0,0,0,0,0,0,0,0,0,0,0,0,0,0,0,0,0,0,0,0,0,0,0,0,0,0,0,0,0,0,0,0,0,0,0,0,0,0,0,0,0,0,0,0,0,0,0,0,0,0,0,0,0,0,0,0,0,0,0,0,0,0,0,0,0,0,0,0,0,0,0,0,0,0,0,0,0],"id":3,"left_children":[1,3,5,-1,7,9,11,13,15,17,19,21,23,-1,25,27,29,-1,31,33,35,37,39,-1,41,43,-1,45,-1,47,-1,-1,49,51,53,55,57,59,-1,-1,61,63,-1,65,-1,67,-1,69,-1,-1,71,73,-1,75,77,79,81,-1,83,85,-1,87,-1,89,-1,-1,91,-1,93,-1,95,-1,97,-1,99,101,-1,103,105,107,-1,-1,109,111,-1,-1,113,115,-1,-1,-1,-1,-1,-1,-1,-1,-1,-1,-1,-1,-1,-1,-1,-1,-1,-1,-1,-1,-1,-1,-1,-1,-1,-1,-1,-1,-1],"loss_changes":[2.553055E5,4.454797E3,8.921367E3,0E0,2.6575469E3,4.462133E3,6.3375483E3,1.8873438E2,3.8502915E3,2.6048513E3,2.2179531E3,2.4216746E3,1.9039902E3,0E0,8.4875E1,2.9308086E3,4.797627E2,0E0,1.5223912E3,2.9855684E3,2.0355469E3,2.2028706E3,1.4209053E3,0E0,1.4025074E3,8.0328125E1,0E0,1.5067974E3,0E0,2.1326953E2,0E0,0E0,5.994302E2,6.830137E2,2.344032E3,8.6327344E2,2.5459998E3,7.29009E2,0E0,0E0,1.1862554E3,5.4169073E2,0E0,4.2328125E1,0E0,5.945121E2,0E0,1.145625E2,0E0,0E0,3.139519E2,1.2612565E3,0E0,6.22196E2,2.959481E3,1.07765625E2,1.2781288E3,0E0,9.0335486E2,1.0237549E2,0E0,8.5134766E2,0E0,5.6969604E1,0E0,0E0,2.1859375E1,0E0,3.8122876E2,0E0,7.8015625E1,0E0,1.1570117E2,0E0,1.8396121E2,3.5488782E2,0E0,1.9726348E3,2.335703E3,1.0009512E3,0E0,0E0,4.5822266E1,5.210925E2,0E0,0E0,2.7677368E1,5.033047E2,0E0,0E0,0E0,0E0,0E0,0E0,0E0,0E0,0E0,0E0,0E0,0E0,0E0,0E0,0E0,0E0,0E0,0E0,0E0,0E0,0E0,0E0,0E0,0E0,0E0,0E0,0E0,0E0,0E0],"parents":[2147483647,0,0,1,1,2,2,4,4,5,5,6,6,7,7,8,8,9,9,10,10,11,11,12,12,14,14,15,15,16,16,18,18,19,19,20,20,21,21,22,22,24,24,25,25,27,27,29,29,32,32,33,33,34,34,35,35,36,36,37,37,40,40,41,41,43,43,45,45,47,47,50,50,51,51,53,53,54,54,55,55,56,56,58,58,59,59,61,61,63,63,66,66,68,68,70,70,72,72,74,74,75,75,77,77,78,78,79,79,82,82,83,83,86,86,87,87],"right_children":[2,4,6,-1,8,10,12,14,16,18,20,22,24,-1,26,28,30,-1,32,34,36,38,40,-1,42,44,-1,46,-1,48,-1,-1,50,52,54,56,58,60,-1,-1,62,64,-1,66,-1,68,-1,70,-1,-1,72,74,-1,76,78,80,82,-1,84,86,-1,88,-1,90,-1,-1,92,-1,94,-1,96,-1,98,-1,100,102,-1,104,106,108,-1,-1,110,112,-1,-1,114,116,-1,-1,-1,-1,-1,-1,-1,-1,-1,-1,-1,-1,-1,-1,-1,-1,-1,-1,-1,-1,-1,-1,-1,-1,-1,-1,-1,-1,-1],"split_conditions":[-1.7847999E0,-7.6383257E-1,1.6170504E0,-1.9374132E-2,-1.7759048E0,-9.849113E-1,3.280441E-4,-4.87316E-1,2.189558E0,3.186078E-2,-4.646785E-1,-1.2495298E-1,1.1070981E0,-1.8081246E-2,-1.8945946E0,4.759939E-1,1.0335827E0,-1.9387465E-2,-2.1866444E-1,-2.3758553E-2,5.1539E2,-3.1478283E-1,-7.4248046E-1,-1.9427551E-2,4.474142E-2,-1.7335953E-1,-1.6880888E-2,-1.1761102E-1,-1.9518347E-2,4.7610328E-1,-1.8876862E-2,-1.9301139E-2,9.835743E-4,-1.4509026E0,-5.0241745E-1,2.4267168E0,4.6818322E-1,-1.4641855E0,-1.944464E-2,-1.9364756E-2,1.3924257E0,-1.1873333E0,-1.9340664E-2,-6.0793823E-1,-1.6608778E-2,-2.190101E-1,-1.9382501E-2,-1.2473325E0,-1.8484017E-2,-1.9016474E-2,-3.4495995E0,-5.083811E-1,-1.9435605E-2,4.1246302E-3,5.21356E-1,-8.597448E-1,8.3309907E-1,-1.9398013E-2,7.3888975E-1,8.283811E-2,-1.925293E-2,8.945455E-1,-1.9389134E-2,-1.2401775E0,-1.9054277E-2,-1.4587405E-2,1.3734052E-1,-1.9114481E-2,1.3719188E0,-1.7456032E-2,-7.054187E-1,-1.8615587E-2,1.2454832E-2,-1.947291E-2,-2.6383272E-1,1.568927E-2,-1.9094948E-2,-1.26511045E-2,4.1237965E-2,-8.733646E-1,-1.9425698E-2,-1.9343905E-2,8.476685E-1,1.5625305E-2,-1.9237522E-2,-1.726449E-2,7.63E0,2.0178216E0,-1.922203E-2,-1.5644506E-2,1.9458648E-2,1.539242E-2,1.9384163E-2,1.7701477E-2,-1.9070115E-2,-1.6566591E-2,1.8905634E-2,1.9329976E-2,-1.7310487E-2,-1.8236576E-2,1.9376213E-2,-1.8754149E-2,1.80727E-2,1.7433466E-2,-1.943367E-2,6.7822803E-3,-1.9450855E-2,-1.9425353E-2,4.418627E-4,1.9735623E-2,-1.4850906E-2,1.7416988E-2,-1.8978585E-2,1.9297153E-2,-1.3167124E-2,1.5973791E-2,-1.8985715E-2],"split_indices":[13,3,3,0,9,19,7,10,3,27,13,16,10,0,13,4,9,0,3,3,28,27,4,0,13,2,0,25,0,7,0,0,20,9,19,18,18,14,0,0,1,14,0,3,0,20,0,23,0,0,7,13,0,7,1,16,15,0,18,13,0,8,0,14,0,0,10,0,3,0,10,0,2,0,0,26,0,3,27,16,0,0,15,15,0,0,28,2,0,0,0,0,0,0,0,0,0,0,0,0,0,0,0,0,0,0,0,0,0,0,0,0,0,0,0,0,0],"split_type":[0,0,0,0,0,0,0,0,0,0,0,0,0,0,0,0,0,0,0,0,0,0,0,0,0,0,0,0,0,0,0,0,0,0,0,0,0,0,0,0,0,0,0,0,0,0,0,0,0,0,0,0,0,0,0,0,0,0,0,0,0,0,0,0,0,0,0,0,0,0,0,0,0,0,0,0,0,0,0,0,0,0,0,0,0,0,0,0,0,0,0,0,0,0,0,0,0,0,0,0,0,0,0,0,0,0,0,0,0,0,0,0,0,0,0,0,0],"sum_hessian":[9.248439E4,4.287567E4,4.960872E4,3.122335E2,4.2563438E4,4.3485676E4,6.1230435E3,3.81529E4,4.4105376E3,1.3805144E3,4.2105164E4,3.4238318E3,2.6992114E3,1.2740638E1,3.814016E4,1.5653264E3,2.8452112E3,4.303801E2,9.501343E2,9.927024E3,3.2178139E4,9.813986E2,2.442433E3,2.1649006E3,5.343109E2,3.813441E4,5.7487626E0,9.9518146E2,5.7014496E2,2.8112402E3,3.3971004E1,1.4662398E2,8.035103E2,5.2098687E3,4.717156E3,3.0907137E4,1.2710011E3,3.6088165E2,6.2051697E2,1.4814035E2,2.2942927E3,3.3548007E2,1.9883086E2,3.8128914E4,5.4975677E0,8.37544E2,1.5763745E2,2.796496E3,1.4743975E1,4.620988E1,7.573004E2,4.2413614E2,4.7857324E3,5.360442E2,4.1811113E3,3.0547754E4,3.5938333E2,6.764094E2,5.9459174E2,2.9842114E2,6.2460533E1,2.184112E3,1.1018074E2,2.932606E2,4.2219494E1,2.9975512E0,3.8125914E4,4.946419E1,7.8807983E2,7.995918E0,2.7885002E3,2.2231888E1,7.3506854E2,2.656013E2,1.5853487E2,4.8034122E2,5.5702972E1,2.419169E3,1.7619425E3,2.6191775E3,2.7928576E4,2.1181978E2,1.4756354E2,4.9992136E2,9.467037E1,7.245735E0,2.911754E2,2.110919E3,7.319323E1,3.9976552E0,2.8926294E2,1.6045775E2,3.7965457E4,7.595872E2,2.8492609E1,5.4969974E0,2.7830032E3,7.2707465E2,7.9938884E0,1.3493501E1,1.4504135E2,2.697799E1,4.5336322E2,1.5431062E2,2.2648582E3,1.3042723E3,4.5767026E2,2.3347466E3,2.8443073E2,1.4431639E2,3.2471461E0,4.5770804E2,4.2213306E1,2.8917618E2,1.9992301E0,2.0697031E3,4.121575E1],"tree_param":{"num_deleted":"0","num_feature":"29","num_nodes":"117","size_leaf_vector":"1"}},{"base_weights":[-2.0517295E-2,1.839093E0,-1.320557E0,-1.9238314E-2,1.8935565E0,-1.5820103E0,4.0695214E-1,-1.9117858E-2,1.9052044E0,-1.6828355E0,-5.359943E-1,1.0499228E0,-1.114341E0,1.9090924E0,-1.876586E-2,-1.7076288E0,8.953969E-1,1.0483583E0,-1.3050866E0,1.50157E0,-7.7570814E-1,1.4347625E0,-1.6049355E0,-1.8255778E-2,1.9109219E0,-1.7322372E0,2.5099623E-1,-1.9050496E-2,1.6882484E0,-1.912899E-2,1.3451574E0,1.1629591E-2,-1.9302437E-2,1.5919242E0,-1.913789E-2,-1.9255852E-2,1.5249516E0,1.7844793E0,-1.8840935E-2,-1.9266963E-2,1.6572598E0,1.9120389E0,-1.7703647E-2,-1.1403116E0,-1.8016168E0,-1.9152611E-2,1.5239085E0,-1.81713E-2,1.8905053E0,1.5419415E0,-1.910654E-2,-1.9205391E-2,1.038382E0,1.671836E0,-1.9093351E-2,1.8758044E0,-1.8722996E-2,-1.7817458E-2,1.9254253E0,1.909792E-2,-1.7578483E-2,1.9187603E0,1.427415E0,-1.5908281E0,5.053638E-1,-1.829726E0,-7.2089183E-1,1.7960321E0,-1.8480442E-2,1.9429833E-2,-1.5410121E-2,1.659632E0,-1.8859548E-2,1.5175973E0,-1.906386E-2,1.7211678E0,-1.898733E-2,1.9256098E-2,-1.5545501E-2,-1.08130155E-2,1.9421365E-2,1.9192202E-2,-1.5723875E-2,-1.9213697E-2,1.9202797E-2,-6.5446245E-3,-1.924593E-2,1.4921067E-2,-1.9206995E-2,-7.5220093E-3,-1.8597474E-2,1.5750421E-2,-1.92295E-2,1.9042127E-2,-1.7244788E-2,1.7452922E-2,-1.8565897E-2,-1.8641492E-2,1.727401E-2,1.7468167E-2,-1.875669E-2],"categories":[],"categories_nodes":[],"categories_segments":[],"categories_sizes":[],"default_left":[0,0,0,0,0,0,0,0,0,0,0,0,0,0,0,0,0,0,0,0,0,0,0,0,0,0,0,0,0,0,0,0,0,0,0,0,0,0,0,0,0,0,0,0,0,0,0,0,0,0,0,0,0,0,0,0,0,0,0,0,0,0,0,0,0,0,0,0,0,0,0,0,0,0,0,0,0,0,0,0,0,0,0,0,0,0,0,0,0,0,0,0,0,0,0,0,0,0,0,0,0],"id":4,"left_children":[1,3,5,-1,7,9,11,-1,13,15,17,19,21,23,-1,25,27,29,31,33,35,37,39,-1,41,43,45,-1,47,-1,49,51,-1,53,-1,-1,55,57,-1,-1,59,61,-1,63,65,-1,67,-1,69,71,-1,-1,73,75,-1,77,-1,-1,79,-1,-1,81,83,85,87,89,91,93,-1,-1,-1,95,-1,97,-1,99,-1,-1,-1,-1,-1,-1,-1,-1,-1,-1,-1,-1,-1,-1,-1,-1,-1,-1,-1,-1,-1,-1,-1,-1,-1],"loss_changes":[2.1652089E5,7.555797E3,2.3808398E4,0E0,1.6137031E3,4.827547E3,6.779544E3,0E0,5.360781E2,2.6707578E3,4.9076714E3,4.0179844E3,2.5775266E3,2.5067188E2,0E0,1.9939219E3,8.877627E2,1.159538E3,2.231665E3,1.208333E3,2.5606587E3,3.897213E2,1.8163008E3,0E0,1.5207812E2,1.6754062E3,1.420452E3,0E0,2.2393848E2,0E0,7.698867E2,1.7354663E3,0E0,1.0679775E3,0E0,0E0,3.8820905E2,1.5505847E2,0E0,0E0,1.3756406E2,1.15E2,0E0,3.179997E3,1.1092969E3,0E0,3.0094824E2,0E0,5.6033813E1,4.587544E2,0E0,0E0,8.090008E2,6.587383E2,0E0,5.3058838E1,0E0,0E0,1.6705078E1,0E0,0E0,6.0265625E1,8.263318E2,1.0509258E3,2.2108975E3,1.1512656E3,2.565393E3,1.1778479E2,0E0,0E0,0E0,3.3227783E2,0E0,3.521814E2,0E0,3.4195312E2,0E0,0E0,0E0,0E0,0E0,0E0,0E0,0E0,0E0,0E0,0E0,0E0,0E0,0E0,0E0,0E0,0E0,0E0,0E0,0E0,0E0,0E0,0E0,0E0,0E0],"parents":[2147483647,0,0,1,1,2,2,4,4,5,5,6,6,8,8,9,9,10,10,11,11,12,12,13,13,15,15,16,16,17,17,18,18,19,19,20,20,21,21,22,22,24,24,25,25,26,26,28,28,30,30,31,31,33,33,36,36,37,37,40,40,41,41,43,43,44,44,46,46,48,48,49,49,52,52,53,53,55,55,58,58,61,61,62,62,63,63,64,64,65,65,66,66,67,67,71,71,73,73,75,75],"right_children":[2,4,6,-1,8,10,12,-1,14,16,18,20,22,24,-1,26,28,30,32,34,36,38,40,-1,42,44,46,-1,48,-1,50,52,-1,54,-1,-1,56,58,-1,-1,60,62,-1,64,66,-1,68,-1,70,72,-1,-1,74,76,-1,78,-1,-1,80,-1,-1,82,84,86,88,90,92,94,-1,-1,-1,96,-1,98,-1,100,-1,-1,-1,-1,-1,-1,-1,-1,-1,-1,-1,-1,-1,-1,-1,-1,-1,-1,-1,-1,-1,-1,-1,-1,-1],"split_conditions":[-1.7759048E0,-5.7835597E-1,2.189558E0,-1.9238314E-2,-5.3286225E-1,1.1197599E0,3.9647645E-1,-1.9117858E-2,1.012921E0,1.7856927E0,-4.4124946E-1,1.1074985E0,-9.674113E-1,-5.6175003E0,-1.876586E-2,1.0621061E0,8.289781E-2,1.9898844E-1,1.2233738E0,4.7610328E-1,4.7798047E0,3.3683658E-1,1.6879656E0,-1.8255778E-2,9.6808296E-1,-9.729763E-1,-2.0075303E-2,-1.9050496E-2,-4.7057748E-2,-1.912899E-2,1.1370473E0,2.73628E-1,-1.9302437E-2,5.706131E-1,-1.913789E-2,-1.9255852E-2,-4.7790843E-1,2.1955766E-1,-1.8840935E-2,-1.9266963E-2,-8.357518E-1,-3.0885828E-1,-1.7703647E-2,1.6287264E-1,7.7187395E-1,-1.9152611E-2,-1.5395522E0,-1.81713E-2,-2.623321E-1,1.8442394E-1,-1.910654E-2,-1.9205391E-2,-3.009635E-1,1.8665049E0,-1.9093351E-2,-4.1157347E-1,-1.8722996E-2,-1.7817458E-2,3.3449292E-1,1.909792E-2,-1.7578483E-2,-1.7335953E-1,1.8977821E0,-1.4509026E0,-6.741239E-1,-1.5235986E0,-1.5603431E0,6.0589397E-1,-1.8480442E-2,1.9429833E-2,-1.5410121E-2,5.3576165E-1,-1.8859548E-2,-5.7444E-1,-1.906386E-2,1.3609903E0,-1.898733E-2,1.9256098E-2,-1.5545501E-2,-1.08130155E-2,1.9421365E-2,1.9192202E-2,-1.5723875E-2,-1.9213697E-2,1.9202797E-2,-6.5446245E-3,-1.924593E-2,1.4921067E-2,-1.9206995E-2,-7.5220093E-3,-1.8597474E-2,1.5750421E-2,-1.92295E-2,1.9042127E-2,-1.7244788E-2,1.7452922E-2,-1.8565897E-2,-1.8641492E-2,1.727401E-2,1.7468167E-2,-1.875669E-2],"split_indices":[9,3,3,0,10,16,2,0,11,21,7,9,20,1,0,26,8,4,16,7,3,18,17,0,8,9,2,0,17,0,6,15,0,24,0,0,15,18,0,0,9,11,0,3,22,0,5,0,12,11,0,0,12,6,0,20,0,0,24,0,0,2,3,9,5,18,12,2,0,0,0,25,0,11,0,5,0,0,0,0,0,0,0,0,0,0,0,0,0,0,0,0,0,0,0,0,0,0,0,0,0],"split_type":[0,0,0,0,0,0,0,0,0,0,0,0,0,0,0,0,0,0,0,0,0,0,0,0,0,0,0,0,0,0,0,0,0,0,0,0,0,0,0,0,0,0,0,0,0,0,0,0,0,0,0,0,0,0,0,0,0,0,0,0,0,0,0,0,0,0,0,0,0,0,0,0,0,0,0,0,0,0,0,0,0,0,0,0,0,0,0,0,0,0,0,0,0,0,0,0,0,0,0,0,0],"sum_hessian":[8.955947E4,3.6849125E4,5.2710348E4,5.2524524E2,3.632388E4,4.5781535E4,6.928812E3,1.1034766E2,3.621353E4,4.175607E4,4.0254668E3,4.8705825E3,2.0582292E3,3.6176832E4,3.6697327E1,4.1358688E4,3.973837E2,1.3153807E3,2.7100862E3,3.904754E3,9.658288E2,3.3187897E2,1.7263503E3,1.7225887E1,3.6159605E4,4.0845613E4,5.13073E2,8.737213E1,3.100116E2,1.19331154E2,1.1960496E3,8.727878E2,1.8372983E3,3.804635E3,1.0011879E2,6.4407904E2,3.2174976E2,3.0065994E2,3.1219025E1,1.5717345E3,1.5461583E2,3.614912E4,1.0487632E1,4.2870713E3,3.6558543E4,1.897128E2,3.2336017E2,1.6476025E1,2.9353555E2,1.1283759E3,6.767367E1,3.0255728E2,5.7023047E2,3.7202478E3,8.438743E1,2.920373E2,2.9712458E1,1.0988439E1,2.896715E2,1.4438033E2,1.0235507E1,3.56517E4,4.9742065E2,3.3657139E3,9.213572E2,3.5631098E4,9.274446E2,2.996455E2,2.3714657E1,2.895414E2,3.9941545E0,1.0914199E3,3.695601E1,4.9083875E2,7.939173E1,3.6700593E3,5.0188423E1,2.8829025E2,3.7470431E0,1.2489644E0,2.8842255E2,3.5647453E4,4.2458572E0,6.3444775E1,4.339759E2,8.852206E2,2.4804934E3,6.552393E2,2.661179E2,9.665299E2,3.4664566E4,3.186026E2,6.08842E2,2.911577E2,8.487781E0,1.0659553E3,2.5464575E1,2.821219E1,4.6262656E2,3.644584E3,2.5475231E1],"tree_param":{"num_deleted":"0","num_feature":"29","num_nodes":"101","size_leaf_vector":"1"}},{"base_weights":[-1.6083643E-3,1.7813876E0,-1.4814014E0,1.8973114E0,7.482921E-1,-1.5585347E0,5.505512E-1,-1.9045161E-2,1.9013487E0,-1.9172005E-2,1.0723721E0,1.5880494E0,-1.6009133E0,1.4083284E0,-1.9075055E-2,1.9022336E0,-1.7404225E-2,7.585361E-2,1.4986415E0,1.8996271E0,-1.8753529E-2,-1.6327499E0,9.104021E-1,1.6921414E0,-1.8959887E-2,1.9026735E0,-1.5565894E-2,-1.0849468E0,1.8412684E0,-1.8960707E-2,1.6332442E0,1.9193894E0,-1.4442325E-2,-5.383865E-1,-1.6930604E0,-1.8942032E-2,1.6005324E0,-1.8693486E-2,1.7819923E0,-1.5767274E-2,1.9030929E0,1.9324884E-2,-1.9181931E-2,1.888981E0,-1.6390378E-2,1.7065222E0,-1.8807987E-2,1.9293988E-2,-1.165895E-2,6.4695555E-1,-1.9114502E-2,-1.2671762E0,-1.8255582E0,1.8164083E0,-1.8459719E-2,-1.81443E-2,1.8316977E0,1.9033543E0,-1.3996816E-2,1.902218E-2,-1.1650485E-2,1.7459003E0,-1.8538248E-2,1.2431626E0,-1.908362E-2,-1.5147991E0,-1.6434416E-1,-1.8734071E0,-7.692008E-1,1.9059349E0,-1.7444056E-2,-1.7823799E-2,1.86836E0,1.9046426E-2,1.7418908E-2,1.7771209E-2,-1.8221786E-2,-1.8864429E-2,1.4426637E-2,-9.858448E-3,-1.9094601E-2,7.0904964E-3,-1.2575369E-2,-1.0059678E-2,-1.8903438E-2,-1.9071385E-2,6.447938E-3,1.9257367E-2,-1.3285094E-2,-1.732698E-2,1.895913E-2],"categories":[],"categories_nodes":[],"categories_segments":[],"categories_sizes":[],"default_left":[0,0,0,0,0,0,0,0,0,0,0,0,0,0,0,0,0,0,0,0,0,0,0,0,0,0,0,0,0,0,0,0,0,0,0,0,0,0,0,0,0,0,0,0,0,0,0,0,0,0,0,0,0,0,0,0,0,0,0,0,0,0,0,0,0,0,0,0,0,0,0,0,0,0,0,0,0,0,0,0,0,0,0,0,0,0,0,0,0,0,0],"id":5,"left_children":[1,3,5,7,9,11,13,-1,15,-1,17,19,21,23,-1,25,-1,27,29,31,-1,33,35,37,-1,39,-1,41,43,-1,45,47,-1,49,51,-1,53,-1,55,-1,57,-1,-1,59,-1,61,-1,-1,-1,63,-1,65,67,69,-1,-1,71,73,-1,-1,-1,75,-1,77,-1,79,81,83,85,87,-1,-1,89,-1,-1,-1,-1,-1,-1,-1,-1,-1,-1,-1,-1,-1,-1,-1,-1,-1,-1],"loss_changes":[2.3915002E5,4.921742E3,7.7639688E3,5.709531E2,3.586151E3,6.3659062E3,3.8236382E3,0E0,1.2228125E2,0E0,1.5715615E3,6.884381E2,3.7661484E3,1.263596E3,0E0,5.9109375E1,0E0,2.2758071E3,1.1871914E3,4.1283203E1,0E0,3.068E3,1.1451917E3,3.9955786E2,0E0,5.6875E1,0E0,1.6883569E3,7.624658E1,0E0,6.451821E2,2.0154053E1,0E0,3.9563442E3,2.4843984E3,0E0,3.5609814E2,0E0,2.1931006E2,0E0,3.4546875E1,0E0,0E0,1.9802612E1,0E0,3.4569922E2,0E0,0E0,0E0,1.9904617E3,0E0,2.856289E3,1.6973438E3,1.4571667E2,0E0,0E0,1.6130566E2,4.34375E0,0E0,0E0,0E0,2.7242773E2,0E0,6.6372156E2,0E0,1.7813359E3,1.8332534E3,4.7047656E2,2.3473547E3,3.0495361E1,0E0,0E0,1.2044141E2,0E0,0E0,0E0,0E0,0E0,0E0,0E0,0E0,0E0,0E0,0E0,0E0,0E0,0E0,0E0,0E0,0E0,0E0],"parents":[2147483647,0,0,1,1,2,2,3,3,4,4,5,5,6,6,8,8,10,10,11,11,12,12,13,13,15,15,17,17,18,18,19,19,21,21,22,22,23,23,25,25,27,27,28,28,30,30,31,31,33,33,34,34,36,36,38,38,40,40,43,43,45,45,49,49,51,51,52,52,53,53,56,56,57,57,61,61,63,63,65,65,66,66,67,67,68,68,69,69,72,72],"right_children":[2,4,6,8,10,12,14,-1,16,-1,18,20,22,24,-1,26,-1,28,30,32,-1,34,36,38,-1,40,-1,42,44,-1,46,48,-1,50,52,-1,54,-1,56,-1,58,-1,-1,60,-1,62,-1,-1,-1,64,-1,66,68,70,-1,-1,72,74,-1,-1,-1,76,-1,78,-1,80,82,84,86,88,-1,-1,90,-1,-1,-1,-1,-1,-1,-1,-1,-1,-1,-1,-1,-1,-1,-1,-1,-1,-1],"split_conditions":[-1.7847999E0,-1.7759048E0,1.6180665E0,1.3734052E-1,-2.0638952E-1,-1.6136038E0,-9.923595E-3,-1.9045161E-2,3.1359592E-1,-1.9172005E-2,-6.3481796E-1,-8.5939294E-1,1.7856927E0,-3.2647505E-1,-1.9075055E-2,-1.7335953E-1,-1.7404225E-2,1.1036851E0,-4.1688624E-1,-6.5682787E-1,-1.8753529E-2,-1.4740856E0,-2.3555858E-1,-2.6638396E-2,-1.8959887E-2,-1.5634983E0,-1.5565894E-2,-2.0303448E-1,-3.2952166E-1,-1.8960707E-2,8.4073454E-1,4.0695075E-2,-1.4442325E-2,3.280441E-4,-4.646785E-1,-1.8942032E-2,-6.840792E-2,-1.8693486E-2,-8.1336796E-1,-1.5767274E-2,-1.8945946E0,1.9324884E-2,-1.9181931E-2,-6.584982E-2,-1.6390378E-2,4.17161E-1,-1.8807987E-2,1.9293988E-2,-1.165895E-2,-2.3238546E-1,-1.9114502E-2,9.052449E-1,5.1539E2,-8.391096E-1,-1.8459719E-2,-1.81443E-2,-3.1396678E-1,-2.6413176E0,-1.3996816E-2,1.902218E-2,-1.1650485E-2,2.0963638E0,-1.8538248E-2,-6.445805E-2,-1.908362E-2,-1.9833043E-1,-1.4080222E-1,7.5E-1,4.6818322E-1,-1.9833043E-1,-1.7444056E-2,-1.7823799E-2,-3.4105667E-1,1.9046426E-2,1.7418908E-2,1.7771209E-2,-1.8221786E-2,-1.8864429E-2,1.4426637E-2,-9.858448E-3,-1.9094601E-2,7.0904964E-3,-1.2575369E-2,-1.0059678E-2,-1.8903438E-2,-1.9071385E-2,6.447938E-3,1.9257367E-2,-1.3285094E-2,-1.732698E-2,1.895913E-2],"split_indices":[13,9,16,10,20,16,7,0,11,0,9,11,21,13,0,2,0,20,10,4,0,18,8,26,0,23,0,20,11,0,21,26,0,7,13,0,11,0,8,0,13,0,0,23,0,7,0,0,0,11,0,14,28,15,0,0,25,13,0,0,0,0,0,4,0,12,25,28,18,12,0,0,23,0,0,0,0,0,0,0,0,0,0,0,0,0,0,0,0,0,0],"split_type":[0,0,0,0,0,0,0,0,0,0,0,0,0,0,0,0,0,0,0,0,0,0,0,0,0,0,0,0,0,0,0,0,0,0,0,0,0,0,0,0,0,0,0,0,0,0,0,0,0,0,0,0,0,0,0,0,0,0,0,0,0,0,0,0,0,0,0,0,0,0,0,0,0,0,0,0,0,0,0,0,0,0,0,0,0,0,0,0,0,0,0],"sum_hessian":[9.063783E4,4.110745E4,4.953038E4,3.695939E4,4.1480596E3,4.7719184E4,1.8111958E3,3.870722E1,3.6920684E4,4.4913116E2,3.6989285E3,6.336621E2,4.7085523E4,1.3429719E3,4.682239E2,3.691219E4,8.491967E0,1.1085574E3,2.590371E3,5.8177545E2,5.1886673E1,4.6496426E4,5.8909784E2,1.2371952E3,1.0577673E2,3.690795E4,4.2428746E0,6.6903625E2,4.395211E2,9.829375E1,2.4920774E3,5.787808E2,2.9946234E0,2.4290986E3,4.4067324E4,1.1598881E2,4.7310904E2,2.995714E1,1.207238E3,3.9953542E0,3.6903953E4,1.4448683E2,5.245494E2,4.340281E2,5.49298E0,2.4416758E3,5.0401684E1,5.7728265E2,1.4981891E0,1.3039501E3,1.1251486E3,1.0459191E4,3.3608133E4,4.4566714E2,2.7441916E1,1.5973502E1,1.1912645E3,3.6901453E4,2.4979727E0,4.3253055E2,1.4975626E0,2.4154697E3,2.6205885E1,1.0576844E3,2.4626558E2,8.541062E3,1.9181299E3,3.2151043E4,1.4570918E3,4.3519025E2,1.0476891E1,1.1485037E1,1.1797795E3,3.6598664E4,3.027922E2,2.3950154E3,2.0454405E1,6.287641E1,9.9480804E2,3.6510923E3,4.8899697E3,1.0664519E3,8.5167804E2,6.168807E2,3.1534162E4,8.071636E2,6.499283E2,4.329443E2,2.2459302E0,8.488404E0,1.1712911E3],"tree_param":{"num_deleted":"0","num_feature":"29","num_nodes":"91","size_leaf_vector":"1"}},{"base_weights":[-3.513588E-2,1.7647488E0,-1.4887954E0,1.8833593E0,7.8353214E-1,1.6761774E0,-1.5493383E0,-1.854569E-2,1.8866473E0,1.0199573E0,-1.894942E-2,1.8970277E0,-1.8608717E-2,-1.6309913E0,5.673521E-1,1.8884556E0,-1.787725E-2,-1.9083835E-2,1.2494295E0,1.908048E0,-1.3819133E-2,-9.3916126E-2,-1.6944954E0,1.4146131E0,-1.890331E-2,1.8888953E0,-1.6054334E-2,-1.8895196E-2,1.4324892E0,1.9157365E-2,-1.21299345E-2,-1.8965006E-2,8.206227E-1,2.469308E-2,-1.7396636E0,1.6817976E0,-1.8778844E-2,1.8900378E-2,1.750408E0,1.5377369E0,-1.8918442E-2,-1.8928025E-2,1.2169876E0,1.3921396E0,-1.8927481E-2,-7.514093E-1,-1.7734098E0,-1.8539056E-2,1.7726231E0,1.9311493E-2,-1.855527E-2,-1.8637724E-2,1.5847543E0,1.4385997E0,-1.8726341E-2,1.7261176E0,-1.869842E-2,8.1098783E-1,-1.8970719E-2,-1.7858622E0,2.2246884E-2,-1.7975122E-2,1.817527E0,1.6848622E-2,3.4059319E-3,-1.8569145E-2,1.5829781E-2,-1.8096963E-2,1.8369816E-2,1.5340896E-2,-1.8836427E-2,-1.8096466E-2,-9.549936E-3,-1.8811502E-2,1.7492795E-2,-1.763016E-2,1.8538684E-2],"categories":[],"categories_nodes":[],"categories_segments":[],"categories_sizes":[],"default_left":[0,0,0,0,0,0,0,0,0,0,0,0,0,0,0,0,0,0,0,0,0,0,0,0,0,0,0,0,0,0,0,0,0,0,0,0,0,0,0,0,0,0,0,0,0,0,0,0,0,0,0,0,0,0,0,0,0,0,0,0,0,0,0,0,0,0,0,0,0,0,0,0,0,0,0,0,0],"id":6,"left_children":[1,3,5,7,9,11,13,-1,15,17,-1,19,-1,21,23,25,-1,-1,27,29,-1,31,33,35,-1,37,-1,-1,39,-1,-1,-1,41,43,45,47,-1,-1,49,51,-1,-1,53,55,-1,57,59,-1,61,-1,-1,-1,63,65,-1,67,-1,69,-1,71,73,-1,75,-1,-1,-1,-1,-1,-1,-1,-1,-1,-1,-1,-1,-1,-1],"loss_changes":[2.3281138E5,4.6254297E3,9.434891E3,4.3940625E2,2.7180996E3,7.256565E2,8.34907E3,0E0,2.3884375E2,2.6512642E3,0E0,3.409619E1,0E0,4.5394688E3,3.7399875E3,5.7429688E1,0E0,0E0,2.1035552E3,2.3154785E1,0E0,3.0452136E3,3.4681953E3,1.1777876E3,0E0,2.28125E0,0E0,0E0,1.2118066E3,0E0,0E0,0E0,1.3203923E3,3.0031387E3,1.4500156E3,4.0006396E2,0E0,0E0,2.0127588E2,5.386738E2,0E0,0E0,7.352899E2,7.3157275E2,0E0,2.5768325E3,9.409844E2,0E0,1.9646533E2,0E0,0E0,0E0,4.1101367E2,4.7822266E2,0E0,2.412583E2,0E0,1.1902307E3,0E0,8.241406E2,9.5920886E2,0E0,1.5819824E2,0E0,0E0,0E0,0E0,0E0,0E0,0E0,0E0,0E0,0E0,0E0,0E0,0E0,0E0],"parents":[2147483647,0,0,1,1,2,2,3,3,4,4,5,5,6,6,8,8,9,9,11,11,13,13,14,14,15,15,18,18,19,19,21,21,22,22,23,23,25,25,28,28,32,32,33,33,34,34,35,35,38,38,39,39,42,42,43,43,45,45,46,46,48,48,52,52,53,53,55,55,57,57,59,59,60,60,62,62],"right_children":[2,4,6,8,10,12,14,-1,16,18,-1,20,-1,22,24,26,-1,-1,28,30,-1,32,34,36,-1,38,-1,-1,40,-1,-1,-1,42,44,46,48,-1,-1,50,52,-1,-1,54,56,-1,58,60,-1,62,-1,-1,-1,64,66,-1,68,-1,70,-1,72,74,-1,76,-1,-1,-1,-1,-1,-1,-1,-1,-1,-1,-1,-1,-1,-1],"split_conditions":[-1.7847999E0,-1.4178574E0,-1.6136038E0,2.9479665E-1,2.8387275E-1,-8.5939294E-1,1.6180665E0,-1.854569E-2,1.0335827E0,-3.5265052E-1,-1.894942E-2,4.0695075E-2,-1.8608717E-2,7.7E-1,-9.923595E-3,1.3975589E0,-1.787725E-2,-1.9083835E-2,3.2532286E-2,-6.5682787E-1,-1.3819133E-2,3.045109E-2,-1.1638778E0,-3.2647505E-1,-1.890331E-2,-2.6413176E0,-1.6054334E-2,-1.8895196E-2,1.15967765E-1,1.9157365E-2,-1.21299345E-2,-1.8965006E-2,-1.3452718E-1,-5.7444E-1,-1.6416256E0,-2.6638396E-2,-1.8778844E-2,1.8900378E-2,-4.8400598E0,6.57627E-1,-1.8918442E-2,-1.8928025E-2,4.5797765E-1,-1.9833043E-1,-1.8927481E-2,7.63E0,1.0621061E0,-1.8539056E-2,-3.0997407E-1,1.9311493E-2,-1.855527E-2,-1.8637724E-2,1.9188188E0,-5.9124047E-1,-1.8726341E-2,-1.1796145E-1,-1.869842E-2,-4.5138922E-1,-1.8970719E-2,6.2496E2,5.808994E-1,-1.7975122E-2,-1.6718347E-1,1.6848622E-2,3.4059319E-3,-1.8569145E-2,1.5829781E-2,-1.8096963E-2,1.8369816E-2,1.5340896E-2,-1.8836427E-2,-1.8096466E-2,-9.549936E-3,-1.8811502E-2,1.7492795E-2,-1.763016E-2,1.8538684E-2],"split_indices":[13,11,16,10,25,11,16,0,9,25,0,26,0,28,7,0,0,0,17,4,0,27,19,13,0,13,0,0,26,0,0,0,21,11,18,26,0,0,7,16,0,0,12,12,0,28,26,0,25,0,0,0,0,9,0,27,0,11,0,28,2,0,17,0,0,0,0,0,0,0,0,0,0,0,0,0,0],"split_type":[0,0,0,0,0,0,0,0,0,0,0,0,0,0,0,0,0,0,0,0,0,0,0,0,0,0,0,0,0,0,0,0,0,0,0,0,0,0,0,0,0,0,0,0,0,0,0,0,0,0,0,0,0,0,0,0,0,0,0,0,0,0,0,0,0,0,0,0,0,0,0,0,0,0,0,0,0],"sum_hessian":[8.897889E4,3.9755016E4,4.9223875E4,3.546683E4,4.2881885E3,9.234306E2,4.8300445E4,3.067526E1,3.5436152E4,3.9409458E3,3.4724265E2,8.695974E2,5.383324E1,4.6506645E4,1.7938014E3,3.5419207E4,1.6945513E1,2.858492E2,3.6550964E3,8.671012E2,2.496202E0,1.8452816E3,4.4661363E4,1.3342551E3,4.5954636E2,3.541521E4,3.9967508E0,2.0090085E2,3.4541956E3,8.6535565E2,1.7455599E0,6.2072986E2,1.2245518E3,1.1433575E3,4.3518004E4,1.2345604E3,9.969471E1,3.5112883E4,3.0232977E2,3.3487136E3,1.0548212E2,1.5559662E2,1.0689551E3,6.6755597E2,4.7580167E2,1.4377279E3,4.2080277E4,3.0433073E1,1.2041273E3,2.8834158E2,1.3988174E1,4.5129753E1,3.3035837E3,9.979114E2,7.104375E1,6.0598315E2,6.157276E1,6.0836395E2,8.29364E2,4.179048E4,2.8979758E2,1.4472201E1,1.1896552E3,3.0572375E3,2.4634615E2,4.1386253E1,9.565251E2,1.7956858E1,5.880263E2,4.7998978E2,1.2837418E2,4.0626332E4,1.1641486E3,1.3781723E2,1.5198036E2,1.1475865E1,1.1781792E3],"tree_param":{"num_deleted":"0","num_feature":"29","num_nodes":"77","size_leaf_vector":"1"}},{"base_weights":[3.6807787E-3,1.752792E0,-1.4337283E0,1.8602158E0,7.025915E-1,-1.6391445E0,-2.978793E-1,-1.850421E-2,1.8638614E0,-3.8022384E-1,1.7022506E0,-9.6265185E-1,-1.7393711E0,1.1018007E0,-8.0150896E-1,1.8650284E0,-1.7512752E-2,4.713275E-1,-1.8894153E-2,-1.8768828E-2,1.7644305E0,-1.2012936E0,1.4207989E0,-1.7680252E0,3.127499E-1,1.3440351E0,-1.8652456E-2,1.894963E-1,-1.4011196E0,1.5043133E0,1.8681965E0,1.1511909E0,-1.8781785E-2,1.8084102E0,-1.7992755E-2,-1.7187358E-1,-1.7058754E0,1.8145707E0,-1.8453792E-2,-1.7825017E0,8.6786926E-2,-1.8735237E-2,1.5005516E0,1.5835611E0,-1.8760744E-2,1.4910051E0,-3.9028344E-1,5.8889276E-1,-1.6945652E0,-1.8729819E-2,1.9073373E0,1.8686864E0,-1.5889656E-2,1.4987792E0,-1.8661791E-2,1.8276861E0,-1.7820863E-2,-1.8858138E-2,6.285719E-1,-1.8756853E-2,1.4085716E-1,1.8802112E0,-1.6666645E-2,-1.0382409E0,-1.8108627E0,1.6047055E0,-1.863831E-2,1.8794996E0,-1.8460141E-2,1.6859341E0,-1.8456664E-2,-1.8579366E-2,1.7851002E0,1.1399252E0,-1.2930619E0,1.5717963E0,-1.8650524E-2,-1.877301E-2,-5.456747E-1,1.9469505E-2,-1.447234E-2,1.8704495E0,1.4673975E0,1.7076533E0,-1.8538889E-2,1.8395785E0,-1.6675837E-2,-1.8775217E-2,1.1362717E0,-1.8642034E-2,1.844213E0,1.8953847E-2,-1.199879E-2,-1.8750077E-2,1.5420114E0,-1.826651E0,-4.9343464E-1,1.9269533E-2,-1.7462192E-2,-1.5916547E-2,1.9475702E-2,-1.8237356E-2,1.7444768E0,1.8728174E0,-1.767818E-2,1.6019431E0,-1.8695159E-2,-1.8886903E-2,1.522518E0,-1.8074427E-2,1.8463867E0,1.7427987E0,-1.8726204E-2,1.647116E-2,1.8713383E-2,1.9333933E-2,-1.831395E-2,-1.7629605E-2,1.7744906E-2,-1.522954E-2,1.8470157E-2,1.5115411E-2,-1.884754E-2,2.0099275E-2,-1.6295245E-2,1.897464E-2,-1.829297E-2,-1.6422352E-2,-1.8752562E-2,1.5383551E-2,-1.8689152E-2,1.7814007E-2,-1.7823491E-2,-1.6112426E-2,1.9100422E-2,-1.8299911E-2,1.8138275E-2,-1.7788751E-2,1.884536E-2,-1.5933687E-2,1.9163225E-2,1.9465793E-2,-1.6759241E-2],"categories":[],"categories_nodes":[],"categories_segments":[],"categories_sizes":[],"default_left":[0,0,0,0,0,0,0,0,0,0,0,0,0,0,0,0,0,0,0,0,0,0,0,0,0,0,0,0,0,0,0,0,0,0,0,0,0,0,0,0,0,0,0,0,0,0,0,0,0,0,0,0,0,0,0,0,0,0,0,0,0,0,0,0,0,0,0,0,0,0,0,0,0,0,0,0,0,0,0,0,0,0,0,0,0,0,0,0,0,0,0,0,0,0,0,0,0,0,0,0,0,0,0,0,0,0,0,0,0,0,0,0,0,0,0,0,0,0,0,0,0,0,0,0,0,0,0,0,0,0,0,0,0,0,0,0,0,0,0,0,0,0,0],"id":7,"left_children":[1,3,5,7,9,11,13,-1,15,17,19,21,23,25,27,29,-1,31,-1,-1,33,35,37,39,41,43,-1,45,47,49,51,53,-1,55,-1,57,59,61,-1,63,65,-1,67,69,-1,71,73,75,77,-1,79,81,-1,83,-1,85,-1,-1,87,-1,89,91,-1,93,95,97,-1,99,-1,101,-1,-1,103,105,107,109,-1,-1,111,-1,-1,113,115,117,-1,119,-1,-1,121,-1,123,-1,-1,-1,125,127,129,-1,-1,-1,-1,-1,131,133,-1,135,-1,-1,137,-1,139,141,-1,-1,-1,-1,-1,-1,-1,-1,-1,-1,-1,-1,-1,-1,-1,-1,-1,-1,-1,-1,-1,-1,-1,-1,-1,-1,-1,-1,-1,-1,-1],"loss_changes":[2.2779225E5,4.609508E3,1.1603227E4,5.0502344E2,4.107679E3,2.853875E3,5.3708486E3,0E0,1.5953125E2,2.3426594E3,4.424131E2,3.0941074E3,2.157414E3,1.4515591E3,3.329473E3,3.95E1,0E0,1.8641681E3,0E0,0E0,3.0729004E2,2.5669858E3,6.403319E2,9.715078E2,1.3167313E3,1.4411045E3,0E0,1.594958E3,2.0394688E3,4.4938043E2,6.5140625E1,9.516489E2,0E0,1.3591309E2,0E0,2.2331084E3,1.0403496E3,1.0424707E2,0E0,7.5578125E2,8.3532446E2,0E0,4.1994E2,6.125552E2,0E0,6.448544E2,2.0218844E3,1.0867318E3,6.3771387E2,0E0,4.1766968E1,2.3203125E1,0E0,5.7165967E2,0E0,8.233594E1,0E0,0E0,1.4140642E3,0E0,9.6048694E2,2.2593628E1,0E0,2.8527603E3,7.1828125E2,1.7465454E2,0E0,7.2920044E1,0E0,3.4963965E2,0E0,0E0,1.9008191E2,7.5829376E2,1.5462921E3,3.0154297E2,0E0,0E0,1.2753745E3,0E0,0E0,4.1796875E0,2.5744833E2,1.805166E2,0E0,5.0351562E1,0E0,0E0,1.0496965E3,0E0,9.0780945E1,0E0,0E0,0E0,3.9147137E2,3.0317188E2,1.1510199E3,0E0,0E0,0E0,0E0,0E0,2.1922363E2,7.899292E1,0E0,3.4615198E2,0E0,0E0,1.9607297E2,0E0,7.467316E1,1.1073746E2,0E0,0E0,0E0,0E0,0E0,0E0,0E0,0E0,0E0,0E0,0E0,0E0,0E0,0E0,0E0,0E0,0E0,0E0,0E0,0E0,0E0,0E0,0E0,0E0,0E0,0E0,0E0,0E0,0E0,0E0,0E0],"parents":[2147483647,0,0,1,1,2,2,3,3,4,4,5,5,6,6,8,8,9,9,10,10,11,11,12,12,13,13,14,14,15,15,17,17,20,20,21,21,22,22,23,23,24,24,25,25,27,27,28,28,29,29,30,30,31,31,33,33,35,35,36,36,37,37,39,39,40,40,42,42,43,43,45,45,46,46,47,47,48,48,50,50,51,51,53,53,55,55,58,58,60,60,61,61,63,63,64,64,65,65,67,67,69,69,72,72,73,73,74,74,75,75,78,78,81,81,82,82,83,83,85,85,88,88,90,90,94,94,95,95,96,96,102,102,103,103,105,105,108,108,110,110,111,111],"right_children":[2,4,6,8,10,12,14,-1,16,18,20,22,24,26,28,30,-1,32,-1,-1,34,36,38,40,42,44,-1,46,48,50,52,54,-1,56,-1,58,60,62,-1,64,66,-1,68,70,-1,72,74,76,78,-1,80,82,-1,84,-1,86,-1,-1,88,-1,90,92,-1,94,96,98,-1,100,-1,102,-1,-1,104,106,108,110,-1,-1,112,-1,-1,114,116,118,-1,120,-1,-1,122,-1,124,-1,-1,-1,126,128,130,-1,-1,-1,-1,-1,132,134,-1,136,-1,-1,138,-1,140,142,-1,-1,-1,-1,-1,-1,-1,-1,-1,-1,-1,-1,-1,-1,-1,-1,-1,-1,-1,-1,-1,-1,-1,-1,-1,-1,-1,-1,-1,-1,-1],"split_conditions":[-1.7847999E0,-1.608707E0,1.4414353E0,-4.7577998E-1,2.189558E0,1.29E0,-5.5089134E-1,-1.850421E-2,-1.7335953E-1,4.759939E-1,-4.687741E-1,1.1036851E0,3.059092E0,1.0999018E0,-1.1712089E-1,1.3734052E-1,-1.7512752E-2,-1.1278685E0,-1.8894153E-2,-1.8768828E-2,1.0335827E0,-4.9788293E-1,-6.343875E-1,1.0621061E0,6.8362254E-1,5.67E2,-1.8652456E-2,-1.1663074E0,-7.274656E-1,-5.7711554E-1,-1.8945946E0,-1.1761102E-1,-1.8781785E-2,8.731735E-1,-1.7992755E-2,-6.4208284E-2,1.5622975E0,-7.1189535E-1,-1.8453792E-2,-1.8410854E0,1.92E0,-1.8735237E-2,7.415927E-1,7.996442E-1,-1.8760744E-2,2.290723E-1,-1.4294329E0,-1.0649791E0,1.1070981E0,-1.8729819E-2,-2.8137782E-1,-1.7759048E0,-1.5889656E-2,5.2760416E-1,-1.8661791E-2,2.3216603E0,-1.7820863E-2,-1.8858138E-2,3.0800062E-1,-1.8756853E-2,9.422638E-1,-3.2769126E-1,-1.6666645E-2,5.917605E-1,1.2022754E0,6.5139186E-1,-1.863831E-2,-2.7936244E-2,-1.8460141E-2,-1.1911385E0,-1.8456664E-2,-1.8579366E-2,3.3190516E-1,-1.2664251E-1,1.0827836E0,1.5031141E-1,-1.8650524E-2,-1.877301E-2,1.1229607E0,1.9469505E-2,-1.447234E-2,-7.904637E-2,-1.7720262E0,-2.190101E-1,-1.8538889E-2,-7.054187E-1,-1.6675837E-2,-1.8775217E-2,4.1237965E-2,-1.8642034E-2,9.5466596E-1,1.8953847E-2,-1.199879E-2,-1.8750077E-2,-1.7550273E-1,-4.9788293E-1,-1.540288E0,1.9269533E-2,-1.7462192E-2,-1.5916547E-2,1.9475702E-2,-1.8237356E-2,8.945455E-1,-2.76144E-1,-1.767818E-2,9.391662E-1,-1.8695159E-2,-1.8886903E-2,1.1236969E0,-1.8074427E-2,-1.2850522E0,-6.8664736E-1,-1.8726204E-2,1.647116E-2,1.8713383E-2,1.9333933E-2,-1.831395E-2,-1.7629605E-2,1.7744906E-2,-1.522954E-2,1.8470157E-2,1.5115411E-2,-1.884754E-2,2.0099275E-2,-1.6295245E-2,1.897464E-2,-1.829297E-2,-1.6422352E-2,-1.8752562E-2,1.5383551E-2,-1.8689152E-2,1.7814007E-2,-1.7823491E-2,-1.6112426E-2,1.9100422E-2,-1.8299911E-2,1.8138275E-2,-1.7788751E-2,1.884536E-2,-1.5933687E-2,1.9163225E-2,1.9465793E-2,-1.6759241E-2],"split_indices":[13,9,3,3,3,28,9,0,2,4,23,20,6,2,7,10,0,2,0,0,9,13,5,26,18,28,0,12,5,5,13,25,0,12,0,20,12,12,0,12,28,0,5,13,0,14,14,8,10,0,3,9,0,14,0,4,0,0,14,0,14,24,0,20,25,8,0,8,0,5,0,0,9,25,23,27,0,0,10,0,0,3,17,20,0,10,0,0,27,0,14,0,0,0,27,13,14,0,0,0,0,0,8,4,0,9,0,0,13,0,8,17,0,0,0,0,0,0,0,0,0,0,0,0,0,0,0,0,0,0,0,0,0,0,0,0,0,0,0,0,0,0,0],"split_type":[0,0,0,0,0,0,0,0,0,0,0,0,0,0,0,0,0,0,0,0,0,0,0,0,0,0,0,0,0,0,0,0,0,0,0,0,0,0,0,0,0,0,0,0,0,0,0,0,0,0,0,0,0,0,0,0,0,0,0,0,0,0,0,0,0,0,0,0,0,0,0,0,0,0,0,0,0,0,0,0,0,0,0,0,0,0,0,0,0,0,0,0,0,0,0,0,0,0,0,0,0,0,0,0,0,0,0,0,0,0,0,0,0,0,0,0,0,0,0,0,0,0,0,0,0,0,0,0,0,0,0,0,0,0,0,0,0,0,0,0,0,0,0],"sum_hessian":[9.0600695E4,4.086902E4,4.973168E4,3.7075805E4,3.7932131E3,4.2114848E4,7.616832E3,3.589413E1,3.703991E4,1.8211698E3,1.9720435E3,5.4357983E3,3.667905E4,2.0151553E3,5.601677E3,3.702844E4,1.1468337E1,1.1646892E3,6.564805E2,3.3176723E1,1.9388667E3,4.941527E3,4.9427176E2,3.6174082E4,5.0496503E2,1.8635583E3,1.5159686E2,2.1119084E3,3.4897686E3,3.2652756E2,3.6701914E4,9.037005E2,2.609887E2,1.9157174E3,2.3149305E1,1.6258657E3,3.3156611E3,4.4148996E2,5.2781788E1,3.5893973E4,2.801103E2,1.7756349E2,3.2740152E2,1.735009E3,1.2854938E2,6.5036835E2,1.4615402E3,4.4833835E2,3.0414302E3,3.442262E1,2.9210492E2,3.669717E4,4.741141E0,8.1080273E2,9.289775E1,1.905976E3,9.741402E0,5.171567E2,1.108709E3,3.0364397E3,2.7922137E2,4.337709E2,7.71908E0,1.3189524E3,3.457502E4,1.5762674E2,1.2248355E2,2.94493E2,3.2908512E1,1.6852087E3,4.980031E1,5.207368E1,5.982947E2,5.422181E2,9.19322E2,3.2037485E2,1.279635E2,2.6235151E3,4.17915E2,2.891105E2,2.9944124E0,3.6533E4,1.6417278E2,7.637134E2,4.7089348E1,1.899985E3,5.9909296E0,1.863172E2,9.223918E2,1.2820905E2,1.5101234E2,4.3202722E2,1.7436714E0,9.961709E2,3.2278143E2,3.416519E4,4.0983118E2,1.4418579E2,1.3440944E1,5.2335634E0,2.8925946E2,2.71541E1,1.6580546E3,5.843409E2,1.3953773E1,4.7045953E2,7.175857E1,7.590716E2,1.602504E2,2.3657091E1,2.9671774E2,1.5326984E2,2.6464517E2,1.5215096E2,3.638085E4,1.4421457E2,1.9958204E1,1.3950319E1,7.4976306E2,3.7433484E0,1.8962417E3,8.209177E2,1.0147408E2,1.4453853E2,6.473809E0,2.9239053E2,3.0390911E1,7.1336855E3,2.7031504E4,1.6539691E2,2.4443427E2,1.6413654E3,1.6689274E1,5.7303023E0,5.786106E2,2.6912678E1,4.4354688E2,1.5449173E1,1.4480122E2,5.478492E0,2.9123926E2,1.4505417E2,8.215668E0],"tree_param":{"num_deleted":"0","num_feature":"29","num_nodes":"143","size_leaf_vector":"1"}},{"base_weights":[5.4315865E-2,1.7456858E0,-1.4104346E0,1.8518264E0,8.1533E-1,-1.5879122E0,4.880751E-2,1.8543009E0,-1.8096896E-2,-2.5265798E-1,1.710691E0,5.194679E-2,-1.6415582E0,1.5173506E0,-5.711517E-1,1.8554478E0,-1.7164465E-2,1.2324953E0,-1.0448643E0,-1.8618513E-2,1.7771251E0,1.3667006E0,-1.8594692E-2,-1.2214006E0,-1.7747269E0,1.7744181E0,-1.8497193E-2,1.2902346E0,-9.852878E-1,1.8562512E0,-1.7119614E-2,1.6492251E0,-1.9002045E-2,-1.872935E-2,6.443688E-1,1.8168054E0,-1.8601554E-2,-1.8473355E-2,1.7414663E0,-1.8653553E-2,-5.976079E-1,-1.8232266E0,-6.6731864E-1,1.8386459E0,-1.819001E-2,1.6587381E0,-1.8562427E-2,-1.6161664E0,6.270852E-1,1.8574454E-2,1.7507253E0,1.7948431E0,-1.8250635E-2,-1.8573096E-2,1.4683844E0,-1.7623257E-2,1.8379296E0,-1.7817643E-2,1.8329378E0,-1.2059773E0,4.8551482E-1,-1.8408422E0,-3.5815257E-1,-1.8622952E-2,8.324717E-1,1.8676186E0,-1.7551089E-2,1.8031982E0,-1.8227644E-2,-1.8633131E-2,1.0013872E0,1.1774224E0,-1.856623E-2,1.887248E-2,-1.8427324E-2,1.8670863E0,-1.7342705E-2,1.7954891E0,-1.809221E-2,1.8451903E0,-1.561522E-2,1.8712338E-2,-1.6484447E-2,-3.2250956E-1,-1.8660579E-2,1.1627908E0,-4.665603E-1,-1.8587913E-2,-1.5580158E0,-1.8529369E-2,1.9334933E0,1.458083E0,-1.87514E-2,1.8837643E0,-1.622549E-2,1.8693753E0,-1.7299755E-2,-1.8222256E-2,1.8769934E0,1.5158845E0,-1.842316E-2,-1.5148881E-2,1.8929679E-2,-1.6969241E-2,1.8976707E-2,1.8497616E-2,-1.4675445E-2,-1.8706452E-2,8.0231195E-3,1.40560465E-2,-1.8500743E-2,1.1207636E-2,-1.8765172E-2,7.64839E-3,-1.8590156E-2,1.9919336E-2,-1.2868129E-2,1.7414484E-2,-1.8412577E-2,1.8883139E-2,-1.1985536E-2,-1.5742578E-2,1.9016853E-2,1.9474663E-2,-1.3660623E-2,-1.809663E-2,1.656562E-2],"categories":[],"categories_nodes":[],"categories_segments":[],"categories_sizes":[],"default_left":[0,0,0,0,0,0,0,0,0,0,0,0,0,0,0,0,0,0,0,0,0,0,0,0,0,0,0,0,0,0,0,0,0,0,0,0,0,0,0,0,0,0,0,0,0,0,0,0,0,0,0,0,0,0,0,0,0,0,0,0,0,0,0,0,0,0,0,0,0,0,0,0,0,0,0,0,0,0,0,0,0,0,0,0,0,0,0,0,0,0,0,0,0,0,0,0,0,0,0,0,0,0,0,0,0,0,0,0,0,0,0,0,0,0,0,0,0,0,0,0,0,0,0,0,0,0,0],"id":8,"left_children":[1,3,5,7,9,11,13,15,-1,17,19,21,23,25,27,29,-1,31,33,-1,35,37,-1,39,41,43,-1,45,47,49,-1,51,-1,-1,53,55,-1,-1,57,-1,59,61,63,65,-1,67,-1,69,71,-1,73,75,-1,-1,77,-1,79,-1,81,83,85,87,89,-1,91,93,-1,95,-1,-1,97,99,-1,-1,-1,101,-1,103,-1,105,-1,-1,-1,107,-1,109,111,-1,113,-1,115,117,-1,119,-1,121,-1,-1,123,125,-1,-1,-1,-1,-1,-1,-1,-1,-1,-1,-1,-1,-1,-1,-1,-1,-1,-1,-1,-1,-1,-1,-1,-1,-1,-1,-1],"loss_changes":[2.3005888E5,4.2542344E3,1.2888281E4,3.5382812E2,4.2222637E3,3.9032734E3,4.914681E3,1.6148438E2,0E0,2.3712124E3,5.7333887E2,3.5370217E3,2.4017031E3,1.3902632E3,2.9273328E3,1.1396875E2,0E0,9.184883E2,1.8394395E3,0E0,3.4376465E2,1.00761255E3,0E0,4.1536514E3,1.7508281E3,3.4706006E2,0E0,8.045803E2,3.1600146E3,1.609375E0,0E0,3.1662756E2,0E0,0E0,8.9539325E2,1.7966455E2,0E0,0E0,2.441023E2,0E0,3.463488E3,8.058906E2,2.4574077E3,1.5566846E2,0E0,3.1476294E2,0E0,1.4460781E3,1.1969824E3,0E0,2.2411462E2,1.5492615E2,0E0,0E0,3.5307983E2,0E0,6.0151367E1,0E0,1.00261475E2,1.961979E3,1.2197937E3,1.53875E2,1.279727E3,0E0,1.0332056E3,8.4899414E1,0E0,1.4238708E2,0E0,0E0,4.812074E2,7.3476337E2,0E0,0E0,0E0,5.3942383E1,0E0,1.0927594E2,0E0,3.7785156E1,0E0,0E0,0E0,2.5097693E3,0E0,8.1109814E2,1.7627529E3,0E0,1.2941934E3,0E0,3.0333313E1,4.6573132E2,0E0,2.2542969E1,0E0,6.804761E1,0E0,0E0,3.6485535E1,3.0453076E2,0E0,0E0,0E0,0E0,0E0,0E0,0E0,0E0,0E0,0E0,0E0,0E0,0E0,0E0,0E0,0E0,0E0,0E0,0E0,0E0,0E0,0E0,0E0,0E0,0E0,0E0,0E0],"parents":[2147483647,0,0,1,1,2,2,3,3,4,4,5,5,6,6,7,7,9,9,10,10,11,11,12,12,13,13,14,14,15,15,17,17,18,18,20,20,21,21,23,23,24,24,25,25,27,27,28,28,29,29,31,31,34,34,35,35,38,38,40,40,41,41,42,42,43,43,45,45,47,47,48,48,50,50,51,51,54,54,56,56,58,58,59,59,60,60,61,61,62,62,64,64,65,65,67,67,70,70,71,71,75,75,77,77,79,79,83,83,85,85,86,86,88,88,90,90,91,91,93,93,95,95,98,98,99,99],"right_children":[2,4,6,8,10,12,14,16,-1,18,20,22,24,26,28,30,-1,32,34,-1,36,38,-1,40,42,44,-1,46,48,50,-1,52,-1,-1,54,56,-1,-1,58,-1,60,62,64,66,-1,68,-1,70,72,-1,74,76,-1,-1,78,-1,80,-1,82,84,86,88,90,-1,92,94,-1,96,-1,-1,98,100,-1,-1,-1,102,-1,104,-1,106,-1,-1,-1,108,-1,110,112,-1,114,-1,116,118,-1,120,-1,122,-1,-1,124,126,-1,-1,-1,-1,-1,-1,-1,-1,-1,-1,-1,-1,-1,-1,-1,-1,-1,-1,-1,-1,-1,-1,-1,-1,-1,-1,-1],"split_conditions":[-1.7847999E0,-1.4178574E0,2.189558E0,-5.211335E-1,1.8977821E0,-9.849113E-1,-2.4668655E0,1.0335827E0,-1.8096896E-2,-1.608707E0,-3.9327726E-1,-5.314785E-1,-4.646785E-1,3.9647645E-1,-6.620021E-1,1.8625095E0,-1.7164465E-2,1.1421613E0,-1.8945946E0,-1.8618513E-2,1.4503295E0,4.510645E-1,-1.8594692E-2,-2.3758553E-2,5.1539E2,1.5745254E0,-1.8497193E-2,-1.2728898E-1,1.3536028E0,-2.6413176E0,-1.7119614E-2,2.2319337E-2,-1.9002045E-2,-1.872935E-2,1.8485401E0,6.1495703E-1,-1.8601554E-2,-1.8473355E-2,-4.9402006E-2,-1.8653553E-2,4.3560326E-1,2.4267168E0,4.6818322E-1,7.872915E-1,-1.819001E-2,3.0993062E-1,-1.8562427E-2,1.2172207E0,1.0713083E-1,1.8574454E-2,-1.5905175E0,-1.3600782E-1,-1.8250635E-2,-1.8573096E-2,-1.1761102E-1,-1.7623257E-2,9.262492E-1,-1.7817643E-2,-4.405204E-1,-3.6207962E-1,5.2978456E-1,1.5622975E0,8.3309907E-1,-1.8622952E-2,-5.161551E-1,8.945455E-1,-1.7551089E-2,1.3633096E-1,-1.8227644E-2,-1.8633131E-2,1.0755373E0,-4.4645526E-2,-1.856623E-2,1.887248E-2,-1.8427324E-2,-5.1399547E-1,-1.7342705E-2,-1.4080222E-1,-1.809221E-2,7.3916113E-1,-1.561522E-2,1.8712338E-2,-1.6484447E-2,4.3197626E-1,-1.8660579E-2,-1.4190397E-2,-1.7125976E-1,-1.8587913E-2,-8.597448E-1,-1.8529369E-2,8.476685E-1,1.5625305E-2,-1.87514E-2,1.993309E0,-1.622549E-2,-1.2612137E0,-1.7299755E-2,-1.8222256E-2,1.0861039E0,1.05310604E-1,-1.842316E-2,-1.5148881E-2,1.8929679E-2,-1.6969241E-2,1.8976707E-2,1.8497616E-2,-1.4675445E-2,-1.8706452E-2,8.0231195E-3,1.40560465E-2,-1.8500743E-2,1.1207636E-2,-1.8765172E-2,7.64839E-3,-1.8590156E-2,1.9919336E-2,-1.2868129E-2,1.7414484E-2,-1.8412577E-2,1.8883139E-2,-1.1985536E-2,-1.5742578E-2,1.9016853E-2,1.9474663E-2,-1.3660623E-2,-1.809663E-2,1.656562E-2],"split_indices":[13,11,3,2,3,19,11,9,0,9,20,11,13,2,20,0,0,1,13,0,1,3,0,3,28,13,0,12,4,13,0,26,0,0,0,15,0,0,20,0,24,18,18,4,0,16,0,11,5,0,0,25,0,0,25,0,5,0,5,12,24,12,15,0,12,8,0,26,0,0,0,11,0,0,0,3,0,25,0,12,0,0,0,4,0,20,19,0,16,0,15,15,0,6,0,8,0,0,0,20,0,0,0,0,0,0,0,0,0,0,0,0,0,0,0,0,0,0,0,0,0,0,0,0,0,0,0],"split_type":[0,0,0,0,0,0,0,0,0,0,0,0,0,0,0,0,0,0,0,0,0,0,0,0,0,0,0,0,0,0,0,0,0,0,0,0,0,0,0,0,0,0,0,0,0,0,0,0,0,0,0,0,0,0,0,0,0,0,0,0,0,0,0,0,0,0,0,0,0,0,0,0,0,0,0,0,0,0,0,0,0,0,0,0,0,0,0,0,0,0,0,0,0,0,0,0,0,0,0,0,0,0,0,0,0,0,0,0,0,0,0,0,0,0,0,0,0,0,0,0,0,0,0,0,0,0,0],"sum_hessian":[9.285972E4,4.309596E4,4.9763758E4,3.8681902E4,4.4140576E3,4.4367555E4,5.3962056E3,3.8656273E4,2.5629482E1,2.0133036E3,2.4007542E3,1.4054553E3,4.2962098E4,1.6014011E3,3.7948047E3,3.864434E4,1.1932143E1,7.00158E2,1.3131456E3,4.333542E1,2.3574187E3,8.3286206E2,5.7259326E2,1.0342105E4,3.2619992E4,1.4882499E3,1.131512E2,6.902545E2,3.10455E3,3.8636117E4,8.2226305E0,6.1837213E2,8.178588E1,8.811115E2,4.3203415E2,2.3324736E3,2.4945164E1,8.6562454E1,7.4629956E2,5.0878335E3,5.254272E3,3.12507E4,1.3692921E3,1.4625962E3,2.5653732E1,6.1831287E2,7.1941635E1,2.2314434E3,8.731066E2,3.818738E4,4.4873898E2,5.939608E2,2.4411297E1,1.0673548E2,3.2529868E2,1.3201997E1,2.3192717E3,1.8417807E1,7.278818E2,3.364425E3,1.8898469E3,3.087916E4,3.7154074E2,7.6195404E2,6.07338E2,1.4513756E3,1.1220613E1,5.9414185E2,2.417104E1,2.039193E3,1.9225043E2,7.1516675E2,1.5793988E2,4.327719E2,1.5967069E1,5.8250745E2,1.1453366E1,2.96191E2,2.9107641E1,2.314785E3,4.486825E0,7.204195E2,7.4623065E0,1.4393942E3,1.9250309E3,1.1041608E3,7.8568616E2,2.9031174E4,1.847985E3,2.2498196E2,1.4655879E2,4.9372186E2,1.13616165E2,1.4451505E3,6.2250676E0,5.836803E2,1.0461541E1,4.5249825E1,1.470006E2,6.435352E2,7.163152E1,3.987021E0,5.7852045E2,7.97602E0,2.88215E2,2.312036E3,2.7489076E0,6.054402E2,8.3395404E2,1.02230426E3,8.185646E1,3.696927E2,4.1599347E2,2.1181792E2,1.6361671E3,1.4432117E2,2.2376204E0,4.55107E2,3.8614883E1,1.4434073E3,1.7431773E0,4.9818983E0,5.786984E2,1.4426515E2,2.7354445E0,2.563654E1,6.178987E2],"tree_param":{"num_deleted":"0","num_feature":"29","num_nodes":"127","size_leaf_vector":"1"}},{"base_weights":[-1.0770296E-3,1.72288E0,-1.4175695E0,1.8362695E0,7.238305E-1,1.6350968E0,-1.4754905E0,1.8386776E0,-1.7721798E-2,-1.8592546E-2,1.1587672E0,1.8484693E0,-1.8149463E-2,-1.5536326E0,5.433512E-1,-1.7062156E-2,1.8398601E0,1.312773E0,-1.8618478E-2,-1.5291694E-2,1.8667946E-2,-2.2324586E-1,-1.6137121E0,1.3845894E0,-1.8446108E-2,1.8415475E-2,1.636133E0,1.5348375E0,-4.348502E-1,-1.8470915E-2,6.0217434E-1,-1.6779597E0,-3.3417138E-1,1.6522841E0,-1.8306592E-2,-1.8430553E-2,1.8768098E-2,1.6214365E0,-1.8414289E-2,1.4818676E0,-1.8475488E-2,-1.838907E-2,1.2070745E0,2.2401012E-1,-1.7014912E0,-1.8484354E-2,8.140538E-1,-1.8014738E-2,1.7218579E0,1.6726547E0,-1.840307E-2,1.8625025E-2,-1.7449077E-2,1.5780447E0,-1.8341733E-2,-1.8399553E-2,1.3712326E0,-1.2964195E0,-1.76831E0,-1.8576179E-2,1.2443509E0,1.7798928E0,-1.7945012E-2,1.7090641E-2,-1.8240524E-2,-1.8064162E-2,1.7047375E-2,1.7703872E-2,-1.7991262E-2,-1.4456956E-2,3.6339434E-3,-1.4849065E-2,-1.826238E-2,-1.8463764E-2,1.5279028E-2,1.813924E-2,-1.7314147E-2],"categories":[],"categories_nodes":[],"categories_segments":[],"categories_sizes":[],"default_left":[0,0,0,0,0,0,0,0,0,0,0,0,0,0,0,0,0,0,0,0,0,0,0,0,0,0,0,0,0,0,0,0,0,0,0,0,0,0,0,0,0,0,0,0,0,0,0,0,0,0,0,0,0,0,0,0,0,0,0,0,0,0,0,0,0,0,0,0,0,0,0,0,0,0,0,0,0],"id":9,"left_children":[1,3,5,7,9,11,13,15,-1,-1,17,19,-1,21,23,-1,25,27,-1,-1,-1,29,31,33,-1,-1,35,37,39,-1,41,43,45,47,-1,-1,-1,49,-1,51,-1,-1,53,55,57,-1,59,-1,61,63,-1,-1,-1,65,-1,-1,67,69,71,-1,73,75,-1,-1,-1,-1,-1,-1,-1,-1,-1,-1,-1,-1,-1,-1,-1],"loss_changes":[2.1987661E5,4.599336E3,8.741945E3,3.201875E2,4.6547524E3,6.812344E2,7.6533203E3,1.5592188E2,0E0,0E0,1.6515747E3,5.6562744E1,0E0,3.7323906E3,3.6352537E3,0E0,9.515625E0,1.3099355E3,0E0,0E0,0E0,2.7073098E3,3.6726797E3,1.154502E3,0E0,0E0,2.6161395E2,8.782383E2,1.0347384E3,0E0,1.9799137E3,1.9046094E3,3.7181282E3,2.9998926E2,0E0,0E0,0E0,5.20667E2,0E0,2.0255518E2,0E0,0E0,1.2145607E3,1.2357827E3,1.1352031E3,0E0,1.4007168E3,0E0,2.5045581E2,3.6941797E2,0E0,0E0,0E0,4.137495E2,0E0,0E0,4.275442E2,1.4759014E3,5.894922E2,0E0,9.215105E2,1.4563403E2,0E0,0E0,0E0,0E0,0E0,0E0,0E0,0E0,0E0,0E0,0E0,0E0,0E0,0E0,0E0],"parents":[2147483647,0,0,1,1,2,2,3,3,4,4,5,5,6,6,7,7,10,10,11,11,13,13,14,14,16,16,17,17,21,21,22,22,23,23,26,26,27,27,28,28,30,30,31,31,32,32,33,33,37,37,39,39,42,42,43,43,44,44,46,46,48,48,49,49,53,53,56,56,57,57,58,58,60,60,61,61],"right_children":[2,4,6,8,10,12,14,16,-1,-1,18,20,-1,22,24,-1,26,28,-1,-1,-1,30,32,34,-1,-1,36,38,40,-1,42,44,46,48,-1,-1,-1,50,-1,52,-1,-1,54,56,58,-1,60,-1,62,64,-1,-1,-1,66,-1,-1,68,70,72,-1,74,76,-1,-1,-1,-1,-1,-1,-1,-1,-1,-1,-1,-1,-1,-1,-1],"split_conditions":[-1.7847999E0,-1.4178574E0,-1.6136038E0,1.0335827E0,-3.6967066E-1,-8.5939294E-1,1.6180665E0,-6.9347805E-1,-1.7721798E-2,-1.8592546E-2,7.3810774E-1,5.1458713E-2,-1.8149463E-2,-6.620021E-1,-9.923595E-3,-1.7062156E-2,-2.6413176E0,1.9188188E0,-1.8618478E-2,-1.5291694E-2,1.8667946E-2,1.6676503E-1,5.1539E2,-3.2647505E-1,-1.8446108E-2,1.8415475E-2,6.9214296E-1,1.15967765E-1,-1.0706434E0,-1.8470915E-2,-6.365253E-1,-2.3246248E0,2.827942E-1,-8.1336796E-1,-1.8306592E-2,-1.8430553E-2,1.8768098E-2,3.62287E-1,-1.8414289E-2,-3.2037854E-1,-1.8475488E-2,-1.838907E-2,6.5139186E-1,8.3169913E-1,1.78E0,-1.8484354E-2,-2.779809E-1,-1.8014738E-2,8.945455E-1,5.0697714E-1,-1.840307E-2,1.8625025E-2,-1.7449077E-2,-1.3595104E0,-1.8341733E-2,-1.8399553E-2,-4.4645526E-2,1.5622975E0,-9.826055E-1,-1.8576179E-2,-2.135718E-1,-1.1583538E-1,-1.7945012E-2,1.7090641E-2,-1.8240524E-2,-1.8064162E-2,1.7047375E-2,1.7703872E-2,-1.7991262E-2,-1.4456956E-2,3.6339434E-3,-1.4849065E-2,-1.826238E-2,-1.8463764E-2,1.5279028E-2,1.813924E-2,-1.7314147E-2],"split_indices":[13,11,16,9,0,11,16,10,0,0,14,22,0,20,7,0,13,0,0,0,0,9,28,13,0,0,22,26,6,0,21,5,18,8,0,0,0,23,0,5,0,0,8,20,28,0,8,0,8,11,0,0,0,20,0,0,11,12,12,0,21,9,0,0,0,0,0,0,0,0,0,0,0,0,0,0,0],"split_type":[0,0,0,0,0,0,0,0,0,0,0,0,0,0,0,0,0,0,0,0,0,0,0,0,0,0,0,0,0,0,0,0,0,0,0,0,0,0,0,0,0,0,0,0,0,0,0,0,0,0,0,0,0,0,0,0,0,0,0,0,0,0,0,0,0,0,0,0,0,0,0,0,0,0,0,0,0],"sum_hessian":[9.0038586E4,4.06116E4,4.942699E4,3.6471355E4,4.1402437E3,9.1985144E2,4.8507137E4,3.6447523E4,2.383353E1,5.961917E2,3.5440522E3,8.6671265E2,5.313878E1,4.6699785E4,1.8073523E3,1.1672829E1,3.643585E4,3.3726626E3,1.713895E2,4.2320647E0,8.624806E2,2.0180155E3,4.468177E4,1.3368301E3,4.7052222E2,3.6128555E4,3.0729614E2,2.9925334E3,3.8012924E2,6.796686E2,1.3383469E3,4.2545203E4,2.1365679E3,1.2345316E3,1.0229836E2,1.945143E1,2.8784473E2,2.9182031E3,7.43302E1,1.6127118E2,2.1885806E2,2.6537662E2,1.0729703E3,5.1984015E2,4.202536E4,9.2115326E2,1.2154144E3,2.3886244E1,1.2106454E3,2.8761655E3,4.203757E1,1.4463287E2,1.6638296E1,9.567478E2,1.1622257E2,1.8550131E2,3.3433884E2,5.9535986E3,3.607176E4,1.68139E2,1.0472755E3,1.1914749E3,1.917056E1,2.8470322E3,2.9133425E1,3.404392E1,9.2270386E2,2.9734418E2,3.699465E1,5.4624585E3,4.911398E2,6.126332E3,2.994543E4,8.754291E1,9.5973254E2,1.1805168E3,1.095802E1],"tree_param":{"num_deleted":"0","num_feature":"29","num_nodes":"77","size_leaf_vector":"1"}},{"base_weights":[-1.6047891E-2,1.7082077E0,-1.4248849E0,4.6492428E-1,1.7918453E0,-1.6459116E0,-2.4247234E-1,9.578288E-1,-1.8385371E-2,1.8227516E0,1.4236006E0,-7.11311E-2,-1.6933701E0,1.2886075E0,-6.8028826E-1,1.5882229E0,-8.533169E-1,1.8230947E0,-1.4212964E-2,1.6587697E0,2.8393233E-1,-1.8302307E-2,1.2719984E0,-1.7653044E0,-1.3061986E0,1.5476315E0,-1.8223552E-2,8.4184235E-1,-1.1375542E0,1.7095071E0,-1.7949164E-2,-1.8459007E-2,1.1529787E0,1.8233838E0,-1.3562734E-2,-1.8281043E-2,1.7331244E0,-1.8709736E-2,1.8511744E0,1.7430859E0,-1.8151294E-2,-1.7810508E0,2.7840318E-2,-6.830216E-2,-1.6127492E0,1.7014923E0,-1.825378E-2,-1.8293351E-2,1.3529749E0,1.117985E0,-1.3288901E0,1.7799857E0,-1.7845174E-2,1.8342749E0,-1.8025693E-2,1.8236494E0,-1.3397745E-2,-1.8825574E-2,1.7809929E0,1.8705592E-2,-1.1321517E-2,-1.7219739E-2,1.8376307E0,-1.7959932E0,-1.2603813E0,1.8424492E0,-1.820675E-2,-1.0698105E0,1.3221008E0,-1.7163401E0,5.554352E-1,-1.7605014E-2,1.7485064E0,1.6301959E0,-1.8344697E-2,-1.8000623E-2,1.5573903E0,-1.4384708E0,1.0212046E0,1.8174542E0,-1.7483095E-2,1.8659791E-2,-1.029569E-2,1.7089473E0,1.8245839E-2,1.805587E0,-1.754558E-2,-1.4643508E-2,1.8628428E0,-1.6252538E0,-1.8292043E-2,-1.8394802E-2,1.2344884E0,-1.5044108E-2,1.9556819E-2,1.4561604E0,-1.828606E-2,1.7790322E0,-1.810416E-2,-1.8321851E-2,-4.5453638E-1,1.919475E0,-1.8156275E-2,-1.72255E-2,1.7809767E0,1.7326754E0,-1.787629E-2,1.8101094E0,-1.760299E-2,-6.0294604E-1,-1.8332344E-2,-1.8079948E-2,1.8751103E0,-1.6076673E-2,1.8338846E-2,1.819281E-2,-1.6536502E-2,-1.6826145E-2,1.8220425E-2,1.8724807E-2,-1.1145541E-2,-1.8369338E-2,8.2044685E-3,1.9161344E-2,-1.7838513E-2,-1.7584665E-2,1.9398248E-2,-1.7250523E-2,1.9046746E-2,-1.8276392E-2,1.935892E-2,1.9646091E-2,-1.1760019E-2,-1.7217984E-2,1.806957E-2,1.7874654E-2,-1.7526804E-2,-1.552134E-2,1.8762749E-2,5.2708406E-3,-1.8342048E-2,-1.1808124E-2,1.9198699E-2],"categories":[],"categories_nodes":[],"categories_segments":[],"categories_sizes":[],"default_left":[0,0,0,0,0,0,0,0,0,0,0,0,0,0,0,0,0,0,0,0,0,0,0,0,0,0,0,0,0,0,0,0,0,0,0,0,0,0,0,0,0,0,0,0,0,0,0,0,0,0,0,0,0,0,0,0,0,0,0,0,0,0,0,0,0,0,0,0,0,0,0,0,0,0,0,0,0,0,0,0,0,0,0,0,0,0,0,0,0,0,0,0,0,0,0,0,0,0,0,0,0,0,0,0,0,0,0,0,0,0,0,0,0,0,0,0,0,0,0,0,0,0,0,0,0,0,0,0,0,0,0,0,0,0,0,0,0,0,0,0,0,0,0],"id":10,"left_children":[1,3,5,7,9,11,13,15,-1,17,19,21,23,25,27,29,31,33,-1,35,37,-1,39,41,43,45,-1,47,49,51,-1,-1,53,55,-1,-1,57,-1,59,61,-1,63,65,67,69,71,-1,-1,73,75,77,79,-1,81,-1,83,-1,-1,85,-1,-1,-1,87,89,91,93,-1,95,97,99,101,-1,103,105,-1,-1,107,109,111,113,-1,-1,-1,115,-1,117,-1,-1,119,121,-1,-1,123,-1,-1,125,-1,127,-1,-1,129,131,-1,-1,133,135,-1,137,-1,139,-1,-1,141,-1,-1,-1,-1,-1,-1,-1,-1,-1,-1,-1,-1,-1,-1,-1,-1,-1,-1,-1,-1,-1,-1,-1,-1,-1,-1,-1,-1,-1,-1],"loss_changes":[2.1674394E5,4.1711562E3,1.2832547E4,2.8745547E3,4.252422E2,3.09175E3,5.1855225E3,2.3817559E3,0E0,4.1179688E1,7.8087256E2,2.8643198E3,1.1161875E3,1.3890032E3,4.187667E3,6.378098E2,1.0754243E3,3.4351562E1,0E0,6.296626E2,1.6916708E3,0E0,1.0029468E3,9.5622656E2,2.389169E3,8.2752124E2,0E0,1.9005093E3,1.9979341E3,3.7105713E2,0E0,0E0,3.6374857E2,3.15625E1,0E0,0E0,4.1293652E2,0E0,1.8883057E1,1.9872961E2,0E0,2.5891406E2,9.9547986E2,1.7430913E3,1.1344111E3,2.5043945E2,0E0,0E0,1.0345886E3,4.6732404E2,1.0997559E3,1.9683398E2,0E0,1.5174316E1,0E0,6.015625E-1,0E0,0E0,2.0629834E2,0E0,0E0,0E0,5.114441E1,1.8205469E2,1.360183E3,5.9694733E1,0E0,1.3972676E3,7.5345526E2,7.032295E2,7.5017035E2,0E0,1.7211621E2,3.7947534E2,0E0,0E0,2.6763568E2,1.3430352E3,4.6381754E2,8.454736E1,0E0,0E0,0E0,1.1280347E2,0E0,1.3625928E2,0E0,0E0,1.8662598E1,2.7570293E3,0E0,0E0,3.6894266E2,0E0,0E0,2.6560886E2,0E0,2.0489368E2,0E0,0E0,1.3373118E3,2.2854126E1,0E0,0E0,1.383872E2,2.024602E2,0E0,6.822174E1,0E0,1.8223953E3,0E0,0E0,2.2358887E1,0E0,0E0,0E0,0E0,0E0,0E0,0E0,0E0,0E0,0E0,0E0,0E0,0E0,0E0,0E0,0E0,0E0,0E0,0E0,0E0,0E0,0E0,0E0,0E0,0E0,0E0,0E0,0E0,0E0,0E0],"parents":[2147483647,0,0,1,1,2,2,3,3,4,4,5,5,6,6,7,7,9,9,10,10,11,11,12,12,13,13,14,14,15,15,16,16,17,17,19,19,20,20,22,22,23,23,24,24,25,25,27,27,28,28,29,29,32,32,33,33,36,36,38,38,39,39,41,41,42,42,43,43,44,44,45,45,48,48,49,49,50,50,51,51,53,53,55,55,58,58,62,62,63,63,64,64,65,65,67,67,68,68,69,69,70,70,72,72,73,73,76,76,77,77,78,78,79,79,83,83,85,85,88,88,89,89,92,92,95,95,97,97,100,100,101,101,104,104,105,105,107,107,109,109,112,112],"right_children":[2,4,6,8,10,12,14,16,-1,18,20,22,24,26,28,30,32,34,-1,36,38,-1,40,42,44,46,-1,48,50,52,-1,-1,54,56,-1,-1,58,-1,60,62,-1,64,66,68,70,72,-1,-1,74,76,78,80,-1,82,-1,84,-1,-1,86,-1,-1,-1,88,90,92,94,-1,96,98,100,102,-1,104,106,-1,-1,108,110,112,114,-1,-1,-1,116,-1,118,-1,-1,120,122,-1,-1,124,-1,-1,126,-1,128,-1,-1,130,132,-1,-1,134,136,-1,138,-1,140,-1,-1,142,-1,-1,-1,-1,-1,-1,-1,-1,-1,-1,-1,-1,-1,-1,-1,-1,-1,-1,-1,-1,-1,-1,-1,-1,-1,-1,-1,-1,-1,-1],"split_conditions":[-1.7847999E0,9.2697126E-1,1.4414353E0,-8.903718E-1,-3.6448364E0,-9.849113E-1,-9.9324536E-1,1.5166534E-1,-1.8385371E-2,-1.7335953E-1,1.9793576E0,-2.0283267E0,8.304169E-1,1.2325757E0,-3.85169E-1,8.8091516E-1,8.2938653E-1,2.2209036E0,-1.4212964E-2,1.6686646E0,1.3781528E0,-1.8302307E-2,-4.405204E-1,2.4267168E0,9.090688E-1,1.0136417E0,-1.8223552E-2,-1.6256964E-1,-2.3246248E0,1.0988474E0,-1.7949164E-2,-1.8459007E-2,8.4073454E-1,1.9607837E0,-1.3562734E-2,-1.8281043E-2,-6.824091E-1,-1.8709736E-2,3.990776E-1,-2.5002858E-1,-1.8151294E-2,5.1539E2,-9.674113E-1,8.1898785E-1,8.3169913E-1,-1.1766206E0,-1.825378E-2,-1.8293351E-2,1.3633096E-1,-6.1740875E0,2.1302514E0,6.1044115E-1,-1.7845174E-2,-7.5259143E-1,-1.8025693E-2,1.1835611E0,-1.3397745E-2,-1.8825574E-2,-2.1917908E0,1.8705592E-2,-1.1321517E-2,-1.7219739E-2,3.1019425E-1,-6.459218E-1,-5.6237135E-2,4.425817E-1,-1.820675E-2,-8.597448E-1,9.510422E-1,1.486767E0,-1.8410854E0,-1.7605014E-2,-3.3215737E-1,1.0405465E0,-1.8344697E-2,-1.8000623E-2,6.0336612E-2,7.63E0,1.0250651E0,-4.8745126E-1,-1.7483095E-2,1.8659791E-2,-1.029569E-2,-1.5087645E0,1.8245839E-2,-4.2647305E-1,-1.754558E-2,-1.4643508E-2,-2.623321E-1,-6.6103584E-1,-1.8292043E-2,-1.8394802E-2,-3.993139E-2,-1.5044108E-2,1.9556819E-2,9.422638E-1,-1.828606E-2,6.186966E-1,-1.810416E-2,-1.8321851E-2,1.207697E0,-2.5262728E-1,-1.8156275E-2,-1.72255E-2,7.17E0,1.0392113E0,-1.787629E-2,-3.4282703E-2,-1.760299E-2,-1.1873333E0,-1.8332344E-2,-1.8079948E-2,-9.8030883E-1,-1.6076673E-2,1.8338846E-2,1.819281E-2,-1.6536502E-2,-1.6826145E-2,1.8220425E-2,1.8724807E-2,-1.1145541E-2,-1.8369338E-2,8.2044685E-3,1.9161344E-2,-1.7838513E-2,-1.7584665E-2,1.9398248E-2,-1.7250523E-2,1.9046746E-2,-1.8276392E-2,1.935892E-2,1.9646091E-2,-1.1760019E-2,-1.7217984E-2,1.806957E-2,1.7874654E-2,-1.7526804E-2,-1.552134E-2,1.8762749E-2,5.2708406E-3,-1.8342048E-2,-1.1808124E-2,1.9198699E-2],"split_indices":[13,3,3,2,13,19,13,15,0,2,16,0,3,2,20,19,21,14,0,3,22,0,5,18,3,0,0,25,5,4,0,0,21,0,0,0,21,0,4,3,0,28,20,17,20,5,0,0,26,0,18,3,0,3,0,3,0,0,13,0,0,0,26,13,1,4,0,16,17,14,12,0,22,2,0,0,2,28,19,19,0,0,0,4,0,19,0,0,12,13,0,0,1,0,0,14,0,2,0,0,0,1,0,0,28,13,0,2,0,14,0,0,0,0,0,0,0,0,0,0,0,0,0,0,0,0,0,0,0,0,0,0,0,0,0,0,0,0,0,0,0,0,0],"split_type":[0,0,0,0,0,0,0,0,0,0,0,0,0,0,0,0,0,0,0,0,0,0,0,0,0,0,0,0,0,0,0,0,0,0,0,0,0,0,0,0,0,0,0,0,0,0,0,0,0,0,0,0,0,0,0,0,0,0,0,0,0,0,0,0,0,0,0,0,0,0,0,0,0,0,0,0,0,0,0,0,0,0,0,0,0,0,0,0,0,0,0,0,0,0,0,0,0,0,0,0,0,0,0,0,0,0,0,0,0,0,0,0,0,0,0,0,0,0,0,0,0,0,0,0,0,0,0,0,0,0,0,0,0,0,0,0,0,0,0,0,0,0,0],"sum_hessian":[8.9222586E4,4.0120035E4,4.910255E4,2.5292341E3,3.75908E4,4.1369098E4,7.7334556E3,2.0838972E3,4.4533707E2,3.4676504E4,2.9142969E3,1.2103234E3,4.0158773E4,1.7192272E3,6.0142285E3,1.545936E3,5.3796106E2,3.4673273E4,3.2289393E0,2.4154219E3,4.988749E2,5.2386005E2,6.8646326E2,3.3863543E4,6.2952275E3,1.5875479E3,1.3167941E2,1.3891694E3,4.625059E3,1.4929104E3,5.30256E1,3.5995755E2,1.7800352E2,3.4670547E4,2.726535E0,4.9939E1,2.365483E3,2.099739E2,2.88901E2,5.9595715E2,9.050611E1,3.356877E4,2.947743E2,1.2497552E3,5.0454727E3,1.5187645E3,6.878335E1,2.227098E2,1.1664597E3,3.6128247E2,4.2637764E3,1.463873E3,2.9037449E1,1.4496613E2,3.3037395E1,3.4668062E4,2.487534E0,3.0406921E1,2.335076E3,2.874065E2,1.4944892E0,1.5371724E1,5.8058545E2,3.2629895E4,9.3887683E2,1.4875304E2,1.4602124E2,7.266089E2,5.2314636E2,4.8156025E3,2.2987001E2,1.9860304E1,1.4989042E3,1.0735763E3,9.2883354E1,4.6877438E1,3.1440503E2,4.074192E3,1.8958455E2,1.4489706E3,1.4902408E1,1.4372346E2,1.2426597E0,2.9493756E2,3.4373125E4,2.319431E3,1.5645233E1,3.966888E0,5.766186E2,5.321558E3,2.7308336E4,7.622168E2,1.7665997E2,4.4659324E0,1.4428711E2,1.6763757E2,5.589713E2,4.5692767E2,6.621868E1,4.4102495E3,4.053529E2,1.460436E2,8.382641E1,1.3409237E1,1.4854949E3,1.0428021E3,3.0774176E1,2.9257318E2,2.1831835E1,1.3080999E3,2.766092E3,4.369499E1,1.4588956E2,6.4551964E0,1.4425154E3,2.860119E2,8.925661E0,1.0415042E1,2.3090159E3,5.751279E2,1.4906098E0,4.8978857E3,4.2367224E2,1.4441193E2,3.2248062E1,2.1579021E1,1.4605855E2,1.5375829E1,4.4155185E2,2.5761176E2,1.4774115E2,1.4430486E2,1.7387384E0,1.0456367E1,1.4750386E3,1.0271426E3,1.565962E1,5.2129836E0,2.873602E2,6.823873E2,6.257125E2,1.7395947E0,1.4414996E2],"tree_param":{"num_deleted":"0","num_feature":"29","num_nodes":"143","size_leaf_vector":"1"}},{"base_weights":[6.4440807E-3,1.6977627E0,-1.4014946E0,1.8037148E0,7.810767E-1,-1.5981995E0,-1.4327694E-1,1.8099552E0,-1.7889276E-2,-2.221025E-1,1.6709138E0,-3.5971478E-1,-1.6540567E0,6.627729E-1,-1.2463573E0,1.8101293E0,-1.1771606E-2,-1.835619E-2,5.2860767E-1,-1.8643204E-2,1.7436337E0,-1.8151544E-2,7.1211404E-1,-1.1925889E0,-1.7498331E0,1.1463504E0,-7.4246836E-1,-1.5971245E0,1.2631997E0,1.8135728E0,1.7053258E0,1.2013738E0,-1.8180735E-2,1.7773277E0,-1.7472003E-2,-1.8126024E-2,1.4214152E0,-1.598303E0,-1.9152415E-1,-5.7366014E-1,-1.76519E0,1.2671773E0,-1.82417E-2,1.676044E0,-1.8256979E-2,-1.8178396E-2,1.6959113E-1,1.7018223E0,-1.7849678E-2,1.8929774E-2,1.812205E-2,-1.806326E-2,1.7885673E0,1.4838578E0,-1.8195825E-2,1.7937955E0,-1.728188E-2,1.7205926E0,-1.7952126E-2,-1.8218283E-2,-1.4067079E-1,-1.8185439E-2,5.175851E-1,1.8549238E0,-1.8088136E-2,-8.5835844E-1,-1.7809225E0,1.3416756E0,-1.805666E-2,1.8728131E-2,-1.7391391E-2,1.7261332E0,-1.8030044E-2,1.8430339E0,-1.676648E-2,-1.52922375E-2,1.7999629E0,-1.7887563E-2,1.6345049E0,-1.6822878E-2,1.8045678E0,-1.7369542E-2,1.8099809E0,1.102088E0,-1.8149527E-2,9.306953E-1,-1.8425284E-2,1.9113988E-2,-1.2578335E-2,1.6192799E0,-1.8118741E-2,-1.5108095E0,-1.8141035E-2,1.6799829E0,7.87559E-1,-1.608605E-2,1.9120988E-2,1.8682363E-2,-1.2123455E-2,1.8050259E-2,-1.2595756E-2,-1.7596599E-2,1.7088493E-2,-1.5525715E-2,1.8118538E-2,1.8607793E-2,-1.6660273E-2,-1.8261224E-2,1.7904071E-2,-1.8233908E-2,1.3172099E-2,1.9241422E-2,-1.6970705E-2,-1.8170986E-2,-4.0847803E-3,1.7408205E-2,-1.7778669E-2,1.26793105E-2,-1.8242072E-2],"categories":[],"categories_nodes":[],"categories_segments":[],"categories_sizes":[],"default_left":[0,0,0,0,0,0,0,0,0,0,0,0,0,0,0,0,0,0,0,0,0,0,0,0,0,0,0,0,0,0,0,0,0,0,0,0,0,0,0,0,0,0,0,0,0,0,0,0,0,0,0,0,0,0,0,0,0,0,0,0,0,0,0,0,0,0,0,0,0,0,0,0,0,0,0,0,0,0,0,0,0,0,0,0,0,0,0,0,0,0,0,0,0,0,0,0,0,0,0,0,0,0,0,0,0,0,0,0,0,0,0,0,0,0,0,0,0,0,0],"id":11,"left_children":[1,3,5,7,9,11,13,15,-1,17,19,21,23,25,27,29,-1,-1,31,-1,33,-1,35,37,39,41,43,45,47,49,51,53,-1,55,-1,-1,57,59,61,63,65,67,-1,69,-1,-1,71,73,-1,-1,-1,-1,75,77,-1,79,-1,81,-1,-1,83,-1,85,87,-1,89,91,93,-1,-1,-1,95,-1,97,-1,-1,99,-1,101,-1,103,-1,105,107,-1,109,-1,-1,-1,111,-1,113,-1,115,117,-1,-1,-1,-1,-1,-1,-1,-1,-1,-1,-1,-1,-1,-1,-1,-1,-1,-1,-1,-1,-1,-1,-1,-1],"loss_changes":[2.1447508E5,3.9725625E3,1.2164625E4,8.255078E2,3.78611E3,2.9399062E3,5.910339E3,2.1164062E1,0E0,2.4167412E3,5.810547E2,2.8648293E3,1.7954922E3,2.6108784E3,2.472483E3,1.01171875E1,0E0,0E0,2.152292E3,0E0,2.6219287E2,0E0,1.8969442E3,2.8400898E3,6.073047E2,1.0280693E3,2.580809E3,9.6064014E2,4.6393085E2,4.0625E-1,3.4858057E2,9.0646155E2,0E0,1.290752E2,0E0,0E0,7.983606E2,1.621167E3,2.3292556E3,1.309857E3,4.7276562E2,6.312241E2,0E0,2.0814807E2,0E0,0E0,8.456927E2,1.4710614E2,0E0,0E0,0E0,0E0,4.6404785E1,4.806687E2,0E0,8.438574E1,0E0,2.3697559E2,0E0,0E0,1.3810059E3,0E0,1.3728204E3,2.8303833E1,0E0,1.3468154E3,2.90125E2,5.0151562E2,0E0,0E0,0E0,9.851367E1,0E0,2.4614014E1,0E0,0E0,2.0105225E1,0E0,2.3690234E2,0E0,5.580078E1,0E0,1.3341406E2,7.7122943E2,0E0,1.2770917E3,0E0,0E0,0E0,1.6362527E2,0E0,1.208271E3,0E0,3.5327686E2,1.2804323E3,0E0,0E0,0E0,0E0,0E0,0E0,0E0,0E0,0E0,0E0,0E0,0E0,0E0,0E0,0E0,0E0,0E0,0E0,0E0,0E0,0E0,0E0,0E0,0E0],"parents":[2147483647,0,0,1,1,2,2,3,3,4,4,5,5,6,6,7,7,9,9,10,10,11,11,12,12,13,13,14,14,15,15,18,18,20,20,22,22,23,23,24,24,25,25,26,26,27,27,28,28,29,29,30,30,31,31,33,33,36,36,37,37,38,38,39,39,40,40,41,41,43,43,46,46,47,47,52,52,53,53,55,55,57,57,60,60,62,62,63,63,65,65,66,66,67,67,71,71,73,73,76,76,78,78,80,80,82,82,83,83,85,85,89,89,91,91,93,93,94,94],"right_children":[2,4,6,8,10,12,14,16,-1,18,20,22,24,26,28,30,-1,-1,32,-1,34,-1,36,38,40,42,44,46,48,50,52,54,-1,56,-1,-1,58,60,62,64,66,68,-1,70,-1,-1,72,74,-1,-1,-1,-1,76,78,-1,80,-1,82,-1,-1,84,-1,86,88,-1,90,92,94,-1,-1,-1,96,-1,98,-1,-1,100,-1,102,-1,104,-1,106,108,-1,110,-1,-1,-1,112,-1,114,-1,116,118,-1,-1,-1,-1,-1,-1,-1,-1,-1,-1,-1,-1,-1,-1,-1,-1,-1,-1,-1,-1,-1,-1,-1,-1],"split_conditions":[-1.7847999E0,-3.6448364E0,1.6170504E0,1.0335827E0,1.8977821E0,-7.206816E-1,3.280441E-4,3.1359592E-1,-1.7889276E-2,-2.1917908E0,-6.5121883E-1,5.3701755E-2,-6.459218E-1,-2.3238546E-1,8.3169913E-1,6.5752673E-1,-1.1771606E-2,-1.835619E-2,-1.1761102E-1,-1.8643204E-2,5.5040514E-1,-1.8151544E-2,-1.5161358E-2,4.3560326E-1,-1.053693E0,1.2952543E0,-1.3773658E0,1.2172207E0,9.74492E-2,1.9763558E-1,7.587183E-5,2.2319337E-2,-1.8180735E-2,1.6888204E0,-1.7472003E-2,-1.8126024E-2,4.554153E-2,1.1885754E0,-2.3758553E-2,-8.8501567E-1,-2.5200078E0,5.53719E-1,-1.82417E-2,-4.8400598E0,-1.8256979E-2,-1.8178396E-2,1.2396773E0,-4.4645526E-2,-1.7849678E-2,1.8929774E-2,1.812205E-2,-1.806326E-2,9.722488E-1,-1.6707112E-1,-1.8195825E-2,-5.745063E-1,-1.728188E-2,2.2319337E-2,-1.7952126E-2,-1.8218283E-2,-6.2306386E-1,-1.8185439E-2,6.1797047E-1,-1.3375751E0,-1.8088136E-2,-1.3804181E0,1.29E0,3.3190516E-1,-1.805666E-2,1.8728131E-2,-1.7391391E-2,-1.2818328E-1,-1.8030044E-2,-2.7387476E0,-1.676648E-2,-1.52922375E-2,1.7856245E-1,-1.7887563E-2,2.417947E-2,-1.6822878E-2,-2.2669034E-1,-1.7369542E-2,7.357745E-2,-8.240428E-1,-1.8149527E-2,9.020317E-2,-1.8425284E-2,1.9113988E-2,-1.2578335E-2,7.187435E-1,-1.8118741E-2,9.024617E-1,-1.8141035E-2,5.67E2,-1.448432E-1,-1.608605E-2,1.9120988E-2,1.8682363E-2,-1.2123455E-2,1.8050259E-2,-1.2595756E-2,-1.7596599E-2,1.7088493E-2,-1.5525715E-2,1.8118538E-2,1.8607793E-2,-1.6660273E-2,-1.8261224E-2,1.7904071E-2,-1.8233908E-2,1.3172099E-2,1.9241422E-2,-1.6970705E-2,-1.8170986E-2,-4.0847803E-3,1.7408205E-2,-1.7778669E-2,1.26793105E-2,-1.8242072E-2],"split_indices":[13,13,3,9,3,19,7,11,0,13,21,3,13,11,20,6,0,0,25,0,9,0,27,24,25,13,13,11,17,10,25,26,0,4,0,0,11,10,3,22,7,24,0,7,0,0,11,11,0,0,0,0,10,27,0,23,0,26,0,0,12,0,17,12,0,23,28,9,0,0,0,6,0,6,0,0,23,0,17,0,19,0,5,13,0,17,0,0,0,5,0,12,0,28,17,0,0,0,0,0,0,0,0,0,0,0,0,0,0,0,0,0,0,0,0,0,0,0,0],"split_type":[0,0,0,0,0,0,0,0,0,0,0,0,0,0,0,0,0,0,0,0,0,0,0,0,0,0,0,0,0,0,0,0,0,0,0,0,0,0,0,0,0,0,0,0,0,0,0,0,0,0,0,0,0,0,0,0,0,0,0,0,0,0,0,0,0,0,0,0,0,0,0,0,0,0,0,0,0,0,0,0,0,0,0,0,0,0,0,0,0,0,0,0,0,0,0,0,0,0,0,0,0,0,0,0,0,0,0,0,0,0,0,0,0,0,0,0,0,0,0],"sum_hessian":[9.0065414E4,4.091506E4,4.915036E4,3.667512E4,4.2399355E3,4.2505016E4,6.6453413E3,3.6612023E4,6.3099915E1,1.9933898E3,2.2465457E3,1.8346216E3,4.0670395E4,3.8398564E3,2.8054849E3,3.661028E4,1.7386014E0,6.324999E2,1.3608899E3,4.4783592E1,2.201762E3,7.7777924E2,1.0568424E3,6.992536E3,3.367786E4,2.8569092E3,9.8294727E2,2.4617617E3,3.4372314E2,3.542985E4,1.1804307E3,1.058048E3,3.0284195E2,2.1811997E3,2.0562286E1,2.3145088E2,8.253915E2,4.9754688E3,2.0170671E3,4.3454788E2,3.3243312E4,2.7457964E3,1.1111283E2,3.038958E2,6.7905145E2,2.1883438E3,2.734179E2,3.0087042E2,4.2852707E1,5.764871E2,3.4853367E4,2.6854095E1,1.1535765E3,9.680374E2,9.001054E1,2.171487E3,9.712715E0,7.555803E2,6.981117E1,4.3137173E3,6.6175134E2,6.117862E2,1.4052809E3,1.4632971E2,2.882182E2,5.678467E2,3.2675465E4,2.6813528E3,6.444366E1,2.8776743E2,1.612839E1,1.5289555E2,1.2052237E2,2.892356E2,1.1634839E1,3.492704E0,1.1500839E3,4.2121826E1,9.259156E2,6.2292233E0,2.1652578E3,1.8577284E1,7.37003E2,3.800189E2,2.8173248E2,1.1964602E3,2.088207E2,1.4410121E2,2.2284927E0,1.5761023E2,4.1023645E2,3.579858E3,2.9095605E4,1.6636224E3,1.01773035E3,7.6719594E0,1.4522359E2,2.872547E2,1.9808922E0,1.1485931E3,1.4907293E0,1.9360262E1,9.065553E2,4.229805E0,2.1610278E3,7.268455E2,1.0157474E1,7.20128E1,3.0800607E2,1.467912E2,1.0496691E3,1.447258E2,1.2884422E1,2.8009495E3,7.7890845E2,1.6353466E3,2.8275791E1,8.6005774E2,1.576726E2],"tree_param":{"num_deleted":"0","num_feature":"29","num_nodes":"119","size_leaf_vector":"1"}},{"base_weights":[1.8878555E-2,1.6852033E0,-1.3996688E0,-1.0094883E0,1.7281791E0,-1.617378E0,-2.3543648E-1,-1.8098852E-2,7.9269844E-1,1.7443105E0,-1.7989157E-2,-9.27061E-1,-1.6734598E0,1.266895E0,-6.6619736E-1,-1.7764896E-2,1.7675256E0,1.7543309E0,-1.7870722E-2,3.8662976E-1,-1.7997496E-2,-1.7101525E0,-1.0411922E0,1.5044584E0,-1.798904E-2,-9.9227047E-1,1.4143591E0,1.8352926E-2,-1.3343514E-2,1.7946559E0,1.2825586E0,-1.8025512E-2,1.3285052E0,-1.3156692E0,-1.7653587E0,-1.8024115E-2,2.5624782E-1,-1.795687E-2,1.5891516E0,-1.8041603E-2,-4.9355495E-1,1.6948084E0,-1.7845409E-2,1.796501E-2,1.7427833E0,1.5513579E0,-5.5514485E-1,-1.7880509E-2,1.6044273E0,-1.6380019E0,-4.0352735E-1,-1.7826606E0,-3.5202664E-1,1.1333542E0,-1.8072298E-2,1.6556885E0,-1.7704558E-2,-9.379629E-1,9.010289E-1,1.7815931E0,-1.7192278E-2,-1.802428E-2,1.8072131E0,1.6204329E0,-1.8159218E-2,1.8261597E-2,-1.842365E-2,-1.7634481E-2,1.7574269E0,4.5069936E-1,-1.8056681E-2,8.8925743E-1,-1.8193658E-2,-1.4681573E0,-1.8002838E-2,-1.7941905E-2,1.6069074E0,1.6245483E0,-1.8049901E-2,-1.7387452E-2,1.7053636E0,1.2422555E-1,-1.4761848E0,1.405633E0,-1.7970799E-2,-1.6305862E-2,1.8283051E0,1.8163914E-2,-1.4297747E-2,1.6778648E-2,-1.7995706E-2,-1.7049465E-2,1.8330581E-2,-1.8017435E-2,1.803519E-2,-1.8010419E-2,1.3368149E-2,6.273312E-3,-1.799399E-2,2.0043505E-2,-1.7033773E-2,-1.730797E-2,1.7748721E-2,-1.7341532E-2,1.7454488E-2,-7.4980143E-3,1.4922701E-2,4.5530377E-3,-1.8100424E-2,1.6777748E-2,-1.78558E-2,1.8396858E-2,-1.267894E-2],"categories":[],"categories_nodes":[],"categories_segments":[],"categories_sizes":[],"default_left":[0,0,0,0,0,0,0,0,0,0,0,0,0,0,0,0,0,0,0,0,0,0,0,0,0,0,0,0,0,0,0,0,0,0,0,0,0,0,0,0,0,0,0,0,0,0,0,0,0,0,0,0,0,0,0,0,0,0,0,0,0,0,0,0,0,0,0,0,0,0,0,0,0,0,0,0,0,0,0,0,0,0,0,0,0,0,0,0,0,0,0,0,0,0,0,0,0,0,0,0,0,0,0,0,0,0,0,0,0,0,0,0,0],"id":12,"left_children":[1,3,5,7,9,11,13,-1,15,17,-1,19,21,23,25,-1,27,29,-1,31,-1,33,35,37,-1,39,41,-1,-1,43,45,-1,47,49,51,-1,53,-1,55,-1,57,59,-1,-1,61,63,65,-1,67,69,71,73,75,77,-1,79,-1,81,83,85,-1,-1,87,89,-1,-1,-1,-1,91,93,-1,95,-1,97,-1,-1,99,101,-1,-1,103,105,107,109,-1,-1,111,-1,-1,-1,-1,-1,-1,-1,-1,-1,-1,-1,-1,-1,-1,-1,-1,-1,-1,-1,-1,-1,-1,-1,-1,-1,-1],"loss_changes":[2.1432869E5,4.8303047E3,1.2413734E4,9.46477E2,2.338211E3,1.5958672E3,4.994909E3,0E0,5.095084E2,1.4488125E3,0E0,3.5575444E3,8.835156E2,1.2554028E3,4.0705876E3,0E0,3.3363953E1,7.727344E2,0E0,2.5575093E3,0E0,7.831172E2,2.0702065E3,4.4916748E2,0E0,2.0989307E3,7.324718E2,0E0,0E0,4.609375E-1,1.5872671E3,0E0,7.484177E2,1.3022656E3,7.729531E2,0E0,1.4061141E3,0E0,3.5106982E2,0E0,1.9927561E3,2.2470435E2,0E0,0E0,3.0533472E2,6.546675E2,1.2617808E3,0E0,4.1378125E2,1.1474131E3,2.1219954E3,1.7057031E2,1.0872635E3,7.895207E2,0E0,2.6056055E2,0E0,1.3938484E3,1.0606604E3,1.193374E2,0E0,0E0,4.120215E1,5.4241846E2,0E0,0E0,0E0,0E0,2.0289282E2,7.470312E2,0E0,7.323176E2,0E0,1.1559387E3,0E0,0E0,2.18241E2,2.3885498E2,0E0,0E0,2.1068604E2,9.825031E2,1.044199E3,5.721046E2,0E0,0E0,2.7725586E1,0E0,0E0,0E0,0E0,0E0,0E0,0E0,0E0,0E0,0E0,0E0,0E0,0E0,0E0,0E0,0E0,0E0,0E0,0E0,0E0,0E0,0E0,0E0,0E0,0E0,0E0],"parents":[2147483647,0,0,1,1,2,2,3,3,4,4,5,5,6,6,8,8,9,9,11,11,12,12,13,13,14,14,16,16,17,17,19,19,21,21,22,22,23,23,25,25,26,26,29,29,30,30,32,32,33,33,34,34,36,36,38,38,40,40,41,41,44,44,45,45,46,46,48,48,49,49,50,50,51,51,52,52,53,53,55,55,57,57,58,58,59,59,62,62,63,63,68,68,69,69,71,71,73,73,76,76,77,77,80,80,81,81,82,82,83,83,86,86],"right_children":[2,4,6,8,10,12,14,-1,16,18,-1,20,22,24,26,-1,28,30,-1,32,-1,34,36,38,-1,40,42,-1,-1,44,46,-1,48,50,52,-1,54,-1,56,-1,58,60,-1,-1,62,64,66,-1,68,70,72,74,76,78,-1,80,-1,82,84,86,-1,-1,88,90,-1,-1,-1,-1,92,94,-1,96,-1,98,-1,-1,100,102,-1,-1,104,106,108,110,-1,-1,112,-1,-1,-1,-1,-1,-1,-1,-1,-1,-1,-1,-1,-1,-1,-1,-1,-1,-1,-1,-1,-1,-1,-1,-1,-1,-1],"split_conditions":[-1.7847999E0,-2.9777753E-1,1.4414353E0,2.087292E0,1.9607837E0,-5.0241745E-1,-9.9324536E-1,-1.8098852E-2,2.8496373E-1,1.0335827E0,-1.7989157E-2,-4.245539E-1,8.2423013E-1,5.831787E-1,4.7798047E0,-1.7764896E-2,-7.4765307E-1,-3.6448364E0,-1.7870722E-2,5.3701755E-2,-1.7997496E-2,1.29E0,4.6818322E-1,7.17E0,-1.798904E-2,-9.166295E-2,9.74492E-2,1.8352926E-2,-1.3343514E-2,-1.7759048E0,1.9793576E0,-1.8025512E-2,-9.464464E-1,7.389978E-1,1.2022754E0,-1.8024115E-2,-4.411031E-1,-1.795687E-2,1.0136417E0,-1.8041603E-2,4.9804744E-1,-5.001046E-1,-1.7845409E-2,1.796501E-2,-1.6416588E-1,1.3895359E0,-2.305374E0,-1.7880509E-2,2.5424024E-2,-1.4509026E0,9.090688E-1,-1.3314897E0,5.0698215E-1,1.0931858E-2,-1.8072298E-2,-3.2540977E-1,-1.7704558E-2,-6.998495E-1,8.945455E-1,9.045704E-2,-1.7192278E-2,-1.802428E-2,1.0087969E0,3.930631E-1,-1.8159218E-2,1.8261597E-2,-1.842365E-2,-1.7634481E-2,-3.0071776E0,9.091686E-1,-1.8056681E-2,5.078175E-1,-1.8193658E-2,-1.0700948E0,-1.8002838E-2,-1.7941905E-2,5.140815E-1,-3.1232318E-1,-1.8049901E-2,-1.7387452E-2,-4.558426E-1,6.227217E-1,-1.4600591E-3,-9.211166E-2,-1.7970799E-2,-1.6305862E-2,-1.1001576E0,1.8163914E-2,-1.4297747E-2,1.6778648E-2,-1.7995706E-2,-1.7049465E-2,1.8330581E-2,-1.8017435E-2,1.803519E-2,-1.8010419E-2,1.3368149E-2,6.273312E-3,-1.799399E-2,2.0043505E-2,-1.7033773E-2,-1.730797E-2,1.7748721E-2,-1.7341532E-2,1.7454488E-2,-7.4980143E-3,1.4922701E-2,4.5530377E-3,-1.8100424E-2,1.6777748E-2,-1.78558E-2,1.8396858E-2,-1.267894E-2],"split_indices":[13,3,3,0,0,19,13,0,20,9,0,13,19,8,3,0,1,13,0,3,0,28,18,28,0,4,17,0,0,9,16,0,13,3,25,0,12,0,0,0,8,24,0,0,20,4,4,0,26,9,3,5,24,24,0,22,0,12,8,22,0,0,14,23,0,0,0,0,0,21,0,14,0,18,0,0,24,24,0,0,24,19,4,5,0,0,0,0,0,0,0,0,0,0,0,0,0,0,0,0,0,0,0,0,0,0,0,0,0,0,0,0,0],"split_type":[0,0,0,0,0,0,0,0,0,0,0,0,0,0,0,0,0,0,0,0,0,0,0,0,0,0,0,0,0,0,0,0,0,0,0,0,0,0,0,0,0,0,0,0,0,0,0,0,0,0,0,0,0,0,0,0,0,0,0,0,0,0,0,0,0,0,0,0,0,0,0,0,0,0,0,0,0,0,0,0,0,0,0,0,0,0,0,0,0,0,0,0,0,0,0,0,0,0,0,0,0,0,0,0,0,0,0,0,0,0,0,0,0],"sum_hessian":[9.067076E4,4.169395E4,4.897681E4,6.541581E2,4.103979E4,4.1260742E4,7.7160654E3,4.529758E2,2.011823E2,4.0853453E4,1.8633961E2,3.1015078E3,3.8159234E4,1.7189777E3,5.9970874E3,5.5111584E1,1.4607071E2,4.073836E4,1.1509293E2,1.2381825E3,1.8633254E3,3.6064582E4,2.0946545E3,1.595829E3,1.231487E2,5.184997E3,8.1209045E2,1.433473E2,2.7234E0,3.752784E4,3.2105195E3,3.721916E2,8.6599084E2,4.430525E3,3.1634055E4,1.3198801E3,7.747744E2,3.9424294E1,1.5564047E3,1.9720148E3,3.2129822E3,7.4706506E2,6.5025406E1,3.620636E4,1.3214792E3,2.8009785E3,4.0954105E2,6.998837E1,7.960025E2,3.273086E3,1.1574391E3,3.1251219E4,3.8283734E2,5.439939E2,2.3078052E2,1.5266761E3,2.9728575E1,2.4367861E3,7.7619604E2,7.290117E2,1.8053312E1,2.3106098E1,1.2983732E3,2.7451838E3,5.5794777E1,1.4355377E2,2.6598727E2,3.413286E1,7.618696E2,2.4309103E2,3.0299949E3,6.052054E2,5.522337E2,1.6627197E3,2.9588498E4,2.2055167E2,1.6228568E2,4.664637E2,7.7530205E1,2.1529125E1,1.505147E3,8.1975586E2,1.6170304E3,6.543059E2,1.21890175E2,9.387317E0,7.196244E2,1.2951396E3,3.2334507E0,2.7003464E3,4.483741E1,1.582582E1,7.460438E2,9.109168E1,1.5199936E2,8.589008E1,5.193153E2,2.2683449E2,1.4358853E3,1.4524197E2,1.7043701E1,1.9551208E1,4.469125E2,1.68526E1,1.4882944E3,5.004661E2,3.192898E2,2.3825784E2,1.3787725E3,6.033291E2,5.097676E1,7.1739325E2,2.2311263E0],"tree_param":{"num_deleted":"0","num_feature":"29","num_nodes":"113","size_leaf_vector":"1"}},{"base_weights":[-8.504227E-4,1.7129903E0,-1.3633227E0,1.7296039E0,-1.7779436E-2,1.50113E0,-1.408979E0,1.7412951E0,-1.7996918E-2,1.8087238E-2,-1.7679209E-2,-1.5139279E0,-2.697111E-1,1.7812623E0,1.2367419E0,5.636599E-2,-1.5652057E0,4.8065338E-1,-1.7914008E-2,-1.7027767E-2,1.7823294E-2,1.4613609E0,-1.8160468E-2,9.5295393E-1,-1.7872036E-2,-1.597356E0,3.0183973E-2,8.4763527E-1,-1.7932428E-2,1.5967838E0,-1.7833162E-2,-1.7860658E-2,1.4238728E0,-1.6689082E0,-1.1628622E0,-1.7898537E-2,9.7413313E-1,1.003943E0,-1.793853E-2,-1.8020038E-2,1.6607931E0,1.6342762E0,-1.7644847E-2,-4.688664E-1,-1.6959804E0,6.1731166E-1,-1.3079698E0,-1.77838E-2,1.4554498E0,1.3271881E0,4.636965E-2,1.70302E-2,-1.7836561E-2,1.743729E-2,-1.728266E-2,-1.7973226E-2,9.283472E-3,-1.7104577E-2,3.4364264E-3,1.8781964E-2,-1.779927E-2,-4.8812246E-3,-1.656747E-2,1.7044144E-2,-1.7519163E-2,1.7166063E-2,8.819896E-3,-1.7939068E-2,1.4768465E-2],"categories":[],"categories_nodes":[],"categories_segments":[],"categories_sizes":[],"default_left":[0,0,0,0,0,0,0,0,0,0,0,0,0,0,0,0,0,0,0,0,0,0,0,0,0,0,0,0,0,0,0,0,0,0,0,0,0,0,0,0,0,0,0,0,0,0,0,0,0,0,0,0,0,0,0,0,0,0,0,0,0,0,0,0,0,0,0,0,0],"id":13,"left_children":[1,3,5,7,-1,9,11,13,-1,-1,-1,15,17,19,21,23,25,27,-1,-1,-1,29,-1,31,-1,33,35,37,-1,39,-1,-1,41,43,45,-1,47,49,-1,-1,51,53,-1,55,57,59,61,-1,63,65,67,-1,-1,-1,-1,-1,-1,-1,-1,-1,-1,-1,-1,-1,-1,-1,-1,-1,-1],"loss_changes":[2.0904762E5,2.302664E3,6.524836E3,1.6314297E3,0E0,7.9050854E2,5.869461E3,7.9097656E2,0E0,0E0,0E0,3.6196875E3,4.730544E3,1.3853125E2,1.9845503E3,2.3529146E3,2.232836E3,2.317206E3,0E0,0E0,0E0,1.186044E3,0E0,1.2378091E3,0E0,1.3246484E3,1.4807606E3,9.886245E2,0E0,5.6545166E2,0E0,0E0,5.514546E2,1.1894062E3,1.5601992E3,0E0,7.544618E2,6.986052E2,0E0,0E0,3.7220166E2,2.8553296E2,0E0,1.5044269E3,1.0584844E3,1.380658E3,1.5953535E3,0E0,3.8915454E2,2.910437E2,1.504974E3,0E0,0E0,0E0,0E0,0E0,0E0,0E0,0E0,0E0,0E0,0E0,0E0,0E0,0E0,0E0,0E0,0E0,0E0],"parents":[2147483647,0,0,1,1,2,2,3,3,5,5,6,6,7,7,11,11,12,12,13,13,14,14,15,15,16,16,17,17,21,21,23,23,25,25,26,26,27,27,29,29,32,32,33,33,34,34,36,36,37,37,40,40,41,41,43,43,44,44,45,45,46,46,48,48,49,49,50,50],"right_children":[2,4,6,8,-1,10,12,14,-1,-1,-1,16,18,20,22,24,26,28,-1,-1,-1,30,-1,32,-1,34,36,38,-1,40,-1,-1,42,44,46,-1,48,50,-1,-1,52,54,-1,56,58,60,62,-1,64,66,68,-1,-1,-1,-1,-1,-1,-1,-1,-1,-1,-1,-1,-1,-1,-1,-1,-1,-1],"split_conditions":[-2.1917908E0,1.0335827E0,-1.6136038E0,3.1359592E-1,-1.7779436E-2,-2.1608772E0,1.1197599E0,-1.4178574E0,-1.7996918E-2,1.8087238E-2,-1.7679209E-2,-9.849113E-1,1.4714321E-1,1.267032E-1,5.2760416E-1,-6.840792E-2,1.1497016E0,8.990172E-2,-1.7914008E-2,-1.7027767E-2,1.7823294E-2,2.8387275E-1,-1.8160468E-2,-1.0517692E-1,-1.7872036E-2,5.634624E-1,3.6322373E-1,1.5148058E0,-1.7932428E-2,5.52628E-1,-1.7833162E-2,-1.7860658E-2,-1.9833043E-1,7.5E-1,5.7577217E-1,-1.7898537E-2,