{"learner":{"attributes":{"best_iteration":"6","best_score":"0.9781530296417948"},"feature_names":["V1","V2","V3","V4","V5","V6","V7","V8","V9","V10","V11","V12","V13","V14","V15","V16","V17","V18","V19","V20","V21","V22","V23","V24","V25","V26","V27","V28","Amount_scaled"],"feature_types":["float","float","float","float","float","float","float","float","float","float","float","float","float","float","float","float","float","float","float","float","float","float","float","float","float","float","float","float","float"],"gradient_booster":{"model":{"gbtree_model_param":{"num_parallel_tree":"1","num_trees":"107"},"iteration_indptr":[0,1,2,3,4,5,6,7,8,9,10,11,12,13,14,15,16,17,18,19,20,21,22,23,24,25,26,27,28,29,30,31,32,33,34,35,36,37,38,39,40,41,42,43,44,45,46,47,48,49,50,51,52,53,54,55,56,57,58,59,60,61,62,63,64,65,66,67,68,69,70,71,72,73,74,75,76,77,78,79,80,81,82,83,84,85,86,87,88,89,90,91,92,93,94,95,96,97,98,99,100,101,102,103,104,105,106,107],"tree_info":[0,0,0,0,0,0,0,0,0,0,0,0,0,0,0,0,0,0,0,0,0,0,0,0,0,0,0,0,0,0,0,0,0,0,0,0,0,0,0,0,0,0,0,0,0,0,0,0,0,0,0,0,0,0,0,0,0,0,0,0,0,0,0,0,0,0,0,0,0,0,0,0,0,0,0,0,0,0,0,0,0,0,0,0,0,0,0,0,0,0,0,0,0,0,0,0,0,0,0,0,0,0,0,0,0,0,0],"trees":[{"base_weights":[-1.411161E-2,1.8818018E0,-1.5324675E0,1.9919485E-2,9.288136E-3,-1.8340114E0,-7.93274E-1,-1.9122486E0,-1.1824817E-2,1.5751789E-3,-1.4563758E0,-1.5502958E-2,-1.97411E-2,-9.311741E-3,-1.8073654E-2],"categories":[],"categories_nodes":[],"categories_segments":[],"categories_sizes":[],"default_left":[0,0,0,0,0,0,0,0,0,0,0,0,0,0,0],"id":0,"left_children":[1,3,5,-1,-1,7,9,11,-1,-1,13,-1,-1,-1,-1],"loss_changes":[4.4907324E3,7.0971924E1,1.9163171E2,0E0,0E0,2.9062256E1,1.5958119E2,9.187378E0,0E0,0E0,2.5783722E1,0E0,0E0,0E0,0E0],"parents":[2147483647,0,0,1,1,2,2,5,5,6,6,7,7,10,10],"right_children":[2,4,6,-1,-1,8,10,12,-1,-1,14,-1,-1,-1,-1],"split_conditions":[-1.808103E0,-1.43779E0,7.439206E-1,1.9919485E-2,9.288136E-3,1.0253513E0,-2.026023E-1,-6.6570264E-1,-1.1824817E-2,1.5751789E-3,-1.3282575E-1,-1.5502958E-2,-1.97411E-2,-9.311741E-3,-1.8073654E-2],"split_indices":[13,11,3,0,0,6,11,13,0,0,13,0,0,0,0],"split_type":[0,0,0,0,0,0,0,0,0,0,0,0,0,0,0],"sum_hessian":[1.558E3,6.9275E2,8.6525E2,6.2E2,7.275E1,6.135E2,2.5175E2,5.46E2,6.75E1,1.0375E2,1.48E2,8.35E1,4.625E2,6.075E1,8.725E1],"tree_param":{"num_deleted":"0","num_feature":"29","num_nodes":"15","size_leaf_vector":"1"}},{"base_weights":[-6.040901E-3,1.8683996E0,-1.5266027E0,1.9739565E-2,1.0060907E-2,-1.8242756E0,-8.1126934E-1,-1.891434E0,-1.1970285E-2,4.4735675E-4,-1.4171697E0,-1.4906123E-2,-1.9638902E-2,-9.786359E-3,-1.7047584E-2],"categories":[],"categories_nodes":[],"categories_segments":[],"categories_sizes":[],"default_left":[0,0,0,0,0,0,0,0,0,0,0,0,0,0,0],"id":1,"left_children":[1,3,5,-1,-1,7,9,11,-1,-1,13,-1,-1,-1,-1],"loss_changes":[4.5051016E3,6.2452393E1,1.8434619E2,0E0,0E0,2.3661621E1,1.3400122E2,1.3167847E1,0E0,0E0,1.7405853E1,0E0,0E0,0E0,0E0],"parents":[2147483647,0,0,1,1,2,2,5,5,6,6,7,7,10,10],"right_children":[2,4,6,-1,-1,8,10,12,-1,-1,14,-1,-1,-1,-1],"split_conditions":[-1.808103E0,-1.6898355E0,7.439206E-1,1.9739565E-2,1.0060907E-2,5.5561554E-1,-2.1562378E-1,-6.4843965E-1,-1.1970285E-2,4.4735675E-4,-1.2050453E-1,-1.4906123E-2,-1.9638902E-2,-9.786359E-3,-1.7047584E-2],"split_indices":[13,11,3,0,0,28,11,13,0,0,13,0,0,0,0],"split_type":[0,0,0,0,0,0,0,0,0,0,0,0,0,0,0],"sum_hessian":[1.5786244E3,7.0693567E2,8.716888E2,6.286876E2,7.8248E1,6.144474E2,2.5724136E2,5.532016E2,6.1245785E1,1.0699994E2,1.5024142E2,8.799483E1,4.652068E2,6.12486E1,8.899283E1],"tree_param":{"num_deleted":"0","num_feature":"29","num_nodes":"15","size_leaf_vector":"1"}},{"base_weights":[-8.557624E-3,1.8565578E0,-1.5158507E0,1.9461393E-2,1.0692595E-2,-1.7228143E0,-3.9934236E-1,-1.1578766E-2,-1.8236169E0,2.219437E-3,-1.0399785E-2,-1.9054904E0,-1.0520322E-2,-1.940788E-2,-1.704961E-2],"categories":[],"categories_nodes":[],"categories_segments":[],"categories_sizes":[],"default_left":[0,0,0,0,0,0,0,0,0,0,0,0,0,0,0],"id":2,"left_children":[1,3,5,-1,-1,7,9,-1,11,-1,-1,13,-1,-1,-1],"loss_changes":[4.418646E3,4.7464355E1,2.0017761E2,0E0,0E0,3.9632324E1,5.485327E1,0E0,3.718042E1,0E0,0E0,6.5197754E-1,0E0,0E0,0E0],"parents":[2147483647,0,0,1,1,2,2,5,5,6,6,8,8,11,11],"right_children":[2,4,6,-1,-1,8,10,-1,12,-1,-1,14,-1,-1,-1],"split_conditions":[-1.808103E0,-3.6634789E0,1.3615588E0,1.9461393E-2,1.0692595E-2,-6.964381E-1,2.9299801E-2,-1.1578766E-2,5.5561554E-1,2.219437E-3,-1.0399785E-2,7.1738356E-1,-1.0520322E-2,-1.940788E-2,-1.704961E-2],"split_indices":[13,13,3,0,0,13,7,0,28,0,0,3,0,0,0],"split_type":[0,0,0,0,0,0,0,0,0,0,0,0,0,0,0],"sum_hessian":[1.5697573E3,7.014972E2,8.6826013E2,6.2851105E2,7.298613E1,7.320241E2,1.3623602E2,1.1272951E2,6.192946E2,6.9494316E1,6.6741714E1,5.5855615E2,6.07385E1,4.6757434E2,9.098177E1],"tree_param":{"num_deleted":"0","num_feature":"29","num_nodes":"15","size_leaf_vector":"1"}},{"base_weights":[2.1271665E-2,1.8223369E0,-1.4860108E0,1.9181271E0,8.835871E-3,-1.7764364E0,-8.0081487E-1,1.9396883E-2,1.6766008E-2,-1.8481275E0,-1.1726992E-2,2.6248395E-3,-1.1589371E0,-1.4701683E-2,-1.9214462E-2,-4.0776604E-3,-1.5074238E0,-1.7952938E-2,-1.1433088E-2],"categories":[],"categories_nodes":[],"categories_segments":[],"categories_sizes":[],"default_left":[0,0,0,0,0,0,0,0,0,0,0,0,0,0,0,0,0,0,0],"id":3,"left_children":[1,3,5,7,-1,9,11,-1,-1,13,-1,-1,15,-1,-1,-1,17,-1,-1],"loss_changes":[4.3195264E3,6.3492676E1,1.7095618E2,1.6870117E-1,0E0,2.4128906E1,9.9189224E1,0E0,0E0,1.2176147E1,0E0,0E0,5.028485E1,0E0,0E0,0E0,1.1830719E1,0E0,0E0],"parents":[2147483647,0,0,1,1,2,2,3,3,5,5,6,6,9,9,12,12,16,16],"right_children":[2,4,6,8,-1,10,12,-1,-1,14,-1,-1,16,-1,-1,-1,18,-1,-1],"split_conditions":[-1.6677032E0,-1.4046347E0,7.633519E-1,3.5239354E-1,8.835871E-3,4.7276318E-1,-2.964222E-1,1.9396883E-2,1.6766008E-2,-6.159894E-1,-1.1726992E-2,2.6248395E-3,-2.8433672E-1,-1.4701683E-2,-1.9214462E-2,-4.0776604E-3,-2.1755019E-1,-1.7952938E-2,-1.1433088E-2],"split_indices":[13,9,3,16,0,28,7,0,0,13,0,0,13,0,0,0,25,0,0],"split_type":[0,0,0,0,0,0,0,0,0,0,0,0,0,0,0,0,0,0,0],"sum_hessian":[1.589156E3,7.239239E2,8.652321E2,6.559476E2,6.7976295E1,6.0654895E2,2.586832E2,5.9573505E2,6.0212566E1,5.4032654E2,6.622243E1,6.5241646E1,1.9344154E2,9.12067E1,4.491198E2,6.199024E1,1.3145131E2,7.1216675E1,6.023463E1],"tree_param":{"num_deleted":"0","num_feature":"29","num_nodes":"19","size_leaf_vector":"1"}},{"base_weights":[-6.450385E-5,1.8284084E0,-1.3288109E0,1.915663E-2,9.409468E-3,-1.6057531E0,2.071201E-1,-1.7291371E0,-8.0116E-3,-6.9147944E-3,1.2037845E-2,-1.8075534E0,-1.0722667E-2,-1.869677E0,-1.47698065E-2,-1.9036558E-2,-1.6534783E-2],"categories":[],"categories_nodes":[],"categories_segments":[],"categories_sizes":[],"default_left":[0,0,0,0,0,0,0,0,0,0,0,0,0,0,0,0,0],"id":4,"left_children":[1,3,5,-1,-1,7,9,11,-1,-1,-1,13,-1,15,-1,-1,-1],"loss_changes":[3.8189038E3,4.9422363E1,3.8754822E2,0E0,0E0,7.519116E1,1.2617134E2,3.2467163E1,0E0,0E0,0E0,9.462524E0,0E0,5.058594E-1,0E0,0E0,0E0],"parents":[2147483647,0,0,1,1,2,2,5,5,6,6,7,7,11,11,13,13],"right_children":[2,4,6,-1,-1,8,10,12,-1,-1,-1,14,-1,16,-1,-1,-1],"split_conditions":[-1.7464064E0,-2.4824715E0,1.6337242E0,1.915663E-2,9.409468E-3,8.255528E-1,4.4098988E-1,1.0497677E0,-8.0116E-3,-6.9147944E-3,1.2037845E-2,7.633519E-1,-1.0722667E-2,6.527786E-1,-1.47698065E-2,-1.9036558E-2,-1.6534783E-2],"split_indices":[9,11,3,0,0,16,10,6,0,0,0,3,0,6,0,0,0],"split_type":[0,0,0,0,0,0,0,0,0,0,0,0,0,0,0,0,0],"sum_hessian":[1.5698392E3,6.6052386E2,9.093154E2,6.0034033E2,6.0183533E1,7.70366E2,1.3894934E2,6.6694165E2,1.03424385E2,7.323046E1,6.571889E1,5.942492E2,7.269244E1,4.963212E2,9.792804E1,4.2216614E2,7.4155045E1],"tree_param":{"num_deleted":"0","num_feature":"29","num_nodes":"17","size_leaf_vector":"1"}},{"base_weights":[3.7573332E-3,1.7965616E0,-1.4769572E0,1.8977646E-2,9.107608E-3,-6.943913E-1,-1.6101373E0,4.319199E-4,-1.4962573E-2,-9.541257E-3,-1.7269452E0,-1.16949035E-2,-1.7910323E0,-1.8341082E0,-1.4758746E-2,-1.8846229E-2,-1.6529514E-2],"categories":[],"categories_nodes":[],"categories_segments":[],"categories_sizes":[],"default_left":[0,0,0,0,0,0,0,0,0,0,0,0,0,0,0,0,0],"id":5,"left_children":[1,3,5,-1,-1,7,9,-1,-1,-1,11,-1,13,15,-1,-1,-1],"loss_changes":[4.1945913E3,6.2343994E1,8.907324E1,0E0,0E0,7.554027E1,5.4961426E1,0E0,0E0,0E0,2.0265015E1,0E0,4.8880615E0,1.3510742E0,0E0,0E0,0E0],"parents":[2147483647,0,0,1,1,2,2,5,5,6,6,10,10,12,12,13,13],"right_children":[2,4,6,-1,-1,8,10,-1,-1,-1,12,-1,14,16,-1,-1,-1],"split_conditions":[-1.6677032E0,-1.0864372E0,-4.3141222E-1,1.8977646E-2,9.107608E-3,-1.7374174E-1,-6.964381E-1,4.319199E-4,-1.4962573E-2,-9.541257E-3,-1.0490326E0,-1.16949035E-2,9.213608E-1,3.4650323E-1,-1.4758746E-2,-1.8846229E-2,-1.6529514E-2],"split_indices":[13,11,7,0,0,12,13,0,0,0,18,0,18,24,0,0,0],"split_type":[0,0,0,0,0,0,0,0,0,0,0,0,0,0,0,0,0],"sum_hessian":[1.5781036E3,7.1372894E2,8.6437463E2,6.3952106E2,7.420787E1,1.26612686E2,7.3776196E2,6.644265E1,6.017004E1,1.1289486E2,6.248671E2,6.6414665E1,5.5845245E2,4.870609E2,7.139153E1,3.735071E2,1.13553795E2],"tree_param":{"num_deleted":"0","num_feature":"29","num_nodes":"17","size_leaf_vector":"1"}},{"base_weights":[9.956498E-3,1.7729424E0,-1.4641896E0,1.883753E-2,8.002783E-3,-6.0742903E-3,-1.5956609E0,-1.0192003E0,-1.7185597E0,-4.0108403E-3,-1.5371668E-2,-1.7703478E0,-1.25000235E-2,-1.6089616E0,-1.8358111E-2,-1.8341089E-2,-1.3967173E-2],"categories":[],"categories_nodes":[],"categories_segments":[],"categories_sizes":[],"default_left":[0,0,0,0,0,0,0,0,0,0,0,0,0,0,0,0,0],"id":6,"left_children":[1,3,5,-1,-1,-1,7,9,11,-1,-1,13,-1,15,-1,-1,-1],"loss_changes":[4.0709683E3,7.537573E1,9.512305E1,0E0,0E0,0E0,5.060315E1,4.1747635E1,1.2532593E1,0E0,0E0,2.802002E0,0E0,5.337555E0,0E0,0E0,0E0],"parents":[2147483647,0,0,1,1,2,2,6,6,7,7,8,8,11,11,13,13],"right_children":[2,4,6,-1,-1,-1,8,10,12,-1,-1,14,-1,16,-1,-1,-1],"split_conditions":[-1.6677032E0,-1.1471399E0,-4.6096596E-1,1.883753E-2,8.002783E-3,-6.0742903E-3,-6.159894E-1,-2.5442877E-1,8.964484E-1,-4.0108403E-3,-1.5371668E-2,-3.2128468E-1,-1.25000235E-2,-2.584095E-1,-1.8358111E-2,-1.8341089E-2,-1.3967173E-2],"split_indices":[13,11,7,0,0,0,13,12,6,0,0,28,0,16,0,0,0],"split_type":[0,0,0,0,0,0,0,0,0,0,0,0,0,0,0,0,0],"sum_hessian":[1.5644215E3,7.123241E2,8.520974E2,6.386314E2,7.3692696E1,1.1410801E2,7.3798944E2,1.3132039E2,6.0666907E2,6.0680973E1,7.063941E1,5.4378766E2,6.2881386E1,1.6430525E2,3.794824E2,7.602109E1,8.828416E1],"tree_param":{"num_deleted":"0","num_feature":"29","num_nodes":"17","size_leaf_vector":"1"}},{"base_weights":[-1.5881011E-2,1.7584832E0,-1.4498357E0,1.8587736E-2,8.670716E-3,-1.7278719E0,-7.859728E-1,-1.8176534E0,-1.2001578E-2,3.2206671E-3,-1.1279322E0,-1.5230415E-2,-1.8567652E-2,-3.952136E-3,-1.4573847E0,-1.7958257E-2,-1.0169514E-2],"categories":[],"categories_nodes":[],"categories_segments":[],"categories_sizes":[],"default_left":[0,0,0,0,0,0,0,0,0,0,0,0,0,0,0,0,0],"id":7,"left_children":[1,3,5,-1,-1,7,9,11,-1,-1,13,-1,-1,-1,15,-1,-1],"loss_changes":[3.9826372E3,6.093286E1,1.5842627E2,0E0,0E0,2.668689E1,9.788202E1,3.1496582E0,0E0,0E0,4.6953842E1,0E0,0E0,0E0,1.836438E1,0E0,0E0],"parents":[2147483647,0,0,1,1,2,2,5,5,6,6,7,7,10,10,14,14],"right_children":[2,4,6,-1,-1,8,10,12,-1,-1,14,-1,-1,-1,16,-1,-1],"split_conditions":[-1.808103E0,-3.6634789E0,7.439206E-1,1.8587736E-2,8.670716E-3,8.964484E-1,-2.964222E-1,-7.2970694E-1,-1.2001578E-2,3.2206671E-3,-3.0080718E-1,-1.5230415E-2,-1.8567652E-2,-3.952136E-3,-2.0614414E-1,-1.7958257E-2,-1.0169514E-2],"split_indices":[13,13,3,0,0,6,7,13,0,0,13,0,0,0,25,0,0],"split_type":[0,0,0,0,0,0,0,0,0,0,0,0,0,0,0,0,0],"sum_hessian":[1.5632798E3,6.9860504E2,8.6467474E2,6.269799E2,7.162516E1,6.083045E2,2.5637027E2,5.1777026E2,9.05342E1,6.047461E1,1.9589566E2,6.536251E1,4.5240775E2,6.1443012E1,1.3445264E2,7.4289314E1,6.016333E1],"tree_param":{"num_deleted":"0","num_feature":"29","num_nodes":"17","size_leaf_vector":"1"}},{"base_weights":[7.3489933E-3,1.7477534E0,-1.4187934E0,1.8484024E-2,8.352563E-3,-1.7140646E0,-7.192867E-1,-1.8042644E0,-1.176099E-2,1.5785898E-3,-1.35033E0,-1.5333768E-2,-1.8405737E-2,-9.523423E-3,-1.6085802E-2],"categories":[],"categories_nodes":[],"categories_segments":[],"categories_sizes":[],"default_left":[0,0,0,0,0,0,0,0,0,0,0,0,0,0,0],"id":8,"left_children":[1,3,5,-1,-1,7,9,11,-1,-1,13,-1,-1,-1,-1],"loss_changes":[3.9564343E3,6.438989E1,1.7972168E2,0E0,0E0,2.7736572E1,1.4510721E2,2.3426514E0,0E0,0E0,1.4126373E1,0E0,0E0,0E0,0E0],"parents":[2147483647,0,0,1,1,2,2,5,5,6,6,7,7,10,10],"right_children":[2,4,6,-1,-1,8,10,12,-1,-1,14,-1,-1,-1,-1],"split_conditions":[-1.808103E0,-1.1471399E0,7.439206E-1,1.8484024E-2,8.352563E-3,8.964484E-1,-2.026023E-1,-6.964381E-1,-1.176099E-2,1.5785898E-3,-1.2050453E-1,-1.5333768E-2,-1.8405737E-2,-9.523423E-3,-1.6085802E-2],"split_indices":[13,11,3,0,0,6,11,13,0,0,13,0,0,0,0],"split_type":[0,0,0,0,0,0,0,0,0,0,0,0,0,0,0],"sum_hessian":[1.5920104E3,7.1690454E2,8.751058E2,6.447613E2,7.214325E1,6.1433594E2,2.6076987E2,5.241061E2,9.022987E1,1.0942279E2,1.5134706E2,6.705685E1,4.5704922E2,6.1404587E1,8.9942474E1],"tree_param":{"num_deleted":"0","num_feature":"29","num_nodes":"15","size_leaf_vector":"1"}},{"base_weights":[2.9597765E-2,1.7445621E0,-1.4073508E0,1.8326841E-2,9.00866E-3,-5.6324624E-3,-1.5359722E0,-8.069594E-3,-1.6488757E0,-1.0749559E-2,-1.7104901E0,-1.7512828E0,-1.3401487E-2,-1.8152356E-2,-1.5670072E0,-1.2421541E-2,-1.8134478E-2],"categories":[],"categories_nodes":[],"categories_segments":[],"categories_sizes":[],"default_left":[0,0,0,0,0,0,0,0,0,0,0,0,0,0,0,0,0],"id":9,"left_children":[1,3,5,-1,-1,-1,7,-1,9,-1,11,13,-1,-1,15,-1,-1],"loss_changes":[3.8671404E3,5.1538574E1,9.1837036E1,0E0,0E0,0E0,5.9607544E1,0E0,2.079712E1,0E0,6.3603516E0,3.2357178E0,0E0,0E0,8.974152E0,0E0,0E0],"parents":[2147483647,0,0,1,1,2,2,6,6,8,8,10,10,11,11,14,14],"right_children":[2,4,6,-1,-1,-1,8,-1,10,-1,12,14,-1,-1,16,-1,-1],"split_conditions":[-1.808103E0,-1.1471399E0,-4.6096596E-1,1.8326841E-2,9.00866E-3,-5.6324624E-3,-7.8407377E-1,-8.069594E-3,-1.0490326E0,-1.0749559E-2,3.3580998E-1,3.2976666E-1,-1.3401487E-2,-1.8152356E-2,4.2036626E-2,-1.2421541E-2,-1.8134478E-2],"split_indices":[13,11,7,0,0,0,13,0,18,0,22,24,0,0,13,0,0],"split_type":[0,0,0,0,0,0,0,0,0,0,0,0,0,0,0,0,0],"sum_hessian":[1.567259E3,7.1441156E2,8.5284753E2,6.4578827E2,6.862325E1,1.1348148E2,7.39366E2,1.0024371E2,6.391223E2,6.3750687E1,5.7537164E2,5.149244E2,6.0447254E1,3.756905E2,1.3923387E2,6.2667374E1,7.65665E1],"tree_param":{"num_deleted":"0","num_feature":"29","num_nodes":"17","size_leaf_vector":"1"}},{"base_weights":[4.731988E-3,1.7112249E0,-1.4281466E0,1.8103093E-2,7.5623523E-3,-1.6939176E0,-8.015375E-1,-1.7540969E0,-1.2062751E-2,2.8896586E-3,-1.1549609E0,-1.38712395E-2,-1.8189702E-2,-4.904137E-3,-1.4781253E0,-1.1728613E-2,-1.74277E-2],"categories":[],"categories_nodes":[],"categories_segments":[],"categories_sizes":[],"default_left":[0,0,0,0,0,0,0,0,0,0,0,0,0,0,0,0,0],"id":10,"left_children":[1,3,5,-1,-1,7,9,11,-1,-1,13,-1,-1,-1,15,-1,-1],"loss_changes":[3.8378813E3,6.641797E1,1.4072607E2,0E0,0E0,1.54383545E1,9.89964E1,1.010083E1,0E0,0E0,4.08385E1,0E0,0E0,0E0,8.435364E0,0E0,0E0],"parents":[2147483647,0,0,1,1,2,2,5,5,6,6,7,7,10,10,14,14],"right_children":[2,4,6,-1,-1,8,10,12,-1,-1,14,-1,-1,-1,16,-1,-1],"split_conditions":[-1.6677032E0,-3.2657564E0,7.439206E-1,1.8103093E-2,7.5623523E-3,4.18881E-1,-3.076821E-1,-6.4843965E-1,-1.2062751E-2,2.8896586E-3,-3.2128468E-1,-1.38712395E-2,-1.8189702E-2,-4.904137E-3,9.331443E-2,-1.1728613E-2,-1.74277E-2],"split_indices":[13,13,3,0,0,28,7,13,0,0,28,0,0,0,13,0,0],"split_type":[0,0,0,0,0,0,0,0,0,0,0,0,0,0,0,0,0],"sum_hessian":[1.5675594E3,7.153801E2,8.521793E2,6.47322E2,6.805811E1,5.9718494E2,2.549944E2,5.2927136E2,6.791357E1,6.2458458E1,1.9253593E2,8.28713E1,4.464001E2,6.381857E1,1.2871738E2,6.229398E1,6.642339E1],"tree_param":{"num_deleted":"0","num_feature":"29","num_nodes":"17","size_leaf_vector":"1"}},{"base_weights":[3.1361973E-3,1.6989976E0,-1.405083E0,1.8026318E-2,8.445984E-3,-1.6821971E0,-7.528092E-1,-1.7666693E0,-1.1879106E-2,3.1620045E-3,-1.2320873E0,-1.5497421E-2,-1.7965171E-2,-7.6943296E-3,-1.4794416E-2],"categories":[],"categories_nodes":[],"categories_segments":[],"categories_sizes":[],"default_left":[0,0,0,0,0,0,0,0,0,0,0,0,0,0,0],"id":11,"left_children":[1,3,5,-1,-1,7,9,11,-1,-1,13,-1,-1,-1,-1],"loss_changes":[3.7792996E3,6.2047607E1,1.5501135E2,0E0,0E0,2.320337E1,1.3339772E2,5.5358887E-1,0E0,0E0,1.93974E1,0E0,0E0,0E0,0E0],"parents":[2147483647,0,0,1,1,2,2,5,5,6,6,7,7,10,10],"right_children":[2,4,6,-1,-1,8,10,12,-1,-1,14,-1,-1,-1,-1],"split_conditions":[-1.6677032E0,-1.1471399E0,7.439206E-1,1.8026318E-2,8.445984E-3,8.964484E-1,-4.5153013E-1,-6.964381E-1,-1.1879106E-2,3.1620045E-3,-2.2779857E-1,-1.5497421E-2,-1.7965171E-2,-7.6943296E-3,-1.4794416E-2],"split_indices":[13,11,3,0,0,6,11,13,0,0,13,0,0,0,0],"split_type":[0,0,0,0,0,0,0,0,0,0,0,0,0,0,0],"sum_hessian":[1.580526E3,7.1693896E2,8.635871E2,6.38395E2,7.854389E1,6.0498444E2,2.5860266E2,5.144861E2,9.049833E1,8.01567E1,1.7844595E2,6.8629135E1,4.4585696E2,6.3599483E1,1.14846466E2],"tree_param":{"num_deleted":"0","num_feature":"29","num_nodes":"15","size_leaf_vector":"1"}},{"base_weights":[1.0698566E-2,1.6910877E0,-1.3699578E0,1.7847579E-2,8.641043E-3,-1.6449927E0,-7.0464516E-1,-1.710239E0,-1.0928401E-2,1.7750196E-3,-1.0565321E0,-1.3192642E-2,-1.7876158E-2,-4.9507464E-3,-1.3405455E-2],"categories":[],"categories_nodes":[],"categories_segments":[],"categories_sizes":[],"default_left":[0,0,0,0,0,0,0,0,0,0,0,0,0,0,0],"id":12,"left_children":[1,3,5,-1,-1,7,9,11,-1,-1,13,-1,-1,-1,-1],"loss_changes":[3.6376394E3,5.3239502E1,1.563407E2,0E0,0E0,2.004309E1,7.887715E1,1.4044067E1,0E0,0E0,2.8255585E1,0E0,0E0,0E0,0E0],"parents":[2147483647,0,0,1,1,2,2,5,5,6,6,7,7,10,10],"right_children":[2,4,6,-1,-1,8,10,12,-1,-1,14,-1,-1,-1,-1],"split_conditions":[-1.808103E0,-3.6634789E0,7.633519E-1,1.7847579E-2,8.641043E-3,4.4638786E-1,-4.208716E-1,-6.159894E-1,-1.0928401E-2,1.7750196E-3,-9.0932205E-2,-1.3192642E-2,-1.7876158E-2,-4.9507464E-3,-1.3405455E-2],"split_indices":[13,13,3,0,0,28,13,13,0,0,20,0,0,0,0],"split_type":[0,0,0,0,0,0,0,0,0,0,0,0,0,0,0],"sum_hessian":[1.5659225E3,7.061935E2,8.59729E2,6.333028E2,7.289068E1,6.072318E2,2.524972E2,5.411842E2,6.6047615E1,7.214133E1,1.8035585E2,9.239152E1,4.4879266E2,6.1507217E1,1.1884864E2],"tree_param":{"num_deleted":"0","num_feature":"29","num_nodes":"15","size_leaf_vector":"1"}},{"base_weights":[2.2924665E-2,1.6422682E0,-1.3779769E0,1.7731555E-2,6.8403203E-3,-5.1143784E-3,-1.5063713E0,-1.0168838E-2,-1.594682E0,-1.6527421E0,-1.042776E-2,-1.3939092E-2,-1.7064602E0,-1.73718E-2,-1.4838804E-2],"categories":[],"categories_nodes":[],"categories_segments":[],"categories_sizes":[],"default_left":[0,0,0,0,0,0,0,0,0,0,0,0,0,0,0],"id":13,"left_children":[1,3,5,-1,-1,-1,7,-1,9,11,-1,-1,13,-1,-1],"loss_changes":[3.5726113E3,9.0402954E1,9.3174805E1,0E0,0E0,0E0,3.0146118E1,0E0,1.8170044E1,5.407837E0,0E0,0E0,5.6274414E-1,0E0,0E0],"parents":[2147483647,0,0,1,1,2,2,6,6,8,8,9,9,12,12],"right_children":[2,4,6,-1,-1,-1,8,-1,10,12,-1,-1,14,-1,-1],"split_conditions":[-1.5168691E0,-1.0864372E0,-4.761274E-1,1.7731555E-2,6.8403203E-3,-5.1143784E-3,-6.4843965E-1,-1.0168838E-2,9.4693124E-1,-7.298619E-1,-1.042776E-2,-1.3939092E-2,1.2014073E-1,-1.73718E-2,-1.4838804E-2],"split_indices":[13,11,7,0,0,0,13,0,6,14,0,0,27,0,0],"split_type":[0,0,0,0,0,0,0,0,0,0,0,0,0,0,0],"sum_hessian":[1.5728523E3,7.294672E2,8.433851E2,6.410541E2,8.841314E1,1.0948045E2,7.339046E2,1.14082794E2,6.1982184E2,5.590188E2,6.080303E1,1.0071019E2,4.5830862E2,3.967463E2,6.1562305E1],"tree_param":{"num_deleted":"0","num_feature":"29","num_nodes":"15","size_leaf_vector":"1"}},{"base_weights":[-2.8956565E-3,1.6830952E0,-1.2092026E0,1.7669473E-2,8.923667E-3,-1.4650664E0,2.527835E-1,-1.6326734E0,-9.6700805E-1,-6.5870234E-3,1.22669395E-2,-1.2088075E-2,-1.7104783E0,-2.2800837E-3,-1.3991998E0,-1.7508065E-2,-1.4052103E-2,-1.1474692E-2,-1.622548E-2],"categories":[],"categories_nodes":[],"categories_segments":[],"categories_sizes":[],"default_left":[0,0,0,0,0,0,0,0,0,0,0,0,0,0,0,0,0,0,0],"id":14,"left_children":[1,3,5,-1,-1,7,9,11,13,-1,-1,-1,15,-1,17,-1,-1,-1,-1],"loss_changes":[3.1794321E3,4.1654175E1,3.4124927E2,0E0,0E0,6.317444E1,1.22052216E2,1.702478E1,6.2844315E1,0E0,0E0,0E0,3.5318604E0,0E0,5.143051E0,0E0,0E0,0E0,0E0],"parents":[2147483647,0,0,1,1,2,2,5,5,6,6,7,7,8,8,12,12,14,14],"right_children":[2,4,6,-1,-1,8,10,12,14,-1,-1,-1,16,-1,18,-1,-1,-1,-1],"split_conditions":[-1.7464064E0,-2.5358934E0,1.729074E0,1.7669473E-2,8.923667E-3,6.2421167E-1,4.4098988E-1,-8.7872344E-1,-7.261315E-2,-6.5870234E-3,1.22669395E-2,-1.2088075E-2,2.8642443E-1,-2.2800837E-3,5.375527E-2,-1.7508065E-2,-1.4052103E-2,-1.1474692E-2,-1.622548E-2],"split_indices":[9,11,3,0,0,3,10,9,11,0,0,0,28,0,7,0,0,0,0],"split_type":[0,0,0,0,0,0,0,0,0,0,0,0,0,0,0,0,0,0,0],"sum_hessian":[1.5612784E3,6.5100635E2,9.1027203E2,5.874737E2,6.353267E1,7.7469055E2,1.3558154E2,5.7792786E2,1.9676266E2,7.020248E1,6.537907E1,9.2196465E1,4.8573138E2,7.3172844E1,1.2358982E2,4.248678E2,6.0863583E1,6.098858E1,6.2601246E1],"tree_param":{"num_deleted":"0","num_feature":"29","num_nodes":"19","size_leaf_vector":"1"}},{"base_weights":[-9.159801E-3,1.6496005E0,-1.3719007E0,1.7489485E-2,8.586736E-3,-1.5404764E0,-3.9314088E-1,-9.520233E-3,-1.6197157E0,4.2348863E-3,-1.2010563E-2,-1.1549124E-2,-1.7006656E0,-1.729214E0,-1.4592363E-2,-1.7615343E-2,-1.5258157E-2],"categories":[],"categories_nodes":[],"categories_segments":[],"categories_sizes":[],"default_left":[0,0,0,0,0,0,0,0,0,0,0,0,0,0,0,0,0],"id":15,"left_children":[1,3,5,-1,-1,7,9,-1,11,-1,-1,-1,13,15,-1,-1,-1],"loss_changes":[3.4930515E3,5.326233E1,1.393656E2,0E0,0E0,3.2186646E1,8.363058E1,0E0,2.1968628E1,0E0,0E0,0E0,1.1960449E0,4.4885254E-1,0E0,0E0,0E0],"parents":[2147483647,0,0,1,1,2,2,5,5,6,6,8,8,12,12,13,13],"right_children":[2,4,6,-1,-1,8,10,-1,12,-1,-1,-1,14,16,-1,-1,-1],"split_conditions":[-1.6677032E0,-3.6634789E0,1.3837986E0,1.7489485E-2,8.586736E-3,-4.3141222E-1,-2.1562378E-1,-9.520233E-3,-6.964381E-1,4.2348863E-3,-1.2010563E-2,-1.1549124E-2,3.301235E-1,4.498885E-1,-1.4592363E-2,-1.7615343E-2,-1.5258157E-2],"split_indices":[13,13,3,0,0,7,11,0,13,0,0,0,28,24,0,0,0],"split_type":[0,0,0,0,0,0,0,0,0,0,0,0,0,0,0,0,0],"sum_hessian":[1.543282E3,6.9594763E2,8.4733435E2,6.172089E2,7.873868E1,7.223476E2,1.249867E2,8.727009E1,6.350775E2,6.239477E1,6.259193E1,9.6463585E1,5.3861395E2,4.7614825E2,6.246568E1,4.0425168E2,7.18966E1],"tree_param":{"num_deleted":"0","num_feature":"29","num_nodes":"17","size_leaf_vector":"1"}},{"base_weights":[1.0568678E-3,1.6332163E0,-1.3381412E0,1.7330159E-2,8.104333E-3,-1.607391E0,-7.098862E-1,-1.6816535E0,-9.6169105E-3,1.1380224E-3,-1.3116992E0,-1.3757812E-2,-1.7284136E-2,-9.60483E-3,-1.5434663E-2],"categories":[],"categories_nodes":[],"categories_segments":[],"categories_sizes":[],"default_left":[0,0,0,0,0,0,0,0,0,0,0,0,0,0,0],"id":16,"left_children":[1,3,5,-1,-1,7,9,11,-1,-1,13,-1,-1,-1,-1],"loss_changes":[3.395013E3,5.6078247E1,1.4318115E2,0E0,0E0,2.6982788E1,1.2791467E2,5.253662E0,0E0,0E0,1.0647034E1,0E0,0E0,0E0,0E0],"parents":[2147483647,0,0,1,1,2,2,5,5,6,6,7,7,10,10],"right_children":[2,4,6,-1,-1,8,10,12,-1,-1,14,-1,-1,-1,-1],"split_conditions":[-1.6677032E0,-1.1471399E0,7.439206E-1,1.7330159E-2,8.104333E-3,1.0497677E0,-2.026023E-1,-6.6570264E-1,-9.6169105E-3,1.1380224E-3,-1.3282575E-1,-1.3757812E-2,-1.7284136E-2,-9.60483E-3,-1.5434663E-2],"split_indices":[13,11,3,0,0,6,11,13,0,0,13,0,0,0,0],"split_type":[0,0,0,0,0,0,0,0,0,0,0,0,0,0,0],"sum_hessian":[1.5512239E3,6.9904144E2,8.5218243E2,6.224366E2,7.660487E1,5.954383E2,2.5674414E2,5.325813E2,6.285697E1,1.0873364E2,1.480105E2,7.465591E1,4.579254E2,6.0887203E1,8.71233E1],"tree_param":{"num_deleted":"0","num_feature":"29","num_nodes":"15","size_leaf_vector":"1"}},{"base_weights":[1.7021582E-2,1.6196743E0,-1.1585745E0,6.352181E-3,1.7202104E-2,-1.4177265E0,3.084455E-1,-1.6511493E0,-1.0327331E0,-5.567347E-3,1.2504821E-2,-1.7008392E-2,-1.3714723E-2,-2.4295126E-3,-1.2959177E0,-5.3149704E-3,-1.5870724E0,-1.7269813E-2,-1.3414542E-2],"categories":[],"categories_nodes":[],"categories_segments":[],"categories_sizes":[],"default_left":[0,0,0,0,0,0,0,0,0,0,0,0,0,0,0,0,0,0,0],"id":17,"left_children":[1,3,5,-1,-1,7,9,11,13,-1,-1,-1,-1,-1,15,-1,17,-1,-1],"loss_changes":[2.9105469E3,6.3603516E1,3.3923474E2,0E0,0E0,6.637195E1,1.104077E2,4.197998E0,5.967401E1,0E0,0E0,0E0,0E0,0E0,4.7283417E1,0E0,3.0472717E0,0E0,0E0],"parents":[2147483647,0,0,1,1,2,2,5,5,6,6,7,7,8,8,14,14,16,16],"right_children":[2,4,6,-1,-1,8,10,12,14,-1,-1,-1,-1,-1,16,-1,18,-1,-1],"split_conditions":[-1.6431524E0,1.3837986E0,1.729074E0,6.352181E-3,1.7202104E-2,3.2347924E-1,4.4098988E-1,1.3663217E-1,-5.2162373E-1,-5.567347E-3,1.2504821E-2,-1.7008392E-2,-1.3714723E-2,-2.4295126E-3,-5.976532E-1,-5.3149704E-3,3.0508408E-1,-1.7269813E-2,-1.3414542E-2],"split_indices":[9,3,3,0,0,3,10,28,9,0,0,0,0,0,0,0,24,0,0],"split_type":[0,0,0,0,0,0,0,0,0,0,0,0,0,0,0,0,0,0,0],"sum_hessian":[1.542821E3,6.526738E2,8.901472E2,6.1155243E1,5.9151855E2,7.5653705E2,1.3361017E2,4.689328E2,2.8760422E2,6.985934E1,6.3750835E1,3.938723E2,7.506052E1,7.2366165E1,2.1523804E2,6.01475E1,1.5509055E2,9.4965294E1,6.0125248E1],"tree_param":{"num_deleted":"0","num_feature":"29","num_nodes":"19","size_leaf_vector":"1"}},{"base_weights":[3.7095244E-3,1.6320639E0,-1.3216997E0,1.7128974E-2,8.711651E-3,-1.5882434E0,-7.050046E-1,-1.6922906E-2,-1.1982552E0,3.3781454E-3,-1.1911964E0,-6.7115836E-3,-1.6560005E-2,-6.9807135E-3,-1.4815173E-2],"categories":[],"categories_nodes":[],"categories_segments":[],"categories_sizes":[],"default_left":[0,0,0,0,0,0,0,0,0,0,0,0,0,0,0],"id":18,"left_children":[1,3,5,-1,-1,7,9,-1,11,-1,13,-1,-1,-1,-1],"loss_changes":[3.3441082E3,4.127124E1,1.3928906E2,0E0,0E0,2.2140503E1,1.3201009E2,0E0,2.9980911E1,0E0,2.4342804E1,0E0,0E0,0E0,0E0],"parents":[2147483647,0,0,1,1,2,2,5,5,6,6,8,8,10,10],"right_children":[2,4,6,-1,-1,8,10,-1,12,-1,14,-1,-1,-1,-1],"split_conditions":[-1.808103E0,-1.1471399E0,7.439206E-1,1.7128974E-2,8.711651E-3,6.948618E-1,-4.5153013E-1,-1.6922906E-2,-5.229822E-3,3.3781454E-3,-1.9287677E-1,-6.7115836E-3,-1.6560005E-2,-6.9807135E-3,-1.4815173E-2],"split_indices":[13,11,3,0,0,6,11,0,25,0,13,0,0,0,0],"split_type":[0,0,0,0,0,0,0,0,0,0,0,0,0,0,0],"sum_hessian":[1.5474641E3,6.942724E2,8.531917E2,6.264688E2,6.780362E1,5.9461566E2,2.5857602E2,4.6674945E2,1.2786624E2,8.2318535E1,1.7625749E2,6.0577316E1,6.7288925E1,6.657718E1,1.0968031E2],"tree_param":{"num_deleted":"0","num_feature":"29","num_nodes":"15","size_leaf_vector":"1"}},{"base_weights":[5.1421546E-3,1.568527E0,-1.3127882E0,3.9497134E-3,1.6792809E0,-1.5837495E0,-6.482989E-1,1.7048491E-2,1.4202448E-2,-1.6557068E0,-9.405027E-3,1.8442285E-3,-1.219921E0,-1.3992878E-2,-1.6932152E-2,-8.7417085E-3,-1.5853701E-2],"categories":[],"categories_nodes":[],"categories_segments":[],"categories_sizes":[],"default_left":[0,0,0,0,0,0,0,0,0,0,0,0,0,0,0,0,0],"id":19,"left_children":[1,3,5,-1,7,9,11,-1,-1,13,-1,-1,15,-1,-1,-1,-1],"loss_changes":[3.1696458E3,9.079358E1,1.4926099E2,0E0,1.8349609E0,2.5854736E1,1.1611727E2,0E0,0E0,2.7408447E0,0E0,0E0,1.6872223E1,0E0,0E0,0E0,0E0],"parents":[2147483647,0,0,1,1,2,2,4,4,5,5,6,6,9,9,12,12],"right_children":[2,4,6,-1,8,10,12,-1,-1,14,-1,-1,16,-1,-1,-1,-1],"split_conditions":[-1.5168691E0,1.1033573E0,7.926087E-1,3.9497134E-3,-3.9262073E0,1.0497677E0,-2.1562378E-1,1.7048491E-2,1.4202448E-2,-6.6570264E-1,-9.405027E-3,1.8442285E-3,4.2036626E-2,-1.3992878E-2,-1.6932152E-2,-8.7417085E-3,-1.5853701E-2],"split_indices":[13,3,3,0,13,6,11,0,0,13,0,0,13,0,0,0,0],"split_type":[0,0,0,0,0,0,0,0,0,0,0,0,0,0,0,0,0],"sum_hessian":[1.5363407E3,7.026442E2,8.336965E2,6.0987114E1,6.416571E2,5.912264E2,2.424701E2,5.789316E2,6.2725567E1,5.30327E2,6.0899376E1,9.897038E1,1.4349971E2,7.256399E1,4.5776303E2,7.548021E1,6.801951E1],"tree_param":{"num_deleted":"0","num_feature":"29","num_nodes":"17","size_leaf_vector":"1"}},{"base_weights":[-1.0945812E-3,1.5924755E0,-1.1430786E0,1.6878488E-2,6.89517E-3,-1.394296E0,1.6304328E-1,-1.635034E0,-1.0646875E0,-5.905508E-3,1.0349041E-2,-1.4112011E-2,-1.6728377E0,-1.3444093E0,-2.0410453E-3,-1.7097155E-2,-1.4641243E-2,-8.490223E-3,-1.553806E0,-1.3750435E-2,-1.6564107E-2],"categories":[],"categories_nodes":[],"categories_segments":[],"categories_sizes":[],"default_left":[0,0,0,0,0,0,0,0,0,0,0,0,0,0,0,0,0,0,0,0,0],"id":20,"left_children":[1,3,5,-1,-1,7,9,11,13,-1,-1,-1,15,17,-1,-1,-1,-1,19,-1,-1],"loss_changes":[2.8001028E3,5.4152466E1,2.9433203E2,0E0,0E0,5.7917725E1,9.619856E1,1.3000488E0,7.680887E1,0E0,0E0,0E0,3.0407715E-1,2.373059E1,0E0,0E0,0E0,0E0,8.1362915E-1,0E0,0E0],"parents":[2147483647,0,0,1,1,2,2,5,5,6,6,7,7,8,8,12,12,13,13,18,18],"right_children":[2,4,6,-1,-1,8,10,12,14,-1,-1,-1,16,18,-1,-1,-1,-1,20,-1,-1],"split_conditions":[-1.7464064E0,-2.4824715E0,1.59478E0,1.6878488E-2,6.89517E-3,1.625956E-1,4.4098988E-1,-9.2518896E-1,6.3972807E-1,-5.905508E-3,1.0349041E-2,-1.4112011E-2,-1.0125564E-1,-4.2569295E-1,-2.0410453E-3,-1.7097155E-2,-1.4641243E-2,-8.490223E-3,-5.067114E-2,-1.3750435E-2,-1.6564107E-2],"split_indices":[9,11,3,0,0,3,10,9,16,0,0,0,3,0,0,0,0,0,22,0,0],"split_type":[0,0,0,0,0,0,0,0,0,0,0,0,0,0,0,0,0,0,0,0,0],"sum_hessian":[1.5366603E3,6.413293E2,8.9533105E2,5.7927515E2,6.2054108E1,7.508468E2,1.4448427E2,4.316325E2,3.1921426E2,7.767147E1,6.681279E1,6.790469E1,3.637278E2,2.4048528E2,7.872899E1,3.02999E2,6.072883E1,7.295177E1,1.6753351E2,6.634523E1,1.0118828E2],"tree_param":{"num_deleted":"0","num_feature":"29","num_nodes":"21","size_leaf_vector":"1"}},{"base_weights":[6.1805015E-3,1.5966104E0,-1.2670126E0,8.545786E-3,1.66907E-2,-1.54686E0,-6.210202E-1,-1.6272455E0,-9.148916E-3,3.7335264E-3,-1.1169635E0,-1.3566298E-2,-1.6701855E-2,-8.350874E-3,-1.55477915E-2],"categories":[],"categories_nodes":[],"categories_segments":[],"categories_sizes":[],"default_left":[0,0,0,0,0,0,0,0,0,0,0,0,0,0,0],"id":21,"left_children":[1,3,5,-1,-1,7,9,11,-1,-1,13,-1,-1,-1,-1],"loss_changes":[3.0624849E3,3.4727783E1,1.5088916E2,0E0,0E0,2.8250732E1,1.2644891E2,3.7542725E0,0E0,0E0,1.9776108E1,0E0,0E0,0E0,0E0],"parents":[2147483647,0,0,1,1,2,2,5,5,6,6,7,7,10,10],"right_children":[2,4,6,-1,-1,8,10,12,-1,-1,14,-1,-1,-1,-1],"split_conditions":[-1.808103E0,1.3615588E0,7.439206E-1,8.545786E-3,1.66907E-2,1.0253513E0,-4.3735287E-1,-6.6570264E-1,-9.148916E-3,3.7335264E-3,2.292258E-1,-1.3566298E-2,-1.6701855E-2,-8.350874E-3,-1.55477915E-2],"split_indices":[13,3,3,0,0,6,11,13,0,0,13,0,0,0,0],"split_type":[0,0,0,0,0,0,0,0,0,0,0,0,0,0,0],"sum_hessian":[1.5103955E3,6.714228E2,8.389728E2,6.0869823E1,6.10553E2,5.8440906E2,2.5456369E2,5.1706433E2,6.734476E1,8.4795265E1,1.6976842E2,7.5273155E1,4.4179114E2,1.0504522E2,6.47232E1],"tree_param":{"num_deleted":"0","num_feature":"29","num_nodes":"15","size_leaf_vector":"1"}},{"base_weights":[1.4692189E-2,1.5724882E0,-1.2755142E0,1.6656514E-2,7.575923E-3,-1.537344E0,-6.639631E-1,-1.6516361E-2,-1.1086032E0,1.4303167E-3,-1.2409301E0,-5.3495755E-3,-1.6257029E-2,-8.60336E-3,-1.4953367E-2],"categories":[],"categories_nodes":[],"categories_segments":[],"categories_sizes":[],"default_left":[0,0,0,0,0,0,0,0,0,0,0,0,0,0,0],"id":22,"left_children":[1,3,5,-1,-1,7,9,-1,11,-1,13,-1,-1,-1,-1],"loss_changes":[3.059406E3,5.10896E1,1.3229822E2,0E0,0E0,2.6699951E1,1.1721625E2,0E0,3.6383118E1,0E0,1.2915573E1,0E0,0E0,0E0,0E0],"parents":[2147483647,0,0,1,1,2,2,5,5,6,6,8,8,10,10],"right_children":[2,4,6,-1,-1,8,10,-1,12,-1,14,-1,-1,-1,-1],"split_conditions":[-1.6677032E0,-1.1471399E0,7.633519E-1,1.6656514E-2,7.575923E-3,7.1140003E-1,-2.1562378E-1,-1.6516361E-2,-5.4214403E-2,1.4303167E-3,-1.2050453E-1,-5.3495755E-3,-1.6257029E-2,-8.60336E-3,-1.4953367E-2],"split_indices":[13,11,3,0,0,6,11,0,25,0,13,0,0,0,0],"split_type":[0,0,0,0,0,0,0,0,0,0,0,0,0,0,0],"sum_hessian":[1.5201866E3,6.885781E2,8.3160846E2,6.1699585E2,7.1582306E1,5.8124164E2,2.5036684E2,4.5665567E2,1.2458597E2,1.04690285E2,1.4567656E2,6.0028145E1,6.455782E1,6.0119335E1,8.555722E1],"tree_param":{"num_deleted":"0","num_feature":"29","num_nodes":"15","size_leaf_vector":"1"}},{"base_weights":[-2.5039131E-3,1.5519192E0,-1.2850624E0,1.6495777E-2,7.2351596E-3,-4.8195077E-3,-1.413357E0,-7.7733495E-3,-1.4969463E0,-1.0919011E-2,-1.5665945E0,-1.6067473E-2,-1.3018014E-2],"categories":[],"categories_nodes":[],"categories_segments":[],"categories_sizes":[],"default_left":[0,0,0,0,0,0,0,0,0,0,0,0,0],"id":23,"left_children":[1,3,5,-1,-1,-1,7,-1,9,-1,11,-1,-1],"loss_changes":[3.0309197E3,5.440979E1,8.5145874E1,0E0,0E0,0E0,3.6994507E1,0E0,1.6154663E1,0E0,3.6292725E0,0E0,0E0],"parents":[2147483647,0,0,1,1,2,2,6,6,8,8,10,10],"right_children":[2,4,6,-1,-1,-1,8,-1,10,-1,12,-1,-1],"split_conditions":[-1.6677032E0,-1.1471399E0,-4.4734538E-1,1.6495777E-2,7.2351596E-3,-4.8195077E-3,-9.858646E-1,-7.7733495E-3,-6.964381E-1,-1.0919011E-2,8.8692486E-1,-1.6067473E-2,-1.3018014E-2],"split_indices":[13,11,7,0,0,0,18,0,13,0,18,0,0],"split_type":[0,0,0,0,0,0,0,0,0,0,0,0,0],"sum_hessian":[1.518295E3,6.863044E2,8.3199066E2,6.1304297E2,7.326141E1,1.1525594E2,7.1673474E2,8.4451584E1,6.3228314E2,9.5217026E1,5.3706616E2,4.619488E2,7.5117355E1],"tree_param":{"num_deleted":"0","num_feature":"29","num_nodes":"13","size_leaf_vector":"1"}},{"base_weights":[1.4624363E-2,1.5222726E0,-1.2786133E0,1.6379064E-2,6.965966E-3,-4.0969783E-3,-1.3996966E0,-9.312019E-3,-1.4801062E0,-1.5331016E0,-1.0004547E-2,-1.2660232E-2,-1.5906396E0,-1.374081E-2,-1.6214816E-2],"categories":[],"categories_nodes":[],"categories_segments":[],"categories_sizes":[],"default_left":[0,0,0,0,0,0,0,0,0,0,0,0,0,0,0],"id":24,"left_children":[1,3,5,-1,-1,-1,7,-1,9,11,-1,-1,13,-1,-1],"loss_changes":[2.9580864E3,6.57406E1,8.53479E1,0E0,0E0,0E0,2.5608276E1,0E0,1.3964966E1,6.3948975E0,0E0,0E0,7.528076E-1,0E0,0E0],"parents":[2147483647,0,0,1,1,2,2,6,6,8,8,9,9,12,12],"right_children":[2,4,6,-1,-1,-1,8,-1,10,12,-1,-1,14,-1,-1],"split_conditions":[-1.5168691E0,-3.5078485E0,-4.761274E-1,1.6379064E-2,6.965966E-3,-4.0969783E-3,-6.6570264E-1,-9.312019E-3,9.2011976E-1,-7.298619E-1,-1.0004547E-2,-1.2660232E-2,-1.3048573E0,-1.374081E-2,-1.6214816E-2],"split_indices":[13,13,7,0,0,0,13,0,6,14,0,0,0,0,0],"split_type":[0,0,0,0,0,0,0,0,0,0,0,0,0,0,0],"sum_hessian":[1.5151654E3,6.9950726E2,8.156582E2,6.127144E2,8.679286E1,1.0029639E2,7.153618E2,1.0663726E2,6.0872455E2,5.461822E2,6.254238E1,1.0088768E2,4.452945E2,6.119126E1,3.841032E2],"tree_param":{"num_deleted":"0","num_feature":"29","num_nodes":"15","size_leaf_vector":"1"}},{"base_weights":[-4.9507483E-3,1.5299579E0,-1.2484034E0,1.6296756E-2,7.368518E-3,-1.5152329E0,-6.1357105E-1,-1.579576E0,-9.713543E-3,2.1022276E-3,-1.17495E0,-1.2550777E-2,-1.6416704E-2,-1.4827455E-2,-8.602312E-3],"categories":[],"categories_nodes":[],"categories_segments":[],"categories_sizes":[],"default_left":[0,0,0,0,0,0,0,0,0,0,0,0,0,0,0],"id":25,"left_children":[1,3,5,-1,-1,7,9,11,-1,-1,13,-1,-1,-1,-1],"loss_changes":[2.8745593E3,5.210852E1,1.400138E2,0E0,0E0,1.8942749E1,1.14896164E2,8.450562E0,0E0,0E0,1.3021423E1,0E0,0E0,0E0,0E0],"parents":[2147483647,0,0,1,1,2,2,5,5,6,6,7,7,10,10],"right_children":[2,4,6,-1,-1,8,10,12,-1,-1,14,-1,-1,-1,-1],"split_conditions":[-1.6677032E0,-1.0864372E0,7.439206E-1,1.6296756E-2,7.368518E-3,4.7276318E-1,-2.1562378E-1,-6.159894E-1,-9.713543E-3,2.1022276E-3,-2.516267E-1,-1.2550777E-2,-1.6416704E-2,-1.4827455E-2,-8.602312E-3],"split_indices":[13,11,3,0,0,28,11,13,0,0,25,0,0,0,0],"split_type":[0,0,0,0,0,0,0,0,0,0,0,0,0,0,0],"sum_hessian":[1.5041189E3,6.730637E2,8.3105524E2,5.969536E2,7.61101E1,5.84144E2,2.4691127E2,5.2064526E2,6.3498722E1,1.0032102E2,1.4659026E2,8.703306E1,4.3361218E2,7.223398E1,7.435627E1],"tree_param":{"num_deleted":"0","num_feature":"29","num_nodes":"15","size_leaf_vector":"1"}},{"base_weights":[1.0346315E-2,1.5353953E0,-1.234204E0,1.6235687E-2,8.628817E-3,-1.4966E0,-6.301727E-1,-1.5739713E0,-9.055213E-3,1.7678975E-3,-1.2077366E0,-1.2462971E-2,-1.623271E-2,-8.596197E-3,-1.444331E-2],"categories":[],"categories_nodes":[],"categories_segments":[],"categories_sizes":[],"default_left":[0,0,0,0,0,0,0,0,0,0,0,0,0,0,0],"id":26,"left_children":[1,3,5,-1,-1,7,9,11,-1,-1,13,-1,-1,-1,-1],"loss_changes":[2.8637517E3,3.880298E1,1.307384E2,0E0,0E0,2.5030273E1,1.182885E2,6.218384E0,0E0,0E0,1.0930405E1,0E0,0E0,0E0,0E0],"parents":[2147483647,0,0,1,1,2,2,5,5,6,6,7,7,10,10],"right_children":[2,4,6,-1,-1,8,10,12,-1,-1,14,-1,-1,-1,-1],"split_conditions":[-1.808103E0,-1.6898355E0,7.439206E-1,1.6235687E-2,8.628817E-3,1.0253513E0,-2.1562378E-1,-6.964381E-1,-9.055213E-3,1.7678975E-3,-1.0779102E-1,-1.2462971E-2,-1.623271E-2,-8.596197E-3,-1.444331E-2],"split_indices":[13,11,3,0,0,6,11,13,0,0,13,0,0,0,0],"split_type":[0,0,0,0,0,0,0,0,0,0,0,0,0,0,0],"sum_hessian":[1.5068273E3,6.7700464E2,8.2982263E2,5.9728094E2,7.972371E1,5.7748224E2,2.5234041E2,5.0916977E2,6.831246E1,1.05554855E2,1.4678555E2,7.002484E1,4.391449E2,6.126931E1,8.551624E1],"tree_param":{"num_deleted":"0","num_feature":"29","num_nodes":"15","size_leaf_vector":"1"}},{"base_weights":[2.1419346E-2,1.5146116E0,-1.2174773E0,1.6078994E-2,7.5242072E-3,-1.4815923E0,-5.9897846E-1,-1.5613186E0,-8.487944E-3,3.8973317E-3,-1.0435071E0,-1.2735013E-2,-1.6101815E-2,-6.1107012E-3,-1.2922117E-2],"categories":[],"categories_nodes":[],"categories_segments":[],"categories_sizes":[],"default_left":[0,0,0,0,0,0,0,0,0,0,0,0,0,0,0],"id":27,"left_children":[1,3,5,-1,-1,7,9,11,-1,-1,13,-1,-1,-1,-1],"loss_changes":[2.7817363E3,4.7273193E1,1.3336523E2,0E0,0E0,2.7695923E1,1.0923378E2,5.1173096E0,0E0,0E0,1.761029E1,0E0,0E0,0E0,0E0],"parents":[2147483647,0,0,1,1,2,2,5,5,6,6,7,7,10,10],"right_children":[2,4,6,-1,-1,8,10,12,-1,-1,14,-1,-1,-1,-1],"split_conditions":[-1.6677032E0,-1.0864372E0,7.439206E-1,1.6078994E-2,7.5242072E-3,1.0253513E0,-4.5153013E-1,-6.6570264E-1,-8.487944E-3,3.8973317E-3,-1.9287677E-1,-1.2735013E-2,-1.6101815E-2,-6.1107012E-3,-1.2922117E-2],"split_indices":[13,11,3,0,0,6,11,13,0,0,13,0,0,0,0],"split_type":[0,0,0,0,0,0,0,0,0,0,0,0,0,0,0],"sum_hessian":[1.5017168E3,6.8086957E2,8.208472E2,6.056339E2,7.5235664E1,5.742375E2,2.4660971E2,5.0868137E2,6.555615E1,7.652582E1,1.700839E2,7.775314E1,4.3092822E2,6.336482E1,1.0671907E2],"tree_param":{"num_deleted":"0","num_feature":"29","num_nodes":"15","size_leaf_vector":"1"}},{"base_weights":[4.472155E-3,1.4578444E0,-1.2598239E0,1.9878387E-3,1.5779908E0,-1.49469E0,-7.181074E-1,1.6088072E-2,1.2925618E-2,-1.5635755E0,-9.153536E-3,1.7434602E-4,-1.2124323E0,-1.3148565E-2,-1.5978547E-2,-1.5142249E-2,-9.485425E-3],"categories":[],"categories_nodes":[],"categories_segments":[],"categories_sizes":[],"default_left":[0,0,0,0,0,0,0,0,0,0,0,0,0,0,0,0,0],"id":28,"left_children":[1,3,5,-1,7,9,11,-1,-1,13,-1,-1,15,-1,-1,-1,-1],"loss_changes":[2.756486E3,1.0525598E2,1.00997925E2,0E0,3.5230713E0,2.0865234E1,8.894037E1,0E0,0E0,2.144287E0,0E0,0E0,1.0212952E1,0E0,0E0,0E0,0E0],"parents":[2147483647,0,0,1,1,2,2,4,4,5,5,6,6,9,9,12,12],"right_children":[2,4,6,-1,8,10,12,-1,-1,14,-1,-1,16,-1,-1,-1,-1],"split_conditions":[-1.444122E0,9.7999483E-1,7.439206E-1,1.9878387E-3,-3.9262073E0,1.0253513E0,-2.026023E-1,1.6088072E-2,1.2925618E-2,-6.6570264E-1,-9.153536E-3,1.7434602E-4,1.5406208E-1,-1.3148565E-2,-1.5978547E-2,-1.5142249E-2,-9.485425E-3],"split_indices":[13,3,3,0,13,6,11,0,0,13,0,0,24,0,0,0,0],"split_type":[0,0,0,0,0,0,0,0,0,0,0,0,0,0,0,0,0],"sum_hessian":[1.498135E3,6.968815E2,8.0125354E2,6.0938427E1,6.3594305E2,5.5769904E2,2.4355452E2,5.697888E2,6.6154205E1,4.9691486E2,6.0784172E1,9.828052E1,1.45274E2,6.4958015E1,4.3195682E2,6.555973E1,7.971427E1],"tree_param":{"num_deleted":"0","num_feature":"29","num_nodes":"17","size_leaf_vector":"1"}},{"base_weights":[-7.700959E-3,1.4543748E0,-1.2341411E0,2.885698E-3,1.5695225E0,-1.489567E0,-6.4340335E-1,1.598811E-2,1.2754861E-2,-1.5590402E0,-9.086269E-3,1.0293694E-3,-1.1714786E0,-1.3501891E-2,-1.588181E-2,-1.4623013E-2,-8.591228E-3],"categories":[],"categories_nodes":[],"categories_segments":[],"categories_sizes":[],"default_left":[0,0,0,0,0,0,0,0,0,0,0,0,0,0,0,0,0],"id":29,"left_children":[1,3,5,-1,7,9,11,-1,-1,13,-1,-1,15,-1,-1,-1,-1],"loss_changes":[2.6796826E3,9.10603E1,1.2166748E2,0E0,3.3017578E0,2.1451416E1,9.7500946E1,0E0,0E0,9.2736816E-1,0E0,0E0,1.1895477E1,0E0,0E0,0E0,0E0],"parents":[2147483647,0,0,1,1,2,2,4,4,5,5,6,6,9,9,12,12],"right_children":[2,4,6,-1,8,10,12,-1,-1,14,-1,-1,16,-1,-1,-1,-1],"split_conditions":[-1.5168691E0,1.0619961E0,7.439206E-1,2.885698E-3,-3.9262073E0,1.0253513E0,-2.026023E-1,1.598811E-2,1.2754861E-2,-6.6570264E-1,-9.086269E-3,1.0293694E-3,-2.516267E-1,-1.3501891E-2,-1.588181E-2,-1.4623013E-2,-8.591228E-3],"split_indices":[13,3,3,0,13,6,11,0,0,13,0,0,25,0,0,0,0],"split_type":[0,0,0,0,0,0,0,0,0,0,0,0,0,0,0,0,0],"sum_hessian":[1.4924E3,6.807143E2,8.1168567E2,6.150606E1,6.1920825E2,5.656051E2,2.460806E2,5.590815E2,6.0126774E1,5.0368683E2,6.1918243E1,1.0230118E2,1.4377942E2,6.746945E1,4.3621738E2,7.2549644E1,7.1229774E1],"tree_param":{"num_deleted":"0","num_feature":"29","num_nodes":"17","size_leaf_vector":"1"}},{"base_weights":[-7.86221E-3,1.5015794E0,-1.2009318E0,1.5836515E-2,7.899631E-3,-1.4619845E0,-5.895071E-1,-1.5331684E0,-9.227957E-3,2.2623024E-3,-1.1660348E0,-1.2211485E-2,-1.5838398E-2,-1.4366629E-2,-8.504049E-3],"categories":[],"categories_nodes":[],"categories_segments":[],"categories_sizes":[],"default_left":[0,0,0,0,0,0,0,0,0,0,0,0,0,0,0],"id":30,"left_children":[1,3,5,-1,-1,7,9,11,-1,-1,13,-1,-1,-1,-1],"loss_changes":[2.681611E3,3.7142212E1,1.3188733E2,0E0,0E0,2.0929565E1,1.1808399E2,6.1727295E0,0E0,0E0,1.1330154E1,0E0,0E0,0E0,0E0],"parents":[2147483647,0,0,1,1,2,2,5,5,6,6,7,7,10,10],"right_children":[2,4,6,-1,-1,8,10,12,-1,-1,14,-1,-1,-1,-1],"split_conditions":[-1.808103E0,-1.1471399E0,7.633519E-1,1.5836515E-2,7.899631E-3,1.0253513E0,-2.1562378E-1,-6.964381E-1,-9.227957E-3,2.2623024E-3,2.2152653E-1,-1.2211485E-2,-1.5838398E-2,-1.4366629E-2,-8.504049E-3],"split_indices":[13,11,3,0,0,6,11,13,0,0,24,0,0,0,0],"split_type":[0,0,0,0,0,0,0,0,0,0,0,0,0,0,0],"sum_hessian":[1.4870638E3,6.563755E2,8.306883E2,5.874037E2,6.897182E1,5.8116437E2,2.4952394E2,5.1175842E2,6.940593E1,1.03577805E2,1.4594614E2,7.5004005E1,4.3675443E2,7.666237E1,6.928377E1],"tree_param":{"num_deleted":"0","num_feature":"29","num_nodes":"15","size_leaf_vector":"1"}},{"base_weights":[1.9968846E-3,-1.1757652E0,1.2403616E0,-1.4971005E0,-7.4230087E-1,-5.096789E-3,1.5136641E0,-1.571355E-2,-1.160941E-2,2.3741792E-3,-1.1770241E0,9.6869515E-3,1.5785122E-2,-1.4327643E0,-4.7260392E-3,-1.1998268E-2,-1.5565157E-2],"categories":[],"categories_nodes":[],"categories_segments":[],"categories_sizes":[],"default_left":[0,0,0,0,0,0,0,0,0,0,0,0,0,0,0,0,0],"id":31,"left_children":[1,3,5,7,9,-1,11,-1,-1,-1,13,-1,-1,15,-1,-1,-1],"loss_changes":[2.1714385E3,1.0517639E2,3.478844E2,9.089722E0,1.3948465E2,0E0,2.0662964E1,0E0,0E0,0E0,4.0136932E1,0E0,0E0,2.9095764E0,0E0,0E0,0E0],"parents":[2147483647,0,0,1,1,2,2,3,3,4,4,6,6,10,10,13,13],"right_children":[2,4,6,8,10,-1,12,-1,-1,-1,14,-1,-1,16,-1,-1,-1],"split_conditions":[1.3837986E0,1.625956E-1,4.4098988E-1,1.3663217E-1,-3.2582414E-1,-5.096789E-3,1.4212085E0,-1.571355E-2,-1.160941E-2,2.3741792E-3,4.338313E-1,9.6869515E-3,1.5785122E-2,-3.1254473E-1,-4.7260392E-3,-1.1998268E-2,-1.5565157E-2],"split_indices":[3,3,10,28,11,0,10,0,0,0,16,0,0,25,0,0,0],"split_type":[0,0,0,0,0,0,0,0,0,0,0,0,0,0,0,0,0],"sum_hessian":[1.4868174E3,7.620811E2,7.247362E2,4.3623676E2,3.258444E2,9.777676E1,6.269594E2,3.5430066E2,8.1936104E1,1.00286514E2,2.2555789E2,6.836582E1,5.585936E2,1.6472165E2,6.083623E1,6.0860092E1,1.03861565E2],"tree_param":{"num_deleted":"0","num_feature":"29","num_nodes":"17","size_leaf_vector":"1"}},{"base_weights":[-8.040163E-3,1.472206E0,-1.1968833E0,1.5629243E-2,7.1106246E-3,-1.4425671E0,-6.293739E-1,-1.5406188E0,-1.0914111E0,1.5493479E-3,-1.1699874E0,-1.3524415E-2,-1.5668327E-2,-5.405489E-3,-1.5619619E-2,-7.850404E-3,-1.4352591E-2],"categories":[],"categories_nodes":[],"categories_segments":[],"categories_sizes":[],"default_left":[0,0,0,0,0,0,0,0,0,0,0,0,0,0,0,0,0],"id":32,"left_children":[1,3,5,-1,-1,7,9,11,13,-1,15,-1,-1,-1,-1,-1,-1],"loss_changes":[2.6249573E3,4.4765015E1,1.1443274E2,0E0,0E0,1.8169556E1,1.0690494E2,9.2163086E-2,3.2664917E1,0E0,1.4100327E1,0E0,0E0,0E0,0E0,0E0,0E0],"parents":[2147483647,0,0,1,1,2,2,5,5,6,6,7,7,8,8,10,10],"right_children":[2,4,6,-1,-1,8,10,12,14,-1,16,-1,-1,-1,-1,-1,-1],"split_conditions":[-1.808103E0,-1.1471399E0,7.633519E-1,1.5629243E-2,7.1106246E-3,6.948618E-1,-2.2736378E-1,-6.964381E-1,-1.4987978E-2,1.5493479E-3,-1.0779102E-1,-1.3524415E-2,-1.5668327E-2,-5.405489E-3,-1.5619619E-2,-7.850404E-3,-1.4352591E-2],"split_indices":[13,11,3,0,0,6,11,13,25,0,13,0,0,0,0,0,0],"split_type":[0,0,0,0,0,0,0,0,0,0,0,0,0,0,0,0,0],"sum_hessian":[1.4896376E3,6.633956E2,8.26242E2,5.9180664E2,7.158895E1,5.7553986E2,2.5070215E2,4.4726474E2,1.2827513E2,1.0258613E2,1.4811603E2,6.1118256E1,3.8614648E2,6.008447E1,6.819067E1,6.2042667E1,8.607336E1],"tree_param":{"num_deleted":"0","num_feature":"29","num_nodes":"17","size_leaf_vector":"1"}},{"base_weights":[-1.6745212E-4,1.4671247E0,-1.0427138E0,6.2071565E-3,1.5578204E-2,-1.286799E0,2.9331195E-1,-1.5267422E0,-9.907985E-1,-5.0424407E-3,1.0737255E-2,-1.5692428E-2,-1.3420537E-2,-2.1502431E-3,-1.2244737E0,-5.7095457E-3,-1.426251E0,-1.2022348E-2,-1.5224122E-2],"categories":[],"categories_nodes":[],"categories_segments":[],"categories_sizes":[],"default_left":[0,0,0,0,0,0,0,0,0,0,0,0,0,0,0,0,0,0,0],"id":33,"left_children":[1,3,5,-1,-1,7,9,11,13,-1,-1,-1,-1,-1,15,-1,17,-1,-1],"loss_changes":[2.261337E3,4.61709E1,2.8220294E2,0E0,0E0,5.039868E1,8.4141235E1,1.0480957E0,5.9572876E1,0E0,0E0,0E0,0E0,0E0,3.2607605E1,0E0,2.327118E0,0E0,0E0],"parents":[2147483647,0,0,1,1,2,2,5,5,6,6,7,7,8,8,14,14,16,16],"right_children":[2,4,6,-1,-1,8,10,12,14,-1,-1,-1,-1,-1,16,-1,18,-1,-1],"split_conditions":[-1.6431524E0,1.4203988E0,1.729074E0,6.2071565E-3,1.5578204E-2,1.625956E-1,3.8453844E-1,6.2371667E-2,-5.4427797E-1,-5.0424407E-3,1.0737255E-2,-1.5692428E-2,-1.3420537E-2,-2.1502431E-3,-2.3916917E-1,-5.7095457E-3,-1.885063E-1,-1.2022348E-2,-1.5224122E-2],"split_indices":[9,3,3,0,0,3,10,28,9,0,0,0,0,0,19,0,23,0,0],"split_type":[0,0,0,0,0,0,0,0,0,0,0,0,0,0,0,0,0,0,0],"sum_hessian":[1.4762684E3,6.130489E2,8.6321954E2,6.0091858E1,5.5295703E2,7.299062E2,1.3331337E2,4.008291E2,3.290771E2,6.6107574E1,6.7205795E1,3.1975116E2,8.107795E1,7.662186E1,2.5245522E2,6.046146E1,1.9199376E2,6.171809E1,1.3027567E2],"tree_param":{"num_deleted":"0","num_feature":"29","num_nodes":"19","size_leaf_vector":"1"}},{"base_weights":[-5.4458156E-3,1.4486947E0,-1.0440465E0,1.5483764E-2,5.23632E-3,-1.2842448E0,1.5612982E-1,-1.5164657E0,-9.7441804E-1,-6.195769E-3,9.998512E-3,-1.5743641E-2,-1.3464131E-2,-1.3895148E-3,-1.2150064E0,-5.968686E-3,-1.4203006E0,-1.5353152E-2,-1.2322704E-2],"categories":[],"categories_nodes":[],"categories_segments":[],"categories_sizes":[],"default_left":[0,0,0,0,0,0,0,0,0,0,0,0,0,0,0,0,0,0,0],"id":34,"left_children":[1,3,5,-1,-1,7,9,11,13,-1,-1,-1,-1,-1,15,-1,17,-1,-1],"loss_changes":[2.2426355E3,5.6240112E1,2.4991638E2,0E0,0E0,5.046057E1,9.57445E1,1.9251099E0,6.2556732E1,0E0,0E0,0E0,0E0,0E0,2.9882538E1,0E0,2.0237732E0,0E0,0E0],"parents":[2147483647,0,0,1,1,2,2,5,5,6,6,7,7,8,8,14,14,16,16],"right_children":[2,4,6,-1,-1,8,10,12,14,-1,-1,-1,-1,-1,16,-1,18,-1,-1],"split_conditions":[-1.564343E0,-2.3632138E0,1.59478E0,1.5483764E-2,5.23632E-3,1.625956E-1,3.8453844E-1,-3.0916572E-1,-5.4427797E-1,-6.195769E-3,9.998512E-3,-1.5743641E-2,-1.3464131E-2,-1.3895148E-3,-2.2507581E-1,-5.968686E-3,1.4426376E-1,-1.5353152E-2,-1.2322704E-2],"split_indices":[9,11,3,0,0,3,10,3,9,0,0,0,0,0,19,0,17,0,0],"split_type":[0,0,0,0,0,0,0,0,0,0,0,0,0,0,0,0,0,0,0],"sum_hessian":[1.4829207E3,6.176944E2,8.652262E2,5.570001E2,6.06943E1,7.208819E2,1.4434433E2,4.0981982E2,3.1106204E2,7.534174E1,6.900259E1,2.9956683E2,1.1025299E2,6.990111E1,2.4116093E2,6.109929E1,1.8006165E2,1.07277E2,7.278464E1],"tree_param":{"num_deleted":"0","num_feature":"29","num_nodes":"19","size_leaf_vector":"1"}},{"base_weights":[-8.649209E-3,1.4063058E0,-1.1936476E0,1.538067E-2,4.8562884E-3,-4.6612482E-4,-1.2899841E0,-6.5331534E-3,-1.36562E0,-9.709362E-3,-1.4281944E0,-1.1206781E0,-1.5096267E0,-8.179939E-3,-1.4025207E-2,-1.5409403E-2,-1.3042914E-2],"categories":[],"categories_nodes":[],"categories_segments":[],"categories_sizes":[],"default_left":[0,0,0,0,0,0,0,0,0,0,0,0,0,0,0,0,0],"id":35,"left_children":[1,3,5,-1,-1,-1,7,-1,9,-1,11,13,15,-1,-1,-1,-1],"loss_changes":[2.4552463E3,8.0215454E1,8.799939E1,0E0,0E0,0E0,3.4507935E1,0E0,1.4818481E1,0E0,1.24375E1,9.261551E0,8.4002686E-1,0E0,0E0,0E0,0E0],"parents":[2147483647,0,0,1,1,2,2,6,6,8,8,10,10,11,11,12,12],"right_children":[2,4,6,-1,-1,-1,8,-1,10,-1,12,14,16,-1,-1,-1,-1],"split_conditions":[-1.5168691E0,-1.1471399E0,-7.8335345E-1,1.538067E-2,4.8562884E-3,-4.6612482E-4,-1.0490326E0,-6.5331534E-3,-6.964381E-1,-9.709362E-3,-6.04414E-1,-3.3777233E-2,8.951933E-1,-8.179939E-3,-1.4025207E-2,-1.5409403E-2,-1.3042914E-2],"split_indices":[13,11,7,0,0,0,18,0,13,0,15,7,11,0,0,0,0],"split_type":[0,0,0,0,0,0,0,0,0,0,0,0,0,0,0,0,0],"sum_hessian":[1.4623142E3,6.6640375E2,7.9591046E2,5.823859E2,8.401783E1,6.1782146E1,7.3412836E2,7.8976555E1,6.551518E2,9.1915855E1,5.632359E2,1.2101272E2,4.422232E2,6.023055E1,6.078217E1,3.7806412E2,6.41591E1],"tree_param":{"num_deleted":"0","num_feature":"29","num_nodes":"17","size_leaf_vector":"1"}},{"base_weights":[4.8362548E-3,1.4189683E0,-1.1766464E0,4.9038497E-3,1.5118738E0,-1.3381553E0,-2.5940123E-3,1.5380053E-2,1.2609379E-2,-1.4396976E0,-9.394322E-1,-1.1924298E0,-1.5092691E0,-4.6128924E-3,-1.3189772E-2,-8.844078E-3,-1.4796719E-2,-1.34871835E-2,-1.5417143E-2],"categories":[],"categories_nodes":[],"categories_segments":[],"categories_sizes":[],"default_left":[0,0,0,0,0,0,0,0,0,0,0,0,0,0,0,0,0,0,0],"id":36,"left_children":[1,3,5,-1,7,9,-1,-1,-1,11,13,15,17,-1,-1,-1,-1,-1,-1],"loss_changes":[2.4362925E3,5.6519897E1,1.1734436E2,0E0,2.014038E0,2.598706E1,0E0,0E0,0E0,7.4265137E0,2.478749E1,9.532318E0,8.129883E-2,0E0,0E0,0E0,0E0,0E0,0E0],"parents":[2147483647,0,0,1,1,2,2,4,4,5,5,9,9,10,10,11,11,12,12],"right_children":[2,4,6,-1,8,10,-1,-1,-1,12,14,16,18,-1,-1,-1,-1,-1,-1],"split_conditions":[-1.5168691E0,1.1033573E0,1.3837986E0,4.9038497E-3,-3.9880726E0,6.2421167E-1,-2.5940123E-3,1.5380053E-2,1.2609379E-2,-3.2365924E-1,8.167988E-3,5.375527E-2,-5.6614506E-1,-4.6128924E-3,-1.3189772E-2,-8.844078E-3,-1.4796719E-2,-1.34871835E-2,-1.5417143E-2],"split_indices":[13,3,3,0,13,3,0,0,0,25,13,7,13,0,0,0,0,0,0],"split_type":[0,0,0,0,0,0,0,0,0,0,0,0,0,0,0,0,0,0,0],"sum_hessian":[1.4561841E3,6.627404E2,7.9344366E2,6.084796E1,6.0189246E2,6.7426074E2,1.19182945E2,5.404798E2,6.141263E1,5.3532043E2,1.389403E2,1.2152861E2,4.137918E2,6.246437E1,7.647593E1,6.0611404E1,6.0917206E1,7.6720406E1,3.370714E2],"tree_param":{"num_deleted":"0","num_feature":"29","num_nodes":"19","size_leaf_vector":"1"}},{"base_weights":[-6.9809444E-3,1.4184535E0,-1.1482786E0,1.5108222E0,5.243406E-3,-1.40226E0,-5.5036736E-1,1.5300876E-2,1.3202388E-2,-1.5096355E-2,-1.0072345E0,1.2068485E-3,-1.1515609E0,-4.669655E-3,-1.508334E-2,-1.4243956E-2,-8.421553E-3],"categories":[],"categories_nodes":[],"categories_segments":[],"categories_sizes":[],"default_left":[0,0,0,0,0,0,0,0,0,0,0,0,0,0,0,0,0],"id":37,"left_children":[1,3,5,7,-1,9,11,-1,-1,-1,13,-1,15,-1,-1,-1,-1],"loss_changes":[2.3702966E3,5.271277E1,1.22102295E2,1.3391113E-1,0E0,2.2540161E1,9.812459E1,0E0,0E0,0E0,3.293139E1,0E0,9.62291E0,0E0,0E0,0E0,0E0],"parents":[2147483647,0,0,1,1,2,2,3,3,5,5,6,6,10,10,12,12],"right_children":[2,4,6,8,-1,10,12,-1,-1,-1,14,-1,16,-1,-1,-1,-1],"split_conditions":[-1.6677032E0,-1.3102608E0,7.439206E-1,-5.8267796E-1,5.243406E-3,6.948618E-1,-8.637722E-2,1.5300876E-2,1.3202388E-2,-1.5096355E-2,-5.229822E-3,1.2068485E-3,-2.516267E-1,-4.669655E-3,-1.508334E-2,-1.4243956E-2,-8.421553E-3],"split_indices":[13,9,3,15,0,6,11,0,0,0,25,0,25,0,0,0,0],"split_type":[0,0,0,0,0,0,0,0,0,0,0,0,0,0,0,0,0],"sum_hessian":[1.4549888E3,6.468529E2,8.081358E2,5.8566E2,6.119294E1,5.6625586E2,2.4187996E2,5.2550934E2,6.015067E1,4.4301428E2,1.23241585E2,1.1467689E2,1.27203064E2,6.023264E1,6.3008945E1,6.56814E1,6.1521667E1],"tree_param":{"num_deleted":"0","num_feature":"29","num_nodes":"17","size_leaf_vector":"1"}},{"base_weights":[4.5771697E-3,1.4252551E0,-1.015847E0,1.5179393E-2,5.7159243E-3,-1.2720205E0,9.4433844E-2,-1.3883885E0,-6.405099E-3,-5.7869167E-3,9.189752E-3,-1.4549167E0,-8.346861E-3,-1.4861751E-2,-1.2445503E-2],"categories":[],"categories_nodes":[],"categories_segments":[],"categories_sizes":[],"default_left":[0,0,0,0,0,0,0,0,0,0,0,0,0,0,0],"id":38,"left_children":[1,3,5,-1,-1,7,9,11,-1,-1,-1,13,-1,-1,-1],"loss_changes":[2.1208362E3,4.7518066E1,2.4228381E2,0E0,0E0,4.9954346E1,8.9639435E1,2.0274658E1,0E0,0E0,0E0,1.56604E0,0E0,0E0,0E0],"parents":[2147483647,0,0,1,1,2,2,5,5,6,6,7,7,11,11],"right_children":[2,4,6,-1,-1,8,10,12,-1,-1,-1,14,-1,-1,-1],"split_conditions":[-1.6431524E0,-2.433266E0,1.3837986E0,1.5179393E-2,5.7159243E-3,7.62463E-1,3.8453844E-1,1.0253513E0,-6.405099E-3,-5.7869167E-3,9.189752E-3,4.0098298E-1,-8.346861E-3,-1.4861751E-2,-1.2445503E-2],"split_indices":[9,11,3,0,0,16,10,6,0,0,0,16,0,0,0],"split_type":[0,0,0,0,0,0,0,0,0,0,0,0,0,0,0],"sum_hessian":[1.4609557E3,6.105397E2,8.50416E2,5.5004205E2,6.0497612E1,6.9086743E2,1.5954855E2,5.8235815E2,1.0850932E2,8.80037E1,7.1544846E1,5.184393E2,6.3918846E1,4.4608966E2,7.2349625E1],"tree_param":{"num_deleted":"0","num_feature":"29","num_nodes":"15","size_leaf_vector":"1"}},{"base_weights":[-2.492329E-3,1.4156846E0,-1.0056942E0,1.5075143E-2,6.183837E-3,-1.2281449E0,2.0826447E-1,-1.4711447E0,-9.1262245E-1,-5.3186268E-3,1.0281015E-2,-1.518287E-2,-1.2227486E-2,-2.8714878E-4,-1.120628E0,-4.3225805E-3,-1.3679193E0,-1.183023E-2,-1.5124564E-2],"categories":[],"categories_nodes":[],"categories_segments":[],"categories_sizes":[],"default_left":[0,0,0,0,0,0,0,0,0,0,0,0,0,0,0,0,0,0,0],"id":39,"left_children":[1,3,5,-1,-1,7,9,11,13,-1,-1,-1,-1,-1,15,-1,17,-1,-1],"loss_changes":[2.0621003E3,4.3034424E1,2.2949847E2,0E0,0E0,5.3675903E1,8.0837074E1,2.871338E0,5.7853027E1,0E0,0E0,0E0,0E0,0E0,4.2788788E1,0E0,3.2087402E0,0E0,0E0],"parents":[2147483647,0,0,1,1,2,2,5,5,6,6,7,7,8,8,14,14,16,16],"right_children":[2,4,6,-1,-1,8,10,12,14,-1,-1,-1,-1,-1,16,-1,18,-1,-1],"split_conditions":[-1.6431524E0,-2.4824715E0,1.729074E0,1.5075143E-2,6.183837E-3,1.625956E-1,4.4098988E-1,1.3663217E-1,-3.3806598E-1,-5.3186268E-3,1.0281015E-2,-1.518287E-2,-1.2227486E-2,-2.8714878E-4,-4.8729965E-1,-4.3225805E-3,1.23058215E-1,-1.183023E-2,-1.5124564E-2],"split_indices":[9,11,3,0,0,3,10,28,7,0,0,0,0,0,9,0,8,0,0],"split_type":[0,0,0,0,0,0,0,0,0,0,0,0,0,0,0,0,0,0,0],"sum_hessian":[1.4474088E3,5.9950586E2,8.4790295E2,5.3678986E2,6.2715992E1,7.165819E2,1.3132106E2,4.0274493E2,3.1383694E2,6.920021E1,6.2120853E1,3.3420486E2,6.8540085E1,6.000162E1,2.5383533E2,6.7813896E1,1.8602144E2,8.5645706E1,1.0037573E2],"tree_param":{"num_deleted":"0","num_feature":"29","num_nodes":"19","size_leaf_vector":"1"}},{"base_weights":[-2.416362E-3,1.4026365E0,-1.1352758E0,5.5842497E-3,1.4953763E-2,-1.3693023E0,-6.002732E-1,-1.49377305E-2,-9.352467E-1,1.8726817E-3,-1.1508778E0,-3.395881E-3,-1.4625414E-2,-8.617882E-3,-1.4458236E-2],"categories":[],"categories_nodes":[],"categories_segments":[],"categories_sizes":[],"default_left":[0,0,0,0,0,0,0,0,0,0,0,0,0,0,0],"id":40,"left_children":[1,3,5,-1,-1,7,9,-1,11,-1,13,-1,-1,-1,-1],"loss_changes":[2.3183123E3,5.0065308E1,1.0013562E2,0E0,0E0,2.8868042E1,1.07390724E2,0E0,3.9553787E1,0E0,1.1168884E1,0E0,0E0,0E0,0E0],"parents":[2147483647,0,0,1,1,2,2,5,5,6,6,8,8,10,10],"right_children":[2,4,6,-1,-1,8,10,-1,12,-1,14,-1,-1,-1,-1],"split_conditions":[-1.6677032E0,1.3615588E0,7.633519E-1,5.5842497E-3,1.4953763E-2,6.948618E-1,-2.1562378E-1,-1.49377305E-2,-4.171026E-2,1.8726817E-3,2.934563E-2,-3.395881E-3,-1.4625414E-2,-8.617882E-3,-1.4458236E-2],"split_indices":[13,3,3,0,0,6,11,0,25,0,13,0,0,0,0],"split_type":[0,0,0,0,0,0,0,0,0,0,0,0,0,0,0],"sum_hessian":[1.4544753E3,6.4913446E2,8.053409E2,6.4946594E1,5.8418787E2,5.591793E2,2.461616E2,4.3266565E2,1.2651363E2,1.0155922E2,1.4460239E2,6.01778E1,6.633584E1,7.500675E1,6.959564E1],"tree_param":{"num_deleted":"0","num_feature":"29","num_nodes":"15","size_leaf_vector":"1"}},{"base_weights":[-1.3287202E-2,1.3902397E0,-1.1380311E0,1.4952823E-2,5.8623278E-3,-1.382753E0,-5.947456E-1,-1.4483147E0,-8.984348E-3,1.318261E-3,-1.1221002E0,-1.1223672E-2,-1.5115411E-2,-8.4281415E-3,-1.4173206E-2],"categories":[],"categories_nodes":[],"categories_segments":[],"categories_sizes":[],"default_left":[0,0,0,0,0,0,0,0,0,0,0,0,0,0,0],"id":41,"left_children":[1,3,5,-1,-1,7,9,11,-1,-1,13,-1,-1,-1,-1],"loss_changes":[2.2772927E3,5.3323853E1,1.0565051E2,0E0,0E0,1.6206177E1,9.611345E1,8.277954E0,0E0,0E0,1.0779755E1,0E0,0E0,0E0,0E0],"parents":[2147483647,0,0,1,1,2,2,5,5,6,6,7,7,10,10],"right_children":[2,4,6,-1,-1,8,10,12,-1,-1,14,-1,-1,-1,-1],"split_conditions":[-1.6677032E0,-3.6634789E0,7.439206E-1,1.4952823E-2,5.8623278E-3,4.18881E-1,-2.026023E-1,-6.159894E-1,-8.984348E-3,1.318261E-3,4.2036626E-2,-1.1223672E-2,-1.5115411E-2,-8.4281415E-3,-1.4173206E-2],"split_indices":[13,13,3,0,0,28,11,13,0,0,13,0,0,0,0],"split_type":[0,0,0,0,0,0,0,0,0,0,0,0,0,0,0],"sum_hessian":[1.4405928E3,6.4076697E2,7.998258E2,5.6596454E2,7.480242E1,5.5036835E2,2.4945744E2,4.8299533E2,6.737301E1,1.05227936E2,1.442295E2,8.1515396E1,4.0147992E2,7.60958E1,6.813371E1],"tree_param":{"num_deleted":"0","num_feature":"29","num_nodes":"15","size_leaf_vector":"1"}},{"base_weights":[-8.480447E-3,1.3613454E0,-1.1407001E0,1.4863433E-2,5.951595E-3,-7.871981E-1,-1.3301548E0,4.0635854E-4,-1.0239747E0,-1.4069878E0,-1.0620471E-2,-4.3868795E-3,-1.2506142E0,-1.0633714E-2,-1.4968297E-2,-1.01854475E-2,-1.4914715E-2],"categories":[],"categories_nodes":[],"categories_segments":[],"categories_sizes":[],"default_left":[0,0,0,0,0,0,0,0,0,0,0,0,0,0,0,0,0],"id":42,"left_children":[1,3,5,-1,-1,7,9,-1,11,13,-1,-1,15,-1,-1,-1,-1],"loss_changes":[2.214168E3,6.0986694E1,5.12984E1,0E0,0E0,5.397879E1,8.958435E0,0E0,2.7839767E1,1.048877E1,0E0,0E0,7.0737915E0,0E0,0E0,0E0,0E0],"parents":[2147483647,0,0,1,1,2,2,5,5,6,6,8,8,9,9,12,12],"right_children":[2,4,6,-1,-1,8,10,-1,12,14,-1,-1,16,-1,-1,-1,-1],"split_conditions":[-1.5168691E0,-1.6898355E0,-2.1562378E-1,1.4863433E-2,5.951595E-3,-5.9381205E-1,3.8237026E-1,4.0635854E-4,-8.6769074E-1,-6.9450396E-1,-1.0620471E-2,-4.3868795E-3,9.8341954E-1,-1.0633714E-2,-1.4968297E-2,-1.01854475E-2,-1.4914715E-2],"split_indices":[13,11,11,0,0,13,24,0,0,12,0,0,0,0,0,0,0],"split_type":[0,0,0,0,0,0,0,0,0,0,0,0,0,0,0,0,0],"sum_hessian":[1.425625E3,6.450288E2,7.805961E2,5.537486E2,9.128023E1,2.7417334E2,5.064228E2,6.1162228E1,2.1301111E2,3.903191E2,1.16103676E2,6.027895E1,1.5273215E2,8.356113E1,3.0675797E2,8.0448105E1,7.228405E1],"tree_param":{"num_deleted":"0","num_feature":"29","num_nodes":"17","size_leaf_vector":"1"}},{"base_weights":[4.1321875E-3,1.34969E0,-1.1199645E0,3.5273596E-3,1.4538101E0,-1.3618346E0,-5.733188E-1,1.4845924E-2,1.1676578E-2,-1.4274787E0,-8.557724E-3,1.5024294E-3,-1.0883187E0,-1.1149738E-2,-1.4868832E-2,-1.3343409E-2,-7.648988E-3],"categories":[],"categories_nodes":[],"categories_segments":[],"categories_sizes":[],"default_left":[0,0,0,0,0,0,0,0,0,0,0,0,0,0,0,0,0],"id":43,"left_children":[1,3,5,-1,7,9,11,-1,-1,13,-1,-1,15,-1,-1,-1,-1],"loss_changes":[2.1576025E3,6.688428E1,1.01978455E2,0E0,3.4420166E0,1.6653198E1,8.964275E1,0E0,0E0,7.156372E0,0E0,0E0,1.015094E1,0E0,0E0,0E0,0E0],"parents":[2147483647,0,0,1,1,2,2,4,4,5,5,6,6,9,9,12,12],"right_children":[2,4,6,-1,8,10,12,-1,-1,14,-1,-1,16,-1,-1,-1,-1],"split_conditions":[-1.5168691E0,1.0619961E0,7.439206E-1,3.5273596E-3,-3.9262073E0,4.18881E-1,-2.026023E-1,1.4845924E-2,1.1676578E-2,-6.159894E-1,-8.557724E-3,1.5024294E-3,2.744809E-1,-1.1149738E-2,-1.4868832E-2,-1.3343409E-2,-7.648988E-3],"split_indices":[13,3,3,0,13,28,11,0,0,13,0,0,24,0,0,0,0],"split_type":[0,0,0,0,0,0,0,0,0,0,0,0,0,0,0,0,0],"sum_hessian":[1.42448E3,6.4827997E2,7.7619995E2,6.171779E1,5.865622E2,5.370737E2,2.3912622E2,5.2581085E2,6.0751324E1,4.7379453E2,6.3279213E1,9.9724335E1,1.3940189E2,7.883629E1,3.9495822E2,7.739929E1,6.2002594E1],"tree_param":{"num_deleted":"0","num_feature":"29","num_nodes":"17","size_leaf_vector":"1"}},{"base_weights":[6.06186E-3,1.3735433E0,-1.0956845E0,1.4704949E-2,6.269322E-3,-1.3469367E0,-5.4073167E-1,-1.4587306E-2,-9.4606085E-3,5.0504417E-3,-8.872127E-1,-2.8046365E-3,-1.1825863E0,-8.364656E-3,-1.4937814E-2],"categories":[],"categories_nodes":[],"categories_segments":[],"categories_sizes":[],"default_left":[0,0,0,0,0,0,0,0,0,0,0,0,0,0,0],"id":44,"left_children":[1,3,5,-1,-1,7,9,-1,-1,-1,11,-1,13,-1,-1],"loss_changes":[2.1413271E3,4.498181E1,1.0902258E2,0E0,0E0,2.2871643E1,8.993761E1,0E0,0E0,0E0,3.2980453E1,0E0,1.2182602E1,0E0,0E0],"parents":[2147483647,0,0,1,1,2,2,5,5,6,6,10,10,12,12],"right_children":[2,4,6,-1,-1,8,10,-1,-1,-1,12,-1,14,-1,-1],"split_conditions":[-1.6677032E0,-3.6634789E0,7.439206E-1,1.4704949E-2,6.269322E-3,6.948618E-1,-2.964222E-1,-1.4587306E-2,-9.4606085E-3,5.0504417E-3,-3.2244414E-1,-2.8046365E-3,5.3823035E-2,-8.364656E-3,-1.4937814E-2],"split_indices":[13,13,3,0,0,6,7,0,0,0,28,0,13,0,0],"split_type":[0,0,0,0,0,0,0,0,0,0,0,0,0,0,0],"sum_hessian":[1.4192821E3,6.3316034E2,7.861217E2,5.5953235E2,7.362803E1,5.401461E2,2.459756E2,4.2029715E2,1.1984896E2,6.1100307E1,1.8487529E2,6.1170307E1,1.2370499E2,6.0312027E1,6.3392956E1],"tree_param":{"num_deleted":"0","num_feature":"29","num_nodes":"15","size_leaf_vector":"1"}},{"base_weights":[-1.1243822E-2,1.3200167E0,-1.1386403E0,1.8933784E-3,1.4389629E0,-1.3604789E0,-6.1371523E-1,1.4703892E-2,1.1561985E-2,-1.4309309E0,-8.533534E-3,6.531818E-4,-1.1637485E0,-1.2074945E-2,-1.4625217E-2,-1.4044602E-2,-8.848298E-3],"categories":[],"categories_nodes":[],"categories_segments":[],"categories_sizes":[],"default_left":[0,0,0,0,0,0,0,0,0,0,0,0,0,0,0,0,0],"id":45,"left_children":[1,3,5,-1,7,9,11,-1,-1,13,-1,-1,15,-1,-1,-1,-1],"loss_changes":[2.113845E3,8.658447E1,8.796857E1,0E0,3.491333E0,1.7901733E1,8.536795E1,0E0,0E0,1.5407715E0,0E0,0E0,7.231537E0,0E0,0E0,0E0,0E0],"parents":[2147483647,0,0,1,1,2,2,4,4,5,5,6,6,9,9,12,12],"right_children":[2,4,6,-1,8,10,12,-1,-1,14,-1,-1,16,-1,-1,-1,-1],"split_conditions":[-1.444122E0,1.0277833E0,7.633519E-1,1.8933784E-3,-3.9262073E0,9.7695756E-1,-8.637722E-2,1.4703892E-2,1.1561985E-2,-6.6570264E-1,-8.533534E-3,6.531818E-4,2.5016245E-1,-1.2074945E-2,-1.4625217E-2,-1.4044602E-2,-8.848298E-3],"split_indices":[13,3,3,0,13,6,11,0,0,13,0,0,24,0,0,0,0],"split_type":[0,0,0,0,0,0,0,0,0,0,0,0,0,0,0,0,0],"sum_hessian":[1.4064225E3,6.448248E2,7.615976E2,6.1624725E1,5.8320013E2,5.342335E2,2.2736407E2,5.210868E2,6.211331E1,4.6746912E2,6.67644E1,1.0214459E2,1.2521948E2,6.2765324E1,4.047038E2,6.50472E1,6.017228E1],"tree_param":{"num_deleted":"0","num_feature":"29","num_nodes":"17","size_leaf_vector":"1"}},{"base_weights":[1.2532616E-2,1.3117495E0,-1.1262584E0,8.726772E-4,1.4393886E0,-1.3576506E0,-5.827465E-1,1.4642875E-2,1.2074927E-2,-1.4224769E0,-8.73366E-3,-1.8618797E-1,-1.2837747E-2,-1.1913727E-2,-1.4548519E-2,3.459689E-3,-9.206733E-3],"categories":[],"categories_nodes":[],"categories_segments":[],"categories_sizes":[],"default_left":[0,0,0,0,0,0,0,0,0,0,0,0,0,0,0,0,0],"id":46,"left_children":[1,3,5,-1,7,9,11,-1,-1,13,-1,15,-1,-1,-1,-1,-1],"loss_changes":[2.0939595E3,1.0319458E2,9.4061646E1,0E0,1.6882324E0,1.5341614E1,6.285694E1,0E0,0E0,1.7405396E0,0E0,5.7435905E1,0E0,0E0,0E0,0E0,0E0],"parents":[2147483647,0,0,1,1,2,2,4,4,5,5,6,6,9,9,11,11],"right_children":[2,4,6,-1,8,10,12,-1,-1,14,-1,16,-1,-1,-1,-1,-1],"split_conditions":[-1.3738195E0,9.335371E-1,7.439206E-1,8.726772E-4,-3.822894E0,9.7695756E-1,1.4560913E-1,1.4642875E-2,1.2074927E-2,-6.6570264E-1,-8.73366E-3,8.674788E-1,-1.2837747E-2,-1.1913727E-2,-1.4548519E-2,3.459689E-3,-9.206733E-3],"split_indices":[13,3,3,0,13,6,7,0,0,13,0,0,0,0,0,0,0],"split_type":[0,0,0,0,0,0,0,0,0,0,0,0,0,0,0,0,0],"sum_hessian":[1.4132821E3,6.600717E2,7.532104E2,6.2469208E1,5.9760254E2,5.272455E2,2.2596497E2,5.348598E2,6.2742706E1,4.6329205E2,6.3953403E1,1.4513206E2,8.083289E1,6.157153E1,4.0172052E2,8.446418E1,6.0667892E1],"tree_param":{"num_deleted":"0","num_feature":"29","num_nodes":"17","size_leaf_vector":"1"}},{"base_weights":[-9.013622E-4,1.3664533E0,-9.414221E-1,1.4547788E-2,6.311191E-3,-1.1697282E0,2.4653599E-1,-1.4222398E0,-8.539168E-1,-4.4158506E-3,1.0539166E-2,-1.4672943E-2,-1.1801127E-2,-3.011792E-4,-1.1105502E0,-5.3112837E-3,-1.3530861E0,-1.4585113E-2,-1.1441754E-2],"categories":[],"categories_nodes":[],"categories_segments":[],"categories_sizes":[],"default_left":[0,0,0,0,0,0,0,0,0,0,0,0,0,0,0,0,0,0,0],"id":47,"left_children":[1,3,5,-1,-1,7,9,11,13,-1,-1,-1,-1,-1,15,-1,17,-1,-1],"loss_changes":[1.8169579E3,3.647754E1,2.2731787E2,0E0,0E0,5.479187E1,7.589299E1,2.5095825E0,6.646593E1,0E0,0E0,0E0,0E0,0E0,3.298117E1,0E0,2.0400696E0,0E0,0E0],"parents":[2147483647,0,0,1,1,2,2,5,5,6,6,7,7,8,8,14,14,16,16],"right_children":[2,4,6,-1,-1,8,10,12,14,-1,-1,-1,-1,-1,16,-1,18,-1,-1],"split_conditions":[-1.6431524E0,-2.5358934E0,1.6801603E0,1.4547788E-2,6.311191E-3,1.625956E-1,4.4098988E-1,1.3663217E-1,-5.520583E-1,-4.4158506E-3,1.0539166E-2,-1.4672943E-2,-1.1801127E-2,-3.011792E-4,-8.637722E-2,-5.3112837E-3,2.7935565E-1,-1.4585113E-2,-1.1441754E-2],"split_indices":[9,11,3,0,0,3,10,28,9,0,0,0,0,0,11,0,24,0,0],"split_type":[0,0,0,0,0,0,0,0,0,0,0,0,0,0,0,0,0,0,0],"sum_hessian":[1.4108473E3,5.747733E2,8.36074E2,5.122638E2,6.2509552E1,7.013092E2,1.3476477E2,3.8776367E2,3.135455E2,7.300043E1,6.176435E1,3.2266296E2,6.5100685E1,7.474136E1,2.3880415E2,7.140546E1,1.673987E2,1.0727944E2,6.0119255E1],"tree_param":{"num_deleted":"0","num_feature":"29","num_nodes":"19","size_leaf_vector":"1"}},{"base_weights":[6.2893494E-4,1.3229153E0,-1.0882806E0,1.443249E-2,5.197813E-3,-3.618314E-3,-1.2059363E0,-6.4723347E-3,-1.3046049E0,-1.353085E0,-9.013063E-3,-1.1048927E-2,-1.4041698E0,-1.2151492E-2,-1.4365577E-2],"categories":[],"categories_nodes":[],"categories_segments":[],"categories_sizes":[],"default_left":[0,0,0,0,0,0,0,0,0,0,0,0,0,0,0],"id":48,"left_children":[1,3,5,-1,-1,-1,7,-1,9,11,-1,-1,13,-1,-1],"loss_changes":[2.0167338E3,6.0381348E1,6.5214905E1,0E0,0E0,0E0,3.557318E1,0E0,9.738953E0,4.7669067E0,0E0,0E0,7.618408E-1,0E0,0E0],"parents":[2147483647,0,0,1,1,2,2,6,6,8,8,9,9,12,12],"right_children":[2,4,6,-1,-1,-1,8,-1,10,12,-1,-1,14,-1,-1],"split_conditions":[-1.5168691E0,-1.1471399E0,-4.6096596E-1,1.443249E-2,5.197813E-3,-3.618314E-3,-6.6570264E-1,-6.4723347E-3,8.964484E-1,-7.600446E-1,-9.013063E-3,-1.1048927E-2,-9.997922E-1,-1.2151492E-2,-1.4365577E-2],"split_indices":[13,11,7,0,0,0,13,0,6,14,0,0,1,0,0],"split_type":[0,0,0,0,0,0,0,0,0,0,0,0,0,0,0],"sum_hessian":[1.3986553E3,6.3154346E2,7.671118E2,5.485562E2,8.298723E1,1.0749204E2,6.5961975E2,1.0014077E2,5.59479E2,4.9733936E2,6.2139637E1,8.87554E1,4.0858395E2,6.540275E1,3.4318118E2],"tree_param":{"num_deleted":"0","num_feature":"29","num_nodes":"15","size_leaf_vector":"1"}},{"base_weights":[-1.4643857E-2,1.3742588E0,-9.316843E-1,1.44334845E-2,9.071509E-3,-1.0983124E0,-1.3175512E-2,-4.1609822E-4,-1.2015895E0,-7.1927374E-3,6.34974E-3,-1.2587993E0,-7.350758E-3,-1.0154268E0,-1.3544832E0,-1.3472779E-2,-6.503755E-3,-1.1449276E-2,-1.3888662E0,-1.445174E-2,-1.2217863E-2],"categories":[],"categories_nodes":[],"categories_segments":[],"categories_sizes":[],"default_left":[0,0,0,0,0,0,0,0,0,0,0,0,0,0,0,0,0,0,0,0,0],"id":49,"left_children":[1,3,5,-1,-1,7,9,-1,11,-1,-1,13,-1,15,17,-1,-1,-1,19,-1,-1],"loss_changes":[1.7776296E3,1.660315E1,1.2864185E2,0E0,0E0,7.7601074E1,5.9994896E1,0E0,1.6372986E1,0E0,0E0,1.2036377E1,0E0,1.9297363E1,1.3669434E0,0E0,0E0,0E0,1.506958E0,0E0,0E0],"parents":[2147483647,0,0,1,1,2,2,5,5,6,6,8,8,11,11,13,13,14,14,18,18],"right_children":[2,4,6,-1,-1,8,10,-1,12,-1,-1,14,-1,16,18,-1,-1,-1,20,-1,-1],"split_conditions":[-1.8456665E0,-9.7616E-1,9.308381E-1,1.44334845E-2,9.071509E-3,-4.951236E-1,4.386606E-1,-4.1609822E-4,1.0497677E0,-7.1927374E-3,6.34974E-3,-5.3155786E-1,-7.350758E-3,3.3998975E-1,-7.417664E-1,-1.3472779E-2,-6.503755E-3,-1.1449276E-2,5.0548583E-1,-1.445174E-2,-1.2217863E-2],"split_indices":[9,16,16,0,0,19,17,0,6,0,0,8,0,1,9,0,0,0,12,0,0],"split_type":[0,0,0,0,0,0,0,0,0,0,0,0,0,0,0,0,0,0,0,0,0],"sum_hessian":[1.3936593E3,5.5404004E2,8.396193E2,4.8083057E2,7.320949E1,7.1052594E2,1.2909337E2,6.3385555E1,6.471404E2,6.1732193E1,6.7361176E1,5.749361E2,7.220429E1,1.6552762E2,4.0940848E2,8.52972E1,8.023041E1,6.2540363E1,3.468681E2,2.5371393E2,9.315419E1],"tree_param":{"num_deleted":"0","num_feature":"29","num_nodes":"21","size_leaf_vector":"1"}},{"base_weights":[-1.5066403E-3,1.302525E0,-1.079462E0,2.8326113E-3,1.4105076E0,-1.3219061E0,-5.3632605E-1,1.4384664E-2,1.1598047E-2,-1.3961253E0,-7.931009E-3,-1.711709E-1,-1.19916E-2,-1.163923E-2,-1.430239E-2,4.3244925E-3,-8.057066E-3],"categories":[],"categories_nodes":[],"categories_segments":[],"categories_sizes":[],"default_left":[0,0,0,0,0,0,0,0,0,0,0,0,0,0,0,0,0],"id":50,"left_children":[1,3,5,-1,7,9,11,-1,-1,13,-1,15,-1,-1,-1,-1,-1],"loss_changes":[1.9500483E3,6.8697266E1,9.929669E1,0E0,2.30896E0,1.9473938E1,5.6931374E1,0E0,0E0,1.9675293E0,0E0,5.9095238E1,0E0,0E0,0E0,0E0,0E0],"parents":[2147483647,0,0,1,1,2,2,4,4,5,5,6,6,9,9,11,11],"right_children":[2,4,6,-1,8,10,12,-1,-1,14,-1,16,-1,-1,-1,-1,-1],"split_conditions":[-1.5168691E0,1.1033573E0,7.439206E-1,2.8326113E-3,-3.9262073E0,9.7695756E-1,1.4560913E-1,1.4384664E-2,1.1598047E-2,-6.6570264E-1,-7.931009E-3,-1.6873513E-1,-1.19916E-2,-1.163923E-2,-1.430239E-2,4.3244925E-3,-8.057066E-3],"split_indices":[13,3,3,0,13,6,7,0,0,13,0,12,0,0,0,0,0],"split_type":[0,0,0,0,0,0,0,0,0,0,0,0,0,0,0,0,0],"sum_hessian":[1.3852551E3,6.267955E2,7.584597E2,6.0389797E1,5.664057E2,5.2339417E2,2.3506552E2,5.053143E2,6.1091377E1,4.5753738E2,6.5856766E1,1.5237848E2,8.268705E1,6.3106693E1,3.944307E2,7.825483E1,7.412365E1],"tree_param":{"num_deleted":"0","num_feature":"29","num_nodes":"17","size_leaf_vector":"1"}},{"base_weights":[4.6817316E-3,1.3201023E0,-1.0478262E0,4.553885E-3,1.413018E0,-1.2157937E0,-1.7038286E-1,1.4317127E-2,1.2415007E-2,-7.337368E-3,-1.3233976E0,4.7627543E-3,-8.082814E-3,-1.4040357E0,-7.0760557E-3,-1.1334796E-2,-1.4423461E-2],"categories":[],"categories_nodes":[],"categories_segments":[],"categories_sizes":[],"default_left":[0,0,0,0,0,0,0,0,0,0,0,0,0,0,0,0,0],"id":51,"left_children":[1,3,5,-1,7,9,11,-1,-1,-1,13,-1,-1,15,-1,-1,-1],"loss_changes":[1.916625E3,4.87948E1,1.1313452E2,0E0,2.5634766E-3,3.2501892E1,5.1834114E1,0E0,0E0,0E0,2.5140747E1,0E0,0E0,3.1781616E0,0E0,0E0,0E0],"parents":[2147483647,0,0,1,1,2,2,4,4,5,5,6,6,10,10,13,13],"right_children":[2,4,6,-1,8,10,12,-1,-1,-1,14,-1,-1,16,-1,-1,-1],"split_conditions":[-1.6677032E0,1.271851E0,1.3615588E0,4.553885E-3,-4.054954E0,-6.159894E-1,-2.829632E-1,1.4317127E-2,1.2415007E-2,-7.337368E-3,4.7276318E-1,4.7627543E-3,-8.082814E-3,-3.481171E-1,-7.0760557E-3,-1.1334796E-2,-1.4423461E-2],"split_indices":[13,3,3,0,13,13,11,0,0,0,28,0,0,19,0,0,0],"split_type":[0,0,0,0,0,0,0,0,0,0,0,0,0,0,0,0,0],"sum_hessian":[1.3823549E3,6.143225E2,7.6803235E2,6.0178272E1,5.541442E2,6.443078E2,1.23724495E2,4.9305566E2,6.1088554E1,1.1900294E2,5.253049E2,6.1566208E1,6.2158287E1,4.6334924E2,6.195565E1,6.126562E1,4.0208362E2],"tree_param":{"num_deleted":"0","num_feature":"29","num_nodes":"17","size_leaf_vector":"1"}},{"base_weights":[8.299576E-3,1.3197092E0,-1.0350378E0,1.4212835E-2,5.693013E-3,-6.498466E-1,-1.2420313E0,1.9269207E-3,-8.975158E-1,-1.3324605E0,-9.797668E-1,-3.6260171E-3,-1.1161953E0,-9.545999E-3,-1.4160759E-2,-5.350833E-3,-1.3538315E-2,-8.869219E-3,-1.4212702E-2],"categories":[],"categories_nodes":[],"categories_segments":[],"categories_sizes":[],"default_left":[0,0,0,0,0,0,0,0,0,0,0,0,0,0,0,0,0,0,0],"id":52,"left_children":[1,3,5,-1,-1,7,9,-1,11,13,15,-1,17,-1,-1,-1,-1,-1,-1],"loss_changes":[1.8925696E3,4.590503E1,6.0614136E1,0E0,0E0,5.679905E1,1.0552185E1,0E0,2.4147644E1,1.0307007E1,2.122763E1,0E0,9.126755E0,0E0,0E0,0E0,0E0,0E0,0E0],"parents":[2147483647,0,0,1,1,2,2,5,5,6,6,8,8,9,9,10,10,12,12],"right_children":[2,4,6,-1,-1,8,10,-1,12,14,16,-1,18,-1,-1,-1,-1,-1,-1],"split_conditions":[-1.6677032E0,-1.1471399E0,-2.2736378E-1,1.4212835E-2,5.693013E-3,-6.6570264E-1,3.4650323E-1,1.9269207E-3,-8.482902E-1,-7.919476E-1,-2.427134E-2,-3.6260171E-3,1.129819E0,-9.545999E-3,-1.4160759E-2,-5.350833E-3,-1.3538315E-2,-8.869219E-3,-1.4212702E-2],"split_indices":[13,11,11,0,0,13,24,0,0,12,20,0,0,0,0,0,0,0,0],"split_type":[0,0,0,0,0,0,0,0,0,0,0,0,0,0,0,0,0,0,0],"sum_hessian":[1.3812137E3,6.1186847E2,7.693452E2,5.3813336E2,7.373507E1,2.703657E2,4.9897952E2,6.1471046E1,2.0889465E2,3.6800894E2,1.3097058E2,6.1388874E1,1.4750578E2,6.8929756E1,2.990792E2,6.0947468E1,7.002312E1,8.6446075E1,6.1059704E1],"tree_param":{"num_deleted":"0","num_feature":"29","num_nodes":"19","size_leaf_vector":"1"}},{"base_weights":[-2.9654363E-3,1.3487113E0,-9.057164E-1,1.4184481E-2,7.8015006E-3,-1.0654646E0,1.0132544E-3,-3.6789503E-4,-1.1618619E0,-6.1534923E-3,-1.218818E0,-9.092156E-1,-1.3112892E0,-4.399799E-3,-1.2617196E-2,-1.3723794E0,-9.215872E-3,-1.4233156E-2,-1.0765144E-2],"categories":[],"categories_nodes":[],"categories_segments":[],"categories_sizes":[],"default_left":[0,0,0,0,0,0,0,0,0,0,0,0,0,0,0,0,0,0,0],"id":53,"left_children":[1,3,5,-1,-1,7,-1,-1,9,-1,11,13,15,-1,-1,17,-1,-1,-1],"loss_changes":[1.682711E3,2.0788269E1,1.3311908E2,0E0,0E0,7.072809E1,0E0,0E0,1.9560852E1,0E0,1.569635E1,2.242517E1,9.495422E0,0E0,0E0,4.3253174E0,0E0,0E0,0E0],"parents":[2147483647,0,0,1,1,2,2,5,5,8,8,10,10,11,11,12,12,15,15],"right_children":[2,4,6,-1,-1,8,-1,-1,10,-1,12,14,16,-1,-1,18,-1,-1,-1],"split_conditions":[-1.8456665E0,-2.6137233E0,1.049687E0,1.4184481E-2,7.8015006E-3,-7.8335345E-1,1.0132544E-3,-3.6789503E-4,-1.0490326E0,-6.1534923E-3,-5.1213753E-1,-5.2514327E-1,4.6803635E-1,-4.399799E-3,-1.2617196E-2,8.5898554E-1,-9.215872E-3,-1.4233156E-2,-1.0765144E-2],"split_indices":[9,11,16,0,0,7,0,0,18,0,15,0,16,0,0,11,0,0,0],"split_type":[0,0,0,0,0,0,0,0,0,0,0,0,0,0,0,0,0,0,0],"sum_hessian":[1.3770132E3,5.5120605E2,8.258072E2,4.896528E2,6.1553234E1,7.126937E2,1.1311347E2,6.1182636E1,6.515111E2,6.2604443E1,5.889067E2,1.379314E2,4.5097528E2,6.0133205E1,7.779819E1,3.8768024E2,6.3295025E1,3.2748895E2,6.019129E1],"tree_param":{"num_deleted":"0","num_feature":"29","num_nodes":"19","size_leaf_vector":"1"}},{"base_weights":[1.2817723E-2,1.2855529E0,-1.0368754E0,3.1596276E-3,1.3934523E0,-1.2855663E0,-4.967795E-1,1.4163392E-2,1.1923195E-2,-1.3646818E0,-6.813174E-3,1.9275134E-3,-1.005529E0,-1.0853408E-2,-1.408505E-2,-1.25471065E-2,-6.869332E-3],"categories":[],"categories_nodes":[],"categories_segments":[],"categories_sizes":[],"default_left":[0,0,0,0,0,0,0,0,0,0,0,0,0,0,0,0,0],"id":54,"left_children":[1,3,5,-1,7,9,11,-1,-1,13,-1,-1,15,-1,-1,-1,-1],"loss_changes":[1.8310325E3,6.4366455E1,1.00246216E2,0E0,8.758545E-1,2.3625916E1,8.3837296E1,0E0,0E0,4.019043E0,0E0,0E0,1.004332E1,0E0,0E0,0E0,0E0],"parents":[2147483647,0,0,1,1,2,2,4,4,5,5,6,6,9,9,12,12],"right_children":[2,4,6,-1,8,10,12,-1,-1,14,-1,-1,16,-1,-1,-1,-1],"split_conditions":[-1.5168691E0,1.1033573E0,7.633519E-1,3.1596276E-3,-3.9880726E0,1.0253513E0,-2.1562378E-1,1.4163392E-2,1.1923195E-2,-6.6570264E-1,-6.813174E-3,1.9275134E-3,2.6433426E-1,-1.0853408E-2,-1.408505E-2,-1.25471065E-2,-6.869332E-3],"split_indices":[13,3,3,0,13,6,11,0,0,13,0,0,24,0,0,0,0],"split_type":[0,0,0,0,0,0,0,0,0,0,0,0,0,0,0,0,0],"sum_hessian":[1.3685547E3,6.18459E2,7.5009576E2,6.2325676E1,5.561333E2,5.126584E2,2.3743736E2,4.938917E2,6.2241627E1,4.5219333E2,6.046505E1,1.0107163E2,1.3636574E2,6.481439E1,3.8737894E2,7.486992E1,6.149582E1],"tree_param":{"num_deleted":"0","num_feature":"29","num_nodes":"17","size_leaf_vector":"1"}},{"base_weights":[-4.946673E-3,1.3011296E0,-1.043937E0,4.871969E-3,1.3915923E-2,-1.2840834E0,-5.179078E-1,-1.3783365E0,-8.818992E-3,7.196216E-4,-1.0514417E0,-1.2501051E-2,-1.4123564E-2,-1.3427583E-2,-7.328765E-3],"categories":[],"categories_nodes":[],"categories_segments":[],"categories_sizes":[],"default_left":[0,0,0,0,0,0,0,0,0,0,0,0,0,0,0],"id":55,"left_children":[1,3,5,-1,-1,7,9,11,-1,-1,13,-1,-1,-1,-1],"loss_changes":[1.8586578E3,4.4004272E1,9.569946E1,0E0,0E0,1.8612183E1,7.5851494E1,7.525635E-2,0E0,0E0,1.0754532E1,0E0,0E0,0E0,0E0],"parents":[2147483647,0,0,1,1,2,2,5,5,6,6,7,7,10,10],"right_children":[2,4,6,-1,-1,8,10,12,-1,-1,14,-1,-1,-1,-1],"split_conditions":[-1.6677032E0,1.3615588E0,7.439206E-1,4.871969E-3,1.3915923E-2,7.761063E-1,-7.261315E-2,-4.208716E-1,-8.818992E-3,7.196216E-4,2.4118909E-1,-1.2501051E-2,-1.4123564E-2,-1.3427583E-2,-7.328765E-3],"split_indices":[13,3,3,0,0,6,11,13,0,0,24,0,0,0,0],"split_type":[0,0,0,0,0,0,0,0,0,0,0,0,0,0,0],"sum_hessian":[1.3676799E3,6.058438E2,7.618362E2,6.1238647E1,5.4460516E2,5.2206055E2,2.3977563E2,4.2097617E2,1.0108435E2,1.1428658E2,1.25489044E2,9.618205E1,3.2479413E2,6.3868507E1,6.1620537E1],"tree_param":{"num_deleted":"0","num_feature":"29","num_nodes":"15","size_leaf_vector":"1"}},{"base_weights":[-2.1995235E-2,1.2636826E0,-1.0444834E0,2.2900826E-3,1.3796773E0,-1.2089231E0,-2.0422727E-1,1.4024125E-2,1.1769087E-2,-9.076262E-1,-1.3452214E0,4.104614E-3,-8.32705E-3,-1.3136123E-2,-4.540979E-3,-1.1887959E0,-1.4145393E-2,-9.036935E-3,-1.3928791E-2],"categories":[],"categories_nodes":[],"categories_segments":[],"categories_sizes":[],"default_left":[0,0,0,0,0,0,0,0,0,0,0,0,0,0,0,0,0,0,0],"id":56,"left_children":[1,3,5,-1,7,9,11,-1,-1,13,15,-1,-1,-1,-1,17,-1,-1,-1],"loss_changes":[1.7952979E3,7.2292175E1,1.0485797E2,0E0,8.5632324E-1,2.4896301E1,4.8904022E1,0E0,0E0,3.64429E1,3.0440674E0,0E0,0E0,0E0,0E0,6.8923492E0,0E0,0E0,0E0],"parents":[2147483647,0,0,1,1,2,2,4,4,5,5,6,6,9,9,10,10,15,15],"right_children":[2,4,6,-1,8,10,12,-1,-1,14,16,-1,-1,-1,-1,18,-1,-1,-1],"split_conditions":[-1.5168691E0,1.0619961E0,1.3837986E0,2.2900826E-3,-3.9880726E0,-5.6265455E-1,-2.1562378E-1,1.4024125E-2,1.1769087E-2,1.4556587E-1,-5.680903E-1,4.104614E-3,-8.32705E-3,-1.3136123E-2,-4.540979E-3,-1.910453E-1,-1.4145393E-2,-9.036935E-3,-1.3928791E-2],"split_indices":[13,3,3,0,13,12,11,0,0,3,10,0,0,0,0,25,0,0,0],"split_type":[0,0,0,0,0,0,0,0,0,0,0,0,0,0,0,0,0,0,0],"sum_hessian":[1.3636667E3,6.0398254E2,7.596842E2,6.1185093E1,5.427974E2,6.3497894E2,1.24705284E2,4.82753E2,6.004445E1,2.0016321E2,4.3481573E2,6.3219624E1,6.148566E1,1.0461674E2,9.554647E1,1.3908992E2,2.957258E2,6.0291428E1,7.8798485E1],"tree_param":{"num_deleted":"0","num_feature":"29","num_nodes":"19","size_leaf_vector":"1"}},{"base_weights":[1.5060818E-3,1.3313253E0,-8.640994E-1,1.3974382E-2,8.599202E-3,-1.1001744E0,3.3523947E-1,-1.3217895E0,-7.395618E-1,-3.6160105E-3,1.025283E-2,-1.3912472E0,-9.787878E-3,-1.0669092E0,-2.0923339E-4,-1.43572735E-2,-1.2145457E-2,-6.350794E-3,-1.3017282E-2],"categories":[],"categories_nodes":[],"categories_segments":[],"categories_sizes":[],"default_left":[0,0,0,0,0,0,0,0,0,0,0,0,0,0,0,0,0,0,0],"id":57,"left_children":[1,3,5,-1,-1,7,9,11,13,-1,-1,15,-1,17,-1,-1,-1,-1,-1],"loss_changes":[1.5391885E3,1.5229126E1,2.296908E2,0E0,0E0,5.312378E1,6.4791855E1,8.59729E0,6.112874E1,0E0,0E0,9.6990967E-1,0E0,1.7281128E1,0E0,0E0,0E0,0E0,0E0],"parents":[2147483647,0,0,1,1,2,2,5,5,6,6,7,7,8,8,11,11,13,13],"right_children":[2,4,6,-1,-1,8,10,12,14,-1,-1,16,-1,18,-1,-1,-1,-1,-1],"split_conditions":[-1.9238961E0,-8.88991E-1,1.6801603E0,1.3974382E-2,8.599202E-3,3.2347924E-1,3.8453844E-1,1.3663217E-1,5.6894517E-1,-3.6160105E-3,1.025283E-2,-6.261103E-2,-9.787878E-3,-2.7405834E-1,-2.0923339E-4,-1.43572735E-2,-1.2145457E-2,-6.350794E-3,-1.3017282E-2],"split_indices":[9,16,3,0,0,3,10,28,16,0,0,3,0,0,0,0,0,0,0],"split_type":[0,0,0,0,0,0,0,0,0,0,0,0,0,0,0,0,0,0,0],"sum_hessian":[1.3351477E3,5.262059E2,8.089418E2,4.5976154E2,6.644436E1,6.7596844E2,1.3297334E2,4.1702164E2,2.589468E2,6.6397644E1,6.65757E1,3.4425424E2,7.27674E1,1.7757492E2,8.137188E1,2.693316E2,7.492264E1,6.385352E1,1.13721405E2],"tree_param":{"num_deleted":"0","num_feature":"29","num_nodes":"19","size_leaf_vector":"1"}},{"base_weights":[2.714691E-3,1.2980313E0,-9.0379083E-1,1.3874635E-2,5.6990525E-3,-1.126375E0,1.337969E-1,-1.3645988E0,-8.0951077E-1,-4.95284E-3,8.898182E-3,-1.4155968E-2,-1.184814E-2,2.729143E-4,-1.061681E0,-5.0400887E-3,-1.2729952E0,-1.4074255E-2,-1.0505486E-2],"categories":[],"categories_nodes":[],"categories_segments":[],"categories_sizes":[],"default_left":[0,0,0,0,0,0,0,0,0,0,0,0,0,0,0,0,0,0,0],"id":58,"left_children":[1,3,5,-1,-1,7,9,11,13,-1,-1,-1,-1,-1,15,-1,17,-1,-1],"loss_changes":[1.5909961E3,3.553473E1,1.8424335E2,0E0,0E0,4.8445007E1,6.782687E1,1.7451172E0,5.999373E1,0E0,0E0,0E0,0E0,0E0,2.5094482E1,0E0,3.2378998E0,0E0,0E0],"parents":[2147483647,0,0,1,1,2,2,5,5,6,6,7,7,8,8,14,14,16,16],"right_children":[2,4,6,-1,-1,8,10,12,14,-1,-1,-1,-1,-1,16,-1,18,-1,-1],"split_conditions":[-1.6431524E0,-2.4824715E0,1.4652845E0,1.3874635E-2,5.6990525E-3,1.625956E-1,4.4098988E-1,-2.5867712E-1,-5.4427797E-1,-4.95284E-3,8.898182E-3,-1.4155968E-2,-1.184814E-2,2.729143E-4,-5.450191E-1,-5.0400887E-3,2.6433426E-1,-1.4074255E-2,-1.0505486E-2],"split_indices":[9,11,3,0,0,3,10,3,9,0,0,0,0,0,0,0,24,0,0],"split_type":[0,0,0,0,0,0,0,0,0,0,0,0,0,0,0,0,0,0,0],"sum_hessian":[1.3529492E3,5.568408E2,7.961084E2,4.9512183E2,6.171896E1,6.554213E2,1.4068707E2,3.7225064E2,2.831707E2,7.6978546E1,6.370852E1,2.8463626E2,8.7614365E1,6.577953E1,2.1739114E2,6.06684E1,1.5672275E2,9.4367195E1,6.2355556E1],"tree_param":{"num_deleted":"0","num_feature":"29","num_nodes":"19","size_leaf_vector":"1"}},{"base_weights":[-2.154035E-3,1.2479006E0,-1.0119431E0,2.1725064E-3,1.3612009E0,-1.180358E0,-2.0614909E-1,1.3869372E-2,1.1402771E-2,-7.3750797E-3,-1.2729206E0,3.312911E-3,-8.038162E-3,-1.3503325E0,-6.828079E-3,-1.3910507E-2,-1.1182126E-2],"categories":[],"categories_nodes":[],"categories_segments":[],"categories_sizes":[],"default_left":[0,0,0,0,0,0,0,0,0,0,0,0,0,0,0,0,0],"id":59,"left_children":[1,3,5,-1,7,9,11,-1,-1,-1,13,-1,-1,15,-1,-1,-1],"loss_changes":[1.7106764E3,7.041797E1,1.0148981E2,0E0,1.5195312E0,2.4469482E1,4.228259E1,0E0,0E0,0E0,2.2435303E1,0E0,0E0,2.7070312E0,0E0,0E0,0E0],"parents":[2147483647,0,0,1,1,2,2,4,4,5,5,6,6,10,10,13,13],"right_children":[2,4,6,-1,8,10,12,-1,-1,-1,14,-1,-1,16,-1,-1,-1],"split_conditions":[-1.5168691E0,1.0619961E0,1.3615588E0,2.1725064E-3,-4.054954E0,-6.159894E-1,1.848158E-2,1.3869372E-2,1.1402771E-2,-7.3750797E-3,4.18881E-1,3.312911E-3,-8.038162E-3,7.633519E-1,-6.828079E-3,-1.3910507E-2,-1.1182126E-2],"split_indices":[13,3,3,0,13,13,7,0,0,0,28,0,0,3,0,0,0],"split_type":[0,0,0,0,0,0,0,0,0,0,0,0,0,0,0,0,0],"sum_hessian":[1.3532147E3,6.0456537E2,7.486493E2,6.0166943E1,5.4439844E2,6.1884314E2,1.2980615E2,4.828689E2,6.1529545E1,1.0853643E2,5.103067E2,6.8581406E1,6.1224754E1,4.499883E2,6.0318413E1,3.785846E2,7.1403725E1],"tree_param":{"num_deleted":"0","num_feature":"29","num_nodes":"17","size_leaf_vector":"1"}},{"base_weights":[5.1704682E-3,1.2929916E0,-9.779616E-1,1.3793664E-2,5.7101995E-3,-1.2445772E0,-4.2471552E-1,-1.3562037E-2,-8.55829E-3,2.610456E-3,-9.609402E-1,-1.2453036E-2,-6.5261363E-3],"categories":[],"categories_nodes":[],"categories_segments":[],"categories_sizes":[],"default_left":[0,0,0,0,0,0,0,0,0,0,0,0,0],"id":60,"left_children":[1,3,5,-1,-1,7,9,-1,-1,-1,11,-1,-1],"loss_changes":[1.6786052E3,3.500476E1,1.1037213E2,0E0,0E0,2.083319E1,9.071635E1,0E0,0E0,0E0,1.1310753E1,0E0,0E0],"parents":[2147483647,0,0,1,1,2,2,5,5,6,6,10,10],"right_children":[2,4,6,-1,-1,8,10,-1,-1,-1,12,-1,-1],"split_conditions":[-1.8802754E0,-1.1471399E0,7.439206E-1,1.3793664E-2,5.7101995E-3,6.948618E-1,-2.026023E-1,-1.3562037E-2,-8.55829E-3,2.610456E-3,2.2152653E-1,-1.2453036E-2,-6.5261363E-3],"split_indices":[13,11,3,0,0,6,11,0,0,0,24,0,0],"split_type":[0,0,0,0,0,0,0,0,0,0,0,0,0],"sum_hessian":[1.3238109E3,5.729625E2,7.508484E2,5.1092612E2,6.2036404E1,5.0583237E2,2.45016E2,3.9105487E2,1.14777504E2,1.07741684E2,1.3727432E2,6.983135E1,6.744297E1],"tree_param":{"num_deleted":"0","num_feature":"29","num_nodes":"13","size_leaf_vector":"1"}},{"base_weights":[7.2419727E-3,1.2531481E0,-1.0042591E0,1.3721283E-2,4.886678E-3,-2.4786629E-3,-1.1479716E0,-7.603101E-1,-1.2686945E0,-2.116356E-3,-1.1342492E-2,-9.379986E-3,-1.3163365E0,-1.3530108E0,-1.0912195E-2,-1.19211385E-2,-1.3827991E-2],"categories":[],"categories_nodes":[],"categories_segments":[],"categories_sizes":[],"default_left":[0,0,0,0,0,0,0,0,0,0,0,0,0,0,0,0,0],"id":61,"left_children":[1,3,5,-1,-1,-1,7,9,11,-1,-1,-1,13,15,-1,-1,-1],"loss_changes":[1.6718878E3,5.3398865E1,7.930847E1,0E0,0E0,0E0,2.781836E1,3.023639E1,6.130432E0,0E0,0E0,0E0,1.876648E0,5.432129E-3,0E0,0E0,0E0],"parents":[2147483647,0,0,1,1,2,2,6,6,7,7,8,8,12,12,13,13],"right_children":[2,4,6,-1,-1,-1,8,10,12,-1,-1,-1,14,16,-1,-1,-1],"split_conditions":[-1.5168691E0,-1.1471399E0,-4.3141222E-1,1.3721283E-2,4.886678E-3,-2.4786629E-3,-4.208716E-1,-2.1211617E-1,-9.193303E-1,-2.116356E-3,-1.1342492E-2,-9.379986E-3,8.524468E-1,-7.298619E-1,-1.0912195E-2,-1.19211385E-2,-1.3827991E-2],"split_indices":[13,11,7,0,0,0,13,18,18,0,0,0,18,14,0,0,0],"split_type":[0,0,0,0,0,0,0,0,0,0,0,0,0,0,0,0,0],"sum_hessian":[1.3246487E3,5.9344275E2,7.312059E2,5.128329E2,8.060983E1,1.1718073E2,6.1402515E2,1.4754175E2,4.664834E2,6.0433975E1,8.710777E1,6.1346817E1,4.0513657E2,3.4407285E2,6.1063736E1,6.015815E1,2.839147E2],"tree_param":{"num_deleted":"0","num_feature":"29","num_nodes":"17","size_leaf_vector":"1"}},{"base_weights":[2.3546175E-3,1.2431285E0,-1.0182796E0,3.0066732E-3,1.3513173E0,-1.2471639E0,-5.34643E-1,1.3730589E-2,1.16157085E-2,-1.3313805E0,-7.7756243E-3,2.653631E-3,-9.3513244E-1,-1.1619911E-2,-1.3794104E-2,-6.647127E-3,-1.2743155E-2],"categories":[],"categories_nodes":[],"categories_segments":[],"categories_sizes":[],"default_left":[0,0,0,0,0,0,0,0,0,0,0,0,0,0,0,0,0],"id":62,"left_children":[1,3,5,-1,7,9,11,-1,-1,13,-1,-1,15,-1,-1,-1,-1],"loss_changes":[1.6786416E3,6.0593933E1,7.9842285E1,0E0,6.179199E-1,1.8458557E1,7.5662506E1,0E0,0E0,1.7861938E0,0E0,0E0,1.3560394E1,0E0,0E0,0E0,0E0],"parents":[2147483647,0,0,1,1,2,2,4,4,5,5,6,6,9,9,12,12],"right_children":[2,4,6,-1,8,10,12,-1,-1,14,-1,-1,16,-1,-1,-1,-1],"split_conditions":[-1.5168691E0,1.1033573E0,7.439206E-1,3.0066732E-3,-4.054954E0,8.964484E-1,-4.3735287E-1,1.3730589E-2,1.16157085E-2,-4.208716E-1,-7.7756243E-3,2.653631E-3,1.4560913E-1,-1.1619911E-2,-1.3794104E-2,-6.647127E-3,-1.2743155E-2],"split_indices":[13,3,3,0,13,6,11,0,0,13,0,0,7,0,0,0,0],"split_type":[0,0,0,0,0,0,0,0,0,0,0,0,0,0,0,0,0],"sum_hessian":[1.3235477E3,5.972542E2,7.262935E2,6.189029E1,5.3536395E2,4.9191342E2,2.3438008E2,4.7473166E2,6.0632263E1,4.1555432E2,7.635911E1,7.830257E1,1.5607751E2,9.736518E1,3.1818912E2,8.848834E1,6.7589165E1],"tree_param":{"num_deleted":"0","num_feature":"29","num_nodes":"17","size_leaf_vector":"1"}},{"base_weights":[1.0538829E-2,1.2292181E0,-9.815744E-1,1.3589664E-2,4.3634954E-3,-1.1541169E0,-9.79209E-4,-7.8660667E-1,-1.2703009E0,-1.2995592E-2,-2.9116273E-3,-7.857286E-3,-1.3455E0,-1.3766883E-2,-1.1572843E-2],"categories":[],"categories_nodes":[],"categories_segments":[],"categories_sizes":[],"default_left":[0,0,0,0,0,0,0,0,0,0,0,0,0,0,0],"id":63,"left_children":[1,3,5,-1,-1,7,-1,9,11,-1,-1,-1,13,-1,-1],"loss_changes":[1.582061E3,5.9813843E1,1.0986243E2,0E0,0E0,2.4764221E1,0E0,3.7121902E1,1.5588928E1,0E0,0E0,0E0,7.1990967E-1,0E0,0E0],"parents":[2147483647,0,0,1,1,2,2,5,5,7,7,8,8,12,12],"right_children":[2,4,6,-1,-1,8,-1,10,12,-1,-1,-1,14,-1,-1],"split_conditions":[-1.5168691E0,-1.1471399E0,1.3837986E0,1.3589664E-2,4.3634954E-3,-4.208716E-1,-9.79209E-4,-1.4637338E-1,-4.127588E-1,-1.2995592E-2,-2.9116273E-3,-7.857286E-3,2.4508911E-1,-1.3766883E-2,-1.1572843E-2],"split_indices":[13,11,3,0,0,13,0,3,7,0,0,0,22,0,0],"split_type":[0,0,0,0,0,0,0,0,0,0,0,0,0,0,0],"sum_hessian":[1.3064987E3,5.861959E2,7.2030273E2,5.0314508E2,8.305081E1,6.023764E2,1.1792631E2,1.4655803E2,4.558184E2,7.120926E1,7.534876E1,6.2772182E1,3.9304623E2,3.3175766E2,6.1288574E1],"tree_param":{"num_deleted":"0","num_feature":"29","num_nodes":"15","size_leaf_vector":"1"}},{"base_weights":[2.4007257E-2,1.2335649E0,-9.856994E-1,1.3554264E-2,5.011976E-3,-1.9191195E-3,-1.1121057E0,-7.018244E-1,-1.240342E0,-1.1973169E-2,-3.0474558E-3,-1.2902553E0,-8.894107E-3,-1.1660295E0,-1.38354385E-2,-1.375884E-2,-9.858228E-3],"categories":[],"categories_nodes":[],"categories_segments":[],"categories_sizes":[],"default_left":[0,0,0,0,0,0,0,0,0,0,0,0,0,0,0,0,0],"id":64,"left_children":[1,3,5,-1,-1,-1,7,9,11,-1,-1,13,-1,15,-1,-1,-1],"loss_changes":[1.5994467E3,5.249768E1,7.140857E1,0E0,0E0,0E0,3.1514526E1,2.8927025E1,7.0439453E0,0E0,0E0,3.105713E0,0E0,5.488678E0,0E0,0E0,0E0],"parents":[2147483647,0,0,1,1,2,2,6,6,7,7,8,8,11,11,13,13],"right_children":[2,4,6,-1,-1,-1,8,10,12,-1,-1,14,-1,16,-1,-1,-1],"split_conditions":[-1.444122E0,-1.1471399E0,-4.761274E-1,1.3554264E-2,5.011976E-3,-1.9191195E-3,-4.208716E-1,1.1754707E-1,8.4094256E-1,-1.1973169E-2,-3.0474558E-3,-2.93458E-1,-8.894107E-3,3.6059276E-3,-1.38354385E-2,-1.375884E-2,-9.858228E-3],"split_indices":[13,11,7,0,0,0,13,17,6,0,0,28,0,27,0,0,0],"split_type":[0,0,0,0,0,0,0,0,0,0,0,0,0,0,0,0,0],"sum_hessian":[1.3076326E3,5.948374E2,7.127951E2,5.0925037E2,8.558704E1,9.826206E1,6.14533E2,1.4787914E2,4.666539E2,6.489055E1,8.298859E1,4.062027E2,6.0451214E1,1.8000363E2,2.2619907E2,8.0095566E1,9.9908066E1],"tree_param":{"num_deleted":"0","num_feature":"29","num_nodes":"17","size_leaf_vector":"1"}},{"base_weights":[1.2791796E-3,-9.430743E-1,1.0634418E0,-1.0647317E0,3.3046417E-3,-4.425397E-3,1.3015807E0,-1.1627178E0,-2.1856448E-3,8.99416E-3,1.3510532E-2,-1.3639864E-2,-9.157287E-1,-5.035967E-3,-1.2362225E0,-1.4139538E-2,-1.0599219E-2],"categories":[],"categories_nodes":[],"categories_segments":[],"categories_sizes":[],"default_left":[0,0,0,0,0,0,0,0,0,0,0,0,0,0,0,0,0],"id":65,"left_children":[1,3,5,7,-1,-1,9,11,-1,-1,-1,-1,13,-1,15,-1,-1],"loss_changes":[1.3133818E3,1.0774213E2,2.2158356E2,5.2223633E1,0E0,0E0,9.37677E0,2.6937561E1,0E0,0E0,0E0,0E0,3.3406815E1,0E0,3.0209656E0,0E0,0E0],"parents":[2147483647,0,0,1,1,2,2,3,3,6,6,7,7,12,12,14,14],"right_children":[2,4,6,8,-1,-1,10,12,-1,-1,-1,-1,14,-1,16,-1,-1],"split_conditions":[1.4652845E0,5.344537E-1,4.4098988E-1,5.5561554E-1,3.3046417E-3,-4.425397E-3,1.5119733E0,8.0228604E-2,-2.1856448E-3,8.99416E-3,1.3510532E-2,-1.3639864E-2,-5.067114E-2,-5.035967E-3,-6.0033444E-3,-1.4139538E-2,-1.0599219E-2],"split_indices":[3,20,10,28,0,0,10,3,0,0,0,0,22,0,27,0,0],"split_type":[0,0,0,0,0,0,0,0,0,0,0,0,0,0,0,0,0],"sum_hessian":[1.3073794E3,6.9212933E2,6.152501E2,6.319271E2,6.0202213E1,8.388791E1,5.313622E2,5.6600916E2,6.591792E1,6.030662E1,4.7105557E2,3.0937817E2,2.56631E2,1.1339043E2,1.432406E2,6.783499E1,7.54056E1],"tree_param":{"num_deleted":"0","num_feature":"29","num_nodes":"17","size_leaf_vector":"1"}},{"base_weights":[-3.4309903E-3,1.2672534E0,-8.638058E-1,1.35039855E-2,6.171504E-3,-1.0746437E0,2.036855E-1,-1.3314464E0,-7.922592E-1,7.4549364E-3,-3.950566E-3,-1.3742228E-2,-1.1445646E-2,-5.2968465E-4,-1.0089889E0,-3.2022428E-3,-1.2407501E0,-1.3628559E-2,-9.871389E-3],"categories":[],"categories_nodes":[],"categories_segments":[],"categories_sizes":[],"default_left":[0,0,0,0,0,0,0,0,0,0,0,0,0,0,0,0,0,0,0],"id":66,"left_children":[1,3,5,-1,-1,7,9,11,13,-1,-1,-1,-1,-1,15,-1,17,-1,-1],"loss_changes":[1.4195143E3,2.7501831E1,1.744671E2,0E0,0E0,4.5839905E1,4.1990707E1,1.1228638E0,4.9691086E1,0E0,0E0,0E0,0E0,0E0,3.791794E1,0E0,4.205475E0,0E0,0E0],"parents":[2147483647,0,0,1,1,2,2,5,5,6,6,7,7,8,8,14,14,16,16],"right_children":[2,4,6,-1,-1,8,10,12,14,-1,-1,-1,-1,-1,16,-1,18,-1,-1],"split_conditions":[-1.6431524E0,-2.5358934E0,1.6801603E0,1.35039855E-2,6.171504E-3,8.0228604E-2,3.1956273E-1,-2.5867712E-1,-5.4427797E-1,7.4549364E-3,-3.950566E-3,-1.3742228E-2,-1.1445646E-2,-5.2968465E-4,-6.130982E-1,-3.2022428E-3,3.3421227E-1,-1.3628559E-2,-9.871389E-3],"split_indices":[9,11,3,0,0,3,9,3,9,0,0,0,0,0,0,0,24,0,0],"split_type":[0,0,0,0,0,0,0,0,0,0,0,0,0,0,0,0,0,0,0],"sum_hessian":[1.2964163E3,5.232126E2,7.732037E2,4.62929E2,6.0283577E1,6.456717E2,1.27531944E2,3.362072E2,3.094645E2,6.682037E1,6.071157E1,2.684148E2,6.779241E1,7.0437645E1,2.3902686E2,6.077956E1,1.782473E2,1.1736564E2,6.0881657E1],"tree_param":{"num_deleted":"0","num_feature":"29","num_nodes":"19","size_leaf_vector":"1"}},{"base_weights":[2.777434E-3,1.275588E0,-8.319949E-1,1.3481276E-2,7.826975E-3,-1.0737041E0,9.675164E-2,-1.2950448E0,-7.6605356E-1,6.6684633E-3,-6.483323E-3,-1.3627808E-2,-9.683008E-3,7.745023E-4,-1.0608315E0,-1.2757564E0,-6.8292352E-3,-1.1468087E-2,-1.3828688E-2],"categories":[],"categories_nodes":[],"categories_segments":[],"categories_sizes":[],"default_left":[0,0,0,0,0,0,0,0,0,0,0,0,0,0,0,0,0,0,0],"id":67,"left_children":[1,3,5,-1,-1,7,9,11,13,-1,-1,-1,-1,-1,15,17,-1,-1,-1],"loss_changes":[1.3756108E3,1.7279419E1,1.7562689E2,0E0,0E0,4.1261475E1,6.94078E1,6.635376E0,6.524722E1,0E0,0E0,0E0,0E0,0E0,1.490831E1,1.0871887E-1,0E0,0E0,0E0],"parents":[2147483647,0,0,1,1,2,2,5,5,6,6,7,7,8,8,14,14,15,15],"right_children":[2,4,6,-1,-1,8,10,12,14,-1,-1,-1,-1,-1,16,18,-1,-1,-1],"split_conditions":[-1.8456665E0,-9.7616E-1,1.3615588E0,1.3481276E-2,7.826975E-3,1.625956E-1,-1.6554795E-1,1.3663217E-1,-5.4427797E-1,6.6684633E-3,-6.483323E-3,-1.3627808E-2,-9.683008E-3,7.745023E-4,2.5209209E-2,5.4246895E-2,-6.8292352E-3,-1.1468087E-2,-1.3828688E-2],"split_indices":[9,16,3,0,0,3,11,28,9,0,0,0,0,0,26,23,0,0,0],"split_type":[0,0,0,0,0,0,0,0,0,0,0,0,0,0,0,0,0,0,0],"sum_hessian":[1.2926849E3,5.1179803E2,7.808869E2,4.446264E2,6.717162E1,6.1950323E2,1.613837E2,3.584239E2,2.610793E2,9.148768E1,6.989602E1,2.942527E2,6.417122E1,6.780197E1,1.9327733E2,1.21692314E2,7.158502E1,6.052986E1,6.1162453E1],"tree_param":{"num_deleted":"0","num_feature":"29","num_nodes":"19","size_leaf_vector":"1"}},{"base_weights":[3.025057E-3,1.2142913E0,-9.741106E-1,1.3416482E-2,4.701678E-3,-1.2118535E0,-4.630415E-1,-1.3080562E0,-6.9162957E-3,3.434469E-3,-8.4974235E-1,-1.1270685E-2,-1.3441419E-2,-5.893733E-3,-1.2229051E-2],"categories":[],"categories_nodes":[],"categories_segments":[],"categories_sizes":[],"default_left":[0,0,0,0,0,0,0,0,0,0,0,0,0,0,0],"id":68,"left_children":[1,3,5,-1,-1,7,9,11,-1,-1,13,-1,-1,-1,-1],"loss_changes":[1.5123494E3,5.34386E1,8.537164E1,0E0,0E0,2.3222046E1,7.082578E1,1.1348877E0,0E0,0E0,1.4159767E1,0E0,0E0,0E0,0E0],"parents":[2147483647,0,0,1,1,2,2,5,5,6,6,7,7,10,10],"right_children":[2,4,6,-1,-1,8,10,12,-1,-1,14,-1,-1,-1,-1],"split_conditions":[-1.5168691E0,-1.6898355E0,7.633519E-1,1.3416482E-2,4.701678E-3,8.964484E-1,-4.5153013E-1,-5.6614506E-1,-6.9162957E-3,3.434469E-3,1.9482222E-1,-1.1270685E-2,-1.3441419E-2,-5.893733E-3,-1.2229051E-2],"split_indices":[13,11,3,0,0,6,11,13,0,0,13,0,0,0,0],"split_type":[0,0,0,0,0,0,0,0,0,0,0,0,0,0,0],"sum_hessian":[1.2757852E3,5.6953796E2,7.062472E2,4.8562088E2,8.39171E1,4.8108246E2,2.2516469E2,4.047242E2,7.635825E1,7.30099E1,1.5215479E2,7.263872E1,3.320855E2,9.114151E1,6.1013283E1],"tree_param":{"num_deleted":"0","num_feature":"29","num_nodes":"15","size_leaf_vector":"1"}},{"base_weights":[-5.8119977E-3,1.244208E0,-9.3766093E-1,1.3327945E-2,5.578057E-3,-1.2053509E0,-4.4775757E-1,-1.3012937E0,-6.8297065E-3,2.4875274E-3,-9.606211E-1,-1.0583324E-2,-1.3422197E-2,-1.20134605E-2,-6.1117015E-3],"categories":[],"categories_nodes":[],"categories_segments":[],"categories_sizes":[],"default_left":[0,0,0,0,0,0,0,0,0,0,0,0,0,0,0],"id":69,"left_children":[1,3,5,-1,-1,7,9,11,-1,-1,13,-1,-1,-1,-1],"loss_changes":[1.4906855E3,3.249109E1,9.561096E1,0E0,0E0,2.2843628E1,9.3348495E1,2.5463257E0,0E0,0E0,1.1911209E1,0E0,0E0,0E0,0E0],"parents":[2147483647,0,0,1,1,2,2,5,5,6,6,7,7,10,10],"right_children":[2,4,6,-1,-1,8,10,12,-1,-1,14,-1,-1,-1,-1],"split_conditions":[-1.808103E0,-3.6634789E0,6.2421167E-1,1.3327945E-2,5.578057E-3,8.964484E-1,-2.026023E-1,-6.6570264E-1,-6.8297065E-3,2.4875274E-3,2.744809E-1,-1.0583324E-2,-1.3422197E-2,-1.20134605E-2,-6.1117015E-3],"split_indices":[13,13,3,0,0,6,11,13,0,0,24,0,0,0,0],"split_type":[0,0,0,0,0,0,0,0,0,0,0,0,0,0,0],"sum_hessian":[1.2777438E3,5.4556525E2,7.321785E2,4.8236926E2,6.3195984E1,4.7252435E2,2.596542E2,3.9794485E2,7.457949E1,1.1033088E2,1.4932332E2,6.1241077E1,3.367038E2,8.6972855E1,6.2350464E1],"tree_param":{"num_deleted":"0","num_feature":"29","num_nodes":"15","size_leaf_vector":"1"}},{"base_weights":[-1.0741705E-2,1.1666659E0,-9.9338746E-1,1.3214189E-2,3.9424123E-3,-1.4636363E-3,-1.0793033E0,-6.6997036E-3,-1.1502395E0,-1.2217647E0,-6.225621E-3,-1.1348324E0,-1.3686259E-2,-1.2455744E0,-7.868341E-3,-9.608575E-3,-1.3456465E-2],"categories":[],"categories_nodes":[],"categories_segments":[],"categories_sizes":[],"default_left":[0,0,0,0,0,0,0,0,0,0,0,0,0,0,0,0,0],"id":70,"left_children":[1,3,5,-1,-1,-1,7,-1,9,11,-1,13,-1,15,-1,-1,-1],"loss_changes":[1.4625715E3,6.822125E1,4.9986145E1,0E0,0E0,0E0,1.7389954E1,0E0,1.9305725E1,4.411072E0,0E0,1.055481E1,0E0,5.1274414E0,0E0,0E0,0E0],"parents":[2147483647,0,0,1,1,2,2,6,6,8,8,9,9,11,11,13,13],"right_children":[2,4,6,-1,-1,-1,8,-1,10,12,-1,14,-1,16,-1,-1,-1],"split_conditions":[-1.3066489E0,-1.1471399E0,-4.951236E-1,1.3214189E-2,3.9424123E-3,-1.4636363E-3,-6.159894E-1,-6.6997036E-3,5.0348955E-1,3.7003094E-1,-6.225621E-3,3.4650323E-1,-1.3686259E-2,-2.5468943E-1,-7.868341E-3,-9.608575E-3,-1.3456465E-2],"split_indices":[13,11,19,0,0,0,13,0,19,13,0,24,0,11,0,0,0],"split_type":[0,0,0,0,0,0,0,0,0,0,0,0,0,0,0,0,0],"sum_hessian":[1.2621328E3,5.740809E2,6.880519E2,4.7767038E2,9.6410515E1,6.361269E1,6.244392E2,9.3772964E1,5.3066626E2,4.661636E2,6.450263E1,2.9831046E2,1.6785315E2,2.2434032E2,7.397013E1,6.1101383E1,1.6323894E2],"tree_param":{"num_deleted":"0","num_feature":"29","num_nodes":"17","size_leaf_vector":"1"}},{"base_weights":[-1.3925859E-2,1.1890059E0,-9.6190524E-1,1.3223471E-2,4.273016E-3,-1.2043376E0,-4.6310776E-1,-1.2906253E0,-5.977689E-3,3.2443025E-3,-8.693893E-1,-1.105974E-2,-1.3267169E-2,-6.4342148E-3,-1.2029473E-2],"categories":[],"categories_nodes":[],"categories_segments":[],"categories_sizes":[],"default_left":[0,0,0,0,0,0,0,0,0,0,0,0,0,0,0],"id":71,"left_children":[1,3,5,-1,-1,7,9,11,-1,-1,13,-1,-1,-1,-1],"loss_changes":[1.4480969E3,5.627948E1,8.532117E1,0E0,0E0,2.4209167E1,7.512226E1,1.3115845E0,0E0,0E0,1.0876678E1,0E0,0E0,0E0,0E0],"parents":[2147483647,0,0,1,1,2,2,5,5,6,6,7,7,10,10],"right_children":[2,4,6,-1,-1,8,10,12,-1,-1,14,-1,-1,-1,-1],"split_conditions":[-1.5168691E0,-3.6634789E0,7.439206E-1,1.3223471E-2,4.273016E-3,9.7695756E-1,-4.5153013E-1,-5.6614506E-1,-5.977689E-3,3.2443025E-3,1.9482222E-1,-1.105974E-2,-1.3267169E-2,-6.4342148E-3,-1.2029473E-2],"split_indices":[13,13,3,0,0,6,11,13,0,0,13,0,0,0,0],"split_type":[0,0,0,0,0,0,0,0,0,0,0,0,0,0,0],"sum_hessian":[1.2678628E3,5.58678E2,7.0918475E2,4.748214E2,8.385658E1,4.7628143E2,2.3290332E2,4.1597845E2,6.030297E1,7.933038E1,1.5357294E2,7.3186325E1,3.427921E2,9.3297676E1,6.0275257E1],"tree_param":{"num_deleted":"0","num_feature":"29","num_nodes":"15","size_leaf_vector":"1"}},{"base_weights":[1.7091336E-2,1.237418E0,-9.318271E-1,1.3218058E-2,5.692629E-3,-2.3950804E-3,-1.0612075E0,-4.550046E-3,-1.1835482E0,-7.997177E-3,-1.2375422E0,-1.2846965E0,-9.422538E-3,-1.3536931E-2,-1.090857E-2],"categories":[],"categories_nodes":[],"categories_segments":[],"categories_sizes":[],"default_left":[0,0,0,0,0,0,0,0,0,0,0,0,0,0,0],"id":72,"left_children":[1,3,5,-1,-1,-1,7,-1,9,-1,11,13,-1,-1,-1],"loss_changes":[1.4495516E3,3.0122131E1,6.282373E1,0E0,0E0,0E0,4.3443115E1,0E0,9.223877E0,0E0,4.7799683E0,3.44812E0,0E0,0E0,0E0],"parents":[2147483647,0,0,1,1,2,2,6,6,8,8,10,10,11,11],"right_children":[2,4,6,-1,-1,-1,8,-1,10,-1,12,14,-1,-1,-1],"split_conditions":[-1.808103E0,-3.6634789E0,-4.3141222E-1,1.3218058E-2,5.692629E-3,-2.3950804E-3,-6.964381E-1,-4.550046E-3,-9.193303E-1,-7.997177E-3,2.683723E-1,3.4650323E-1,-9.422538E-3,-1.3536931E-2,-1.090857E-2],"split_indices":[13,13,7,0,0,0,13,0,18,0,22,24,0,0,0],"split_type":[0,0,0,0,0,0,0,0,0,0,0,0,0,0,0],"sum_hessian":[1.2497861E3,5.465756E2,7.0321045E2,4.844158E2,6.2159847E1,1.1117269E2,5.920377E2,1.0021041E2,4.9182733E2,6.260357E1,4.2922375E2,3.672304E2,6.199337E1,2.6641656E2,1.00813835E2],"tree_param":{"num_deleted":"0","num_feature":"29",