tree
version=v4
num_class=1
num_tree_per_iteration=1
label_index=0
max_feature_idx=28
objective=binary sigmoid:1
feature_names=V1 V2 V3 V4 V5 V6 V7 V8 V9 V10 V11 V12 V13 V14 V15 V16 V17 V18 V19 V20 V21 V22 V23 V24 V25 V26 V27 V28 Amount_scaled
feature_infos=[-30.552380043581:2.3683626670482401] [-30.603857893995499:22.057728990490901] [-31.103684824581201:3.8008280389876501] [-4.3383266921548396:12.1550161174889] [-22.105531524316:16.0756187775957] [-11.814343846774401:7.0811502180441499] [-43.5572415712451:10.784087654848101] [-41.044260921074098:20.007208365121301] [-13.4340663182301:6.9660633249724002] [-24.588262437247501:12.246896536508199] [-3.0384819098612299:12.018913181619901] [-18.683714633344302:3.33887142221554] [-3.33396285927539:4.0445770861347503] [-19.214325490261398:4.5129441458943402] [-4.49894467676621:3.4495936402932199] [-14.129854517493101:3.1396556588306899] [-25.162799369324802:6.7393843847833503] [-9.4987459210467708:3.7903162118437499] [-4.6190343417724398:5.5721133268796903] [-23.646890332167299:11.059004293394199] [-22.797603905551899:27.202839157315399] [-8.8870171409487106:8.3619851916843508] [-19.254327617371899:17.7517305591435] [-2.7000949662935598:3.6955029456203299] [-4.7816055220640701:5.8524835709145604] [-1.6581619351010799:2.9642995078493501] [-9.3909797964007993:8.9326387492416792] [-8.3079554873602:5.2789979284065804] [-0.35322939296682354:17.219718778696432]
tree_sizes=2297 3353 3581 2722

Tree=0
num_leaves=23
num_cat=0
split_feature=13 19 13 16 17 6 8 25 13 12 19 8 13 27 18 27 26 5 6 6 0 0
split_gain=4541.95 103.337 85.4335 75.9901 59.8801 49.7773 49.6982 23.131 23.0236 42.0252 24.9547 23.9242 17.9066 16.8383 11.12 6.31546 12.5255 5.02297 4.41029 3.11831 2.7 0.0650762
threshold=-1.8204343044011211 -0.89947700425965449 -3.2052704176491069 1.1433368014271654 0.17709192448678754 2.3391163719522852 -0.74025132577430741 -0.12648307784628324 -0.6570148500185069 -0.63143602759957462 0.50201116897260445 -0.42337409689330391 -1.2529230307403898 0.081998133825588806 -1.7096622644306634 -0.014915671354243312 0.036525504999138765 -0.45266829097031641 0.64893614941431765 0.58280515156501811 1.0245089494444302 1.1683251920114122
decision_type=2 2 2 2 2 2 2 2 2 2 2 2 2 2 2 2 2 2 2 2 2 2
left_child=2 13 18 5 -5 8 20 -8 9 -3 14 -12 -6 -2 -10 -11 -17 -16 21 -13 -4 -1
right_child=1 3 6 4 12 -7 7 -9 10 15 11 19 -14 -15 17 16 -18 -19 -20 -21 -22 -23
leaf_value=0.02 -0.0053333333333333323 -0.0028571428571428571 0.013999999999999997 -0.016116504854368933 0.011874999999999998 0.00062500000000000001 0.0070422535211267599 -0.0096774193548387101 -0.010163934426229508 -0.02 -0.0051327433628318587 -0.02 -0.0033333333333333331 0.0092537313432835815 -0.01987963891675025 -0.01 -0.019607843137254902 -0.017982663514578407 0.014929577464788733 -0.013999999999999999 0.02 0.019333333333333334
leaf_weight=613.75 15.000000000000002 29.75 15.000000000000002 25.75 16.000000000000004 15.999999999999998 17.75 15.499999999999998 15.249999999999998 33.75 28.25 20.5 14.999999999999998 16.75 249.25 29 25.5 317.25 17.75 14.999999999999998 14.999999999999998 14.999999999999998
leaf_count=2455 60 119 60 103 64 64 71 62 61 135 113 82 60 67 997 116 102 1269 71 60 60 60
internal_value=-3.16907e-06 -0.0153456 0.0187601 -0.0160179 -0.00484581 -0.0168313 0.00766798 -0.00075188 -0.0171971 -0.0131356 -0.0179396 -0.012 0.00451613 0.0023622 -0.0185905 -0.0166006 -0.0144954 -0.0188173 0.0198453 -0.0174648 0.017 0.0199841
internal_weight=1577.75 868 709.75 836.25 56.75 779.5 63.25 33.25 763.5 118 645.5 63.75 31 31.75 581.75 88.25 54.5 566.5 646.5 35.5 30 628.75
internal_count=6311 3472 2839 3345 227 3118 253 133 3054 472 2582 255 124 127 2327 353 218 2266 2586 142 120 2515
is_linear=0
shrinkage=0.01


Tree=1
num_leaves=30
num_cat=0
split_feature=13 3 3 7 6 28 13 3 11 9 3 19 9 3 17 28 6 13 3 13 0 11 6 28 10 13 12 6 0
split_gain=4451.94 168.592 125.171 71.4134 63.4277 59.1154 56.161 58.876 44.1532 21.4071 32.4015 20.6396 17.241 10.7752 10.1382 9.41067 14.5437 9.29993 4.0539 15.0792 1.55472 1.54437 1.23735 0.220525 0.0640064 0.000478247 0.000380107 0.000253444 2.68376e-06
threshold=-1.8204343044011211 1.4507067849365012 0.17734045033613652 -0.4081319817012839 2.3391163719522852 -0.3228329628794801 -0.6570148500185069 0.43009076682058556 0.065013378190672377 -1.6252863068191448 1.9035446239939353 -0.83651648689349101 0.38339171216162654 -0.31458383597546297 0.20416346833370153 0.78724705822174978 0.97327058993382265 -0.010781875311652898 0.76491358751873317 -0.19195105247006097 0.54867379608819911 -0.25234315920697897 0.85733311250189459 0.44664772142337356 1.0222698768853602 -3.4225932386309816 0.2144269249421876 0.42253053002993152 1.1151647529796651
decision_type=2 2 2 2 2 2 2 2 2 2 2 2 2 2 2 2 2 2 2 2 2 2 2 2 2 2 2 2 2
left_child=2 4 -1 -3 6 12 7 13 -9 24 -11 -8 -5 22 -15 18 -17 -7 23 -20 -12 -19 26 -13 -4 27 -2 28 -26
right_child=1 3 9 5 -6 17 11 8 -10 10 20 15 -14 14 -16 16 -18 21 19 -21 -22 -23 -24 -25 25 -27 -28 -29 -30
leaf_value=-0.0076474381430077856 -0.019888008902412133 0.0096068585542222491 0.019143408146612823 0.0098936526692173666 0.0020077547293868713 -0.0096561985279567334 -0.0074996994749159576 0.0060494424693810448 -0.014003440004723018 0.0024235036755883344 0.015820175829190316 -0.019748646761481428 -0.0048452179308827855 -0.017854756537192842 -0.0067576156828188742 -0.019842792157059055 -0.006551494761152573 -0.015603166061570219 -0.0091272908895466808 -0.019407809833612007 0.019842393533035369 -0.01983883750802137 -0.01650099360086223 -0.018535111890899986 0.019801986678460028 0.019858959854987798 -0.019826589121718929 0.019843727138007788 0.019806204083417746
leaf_weight=17.749313086271286 22.498901605606079 28.749288573861122 14.998594537377356 15.749335169792177 17.249905601143837 23.498640939593315 15.999685049057005 26.499420508742332 18.748823195695877 18.249512791633606 14.998645871877669 442.71140538156033 15.998916342854498 14.99902033805847 18.249353796243668 18.248697116971016 14.999398440122603 16.498907506465912 17.748659014701843 72.743854254484177 26.747768878936768 17.998721122741699 14.998817071318625 15.498753681778906 570.69291552901268 15.749082773923872 18.248518690466881 14.999056607484816 15.498515307903288
leaf_count=71 90 115 60 63 69 94 64 106 75 73 60 1771 64 60 73 73 60 66 71 291 107 72 60 62 2283 63 73 60 62
internal_value=-3.1376e-06 -0.0151933 0.0185743 -0.00410929 -0.0169458 -0.00850321 -0.0173923 -0.0115472 -0.00225956 0.0192469 0.0135384 -0.0187045 0.00246628 -0.0162694 -0.0117638 -0.0190126 -0.0138466 -0.0145081 -0.0193256 -0.0173915 0.0183973 -0.0178131 -0.0189566 -0.0197076 0.0197889 0.0198046 -0.0198605 0.0198031 0.0198021
internal_weight=1577.62 867.937 709.683 118.494 749.443 89.7445 732.193 134.243 45.2482 691.934 59.9959 597.95 31.7483 88.9946 33.2484 581.951 33.2481 57.9963 548.703 90.4925 41.7464 34.4976 55.7462 458.21 631.938 616.94 40.7474 601.19 586.191
internal_count=6311 3472 2839 474 2998 359 2929 537 181 2768 240 2392 127 356 133 2328 133 232 2195 362 167 138 223 1833 2528 2468 163 2405 2345
is_linear=0
shrinkage=0.01


Tree=2
num_leaves=32
num_cat=0
split_feature=13 3 3 7 6 13 3 14 5 11 19 11 3 12 3 27 15 13 6 3 3 13 11 24 6 2 13 12 6 20 6
split_gain=4364.44 165.312 122.729 69.998 62.1917 55.0833 57.7225 64.0628 38.2161 29.7356 20.2459 19.8026 24.1968 18.1059 10.5678 10.0692 10.0532 14.1312 7.28474 11.6257 4.14075 14.5574 1.23361 1.00946 0.616308 0.253672 0.000654689 0.000627353 0.000315774 5.74577e-05 3.32809e-06
threshold=-1.8204343044011211 1.4507067849365012 0.17734045033613652 -0.4081319817012839 2.3391163719522852 -0.6570148500185069 0.43009076682058556 -0.036531886856860908 -0.06859247609169368 -0.36965147251519909 -0.83651648689349101 -1.2731943896409497 1.9664207826074949 -0.7027238753497328 -0.31458383597546297 -0.0073260160008531807 0.50753938565268408 0.14576016423271651 1.2685059326233841 0.15855676616593303 0.76491358751873317 -0.19195105247006097 0.30860830182971905 0.20088614391196033 0.97327058993382265 -0.94546586907720942 -3.4225932386309816 -0.28629896424641194 0.50031003365557813 2.9733267007211919 -0.39720876764422658
decision_type=2 2 2 2 2 2 2 2 2 2 2 2 2 2 2 2 2 2 2 2 2 2 2 2 2 2 2 2 2 2 2
left_child=2 4 -1 -3 5 6 14 -8 9 -5 -7 25 -13 -9 22 -16 17 -10 20 -20 24 -22 27 -14 -12 26 28 -2 29 30 -4
right_child=1 3 11 8 -6 10 7 13 16 -11 18 12 23 -15 15 -17 -18 -19 19 -21 21 -23 -24 -25 -26 -27 -28 -29 -30 -31 -32
leaf_value=-0.0075709536924348014 -0.019725406194879107 0.0095108200539228659 0.019610083402828452 0.0081024616329372964 0.0019876827843431301 -0.0074248085660853788 -0.019135842359154529 0.013942272794490297 -0.005338752069590902 -0.010592713921014423 -0.019580224122973524 0.0051498583214314711 0.016318707766236645 -0.0015318736058939568 -0.01727677546782317 -0.0062670119162495444 -0.019713329234850904 -0.017807903508535675 -0.019643809861402212 -0.0077592478694178107 -0.0090328962394653749 -0.019101671606427829 -0.016319170838092634 0.019639703914257921 -0.017900046002969353 0.018297244915579096 0.019676783018858432 -0.019644040553178414 0.019656890001507756 0.019627783064302289 0.019614782803208119
leaf_weight=17.749335289001465 14.996837645769117 28.749196544289589 550.53224651515484 19.248140662908554 17.249851748347282 15.999457016587256 14.997494786977766 14.999644875526426 21.496518924832344 15.247152373194693 432.59242695569992 21.747553676366806 14.995039016008375 15.248318552970888 16.246639594435692 16.997803524136543 17.995924293994904 15.746390238404272 18.243808478116989 14.997357994318007 17.746833086013794 75.223517164587975 14.995204791426657 23.491655841469765 22.992011770606041 14.994609862565992 15.995379090309141 25.741397440433502 15.245349377393721 19.243027657270432 15.494016155600546
leaf_count=71 60 115 2203 77 69 64 60 60 86 61 1731 87 60 61 65 68 72 63 73 60 71 301 60 94 92 60 64 103 61 77 62
internal_value=-3.10551e-06 -0.0150446 0.0183936 -0.00406857 -0.0167802 -0.0172225 -0.0114334 -0.00223711 -0.00841916 -0.000160932 -0.0185223 0.0190598 0.0135814 0.00614159 -0.0161097 -0.0116475 -0.0135762 -0.0106107 -0.0188275 -0.0142819 -0.019103 -0.0171797 -0.0187714 0.0183458 -0.0194954 0.0195824 0.0196136 -0.019674 0.019612 0.0196108 0.0196102
internal_weight=1577.24 867.752 709.488 118.483 749.269 732.019 134.223 45.2455 89.7341 34.4953 597.795 691.739 60.2342 30.248 88.9779 33.2444 55.2388 37.2429 581.796 33.2412 548.555 92.9704 55.7334 38.4867 455.584 631.505 616.51 40.7382 600.515 585.269 566.026
internal_count=6311 3472 2839 474 2998 2929 537 181 359 138 2392 2768 241 121 356 133 221 149 2328 133 2195 372 223 154 1823 2527 2467 163 2403 2342 2265
is_linear=0
shrinkage=0.01


Tree=3
num_leaves=24
num_cat=0
split_feature=13 19 13 16 7 6 17 18 28 20 13 12 14 27 22 6 18 27 13 25 2 9 10
split_gain=4279.54 100.912 98.6264 58.5568 57.782 47.0588 31.0333 30.9069 41.0201 25.3418 20.1348 38.4345 52.0471 14.8517 13.258 10.4931 8.24722 4.04354 0.534822 0.000828331 0.000551785 0.00022093 7.68781e-05
threshold=-1.7314754286071932 -0.89947700425965449 -2.8495281179505221 1.1433368014271654 0.24446358948555577 2.3391163719522852 0.32903745922276595 -0.7418817246735151 -0.19323500932766022 -0.90679996063075874 -0.49908662084654948 -0.56136872535888849 0.013937191759076652 0.097301321368435903 0.59278749537819508 0.58280515156501811 -1.3950403128198259 -0.012862317190763898 -3.4225932386309816 -0.64927672930077274 -0.89442732544820147 -1.7151672293709106 2.0471749270862105
decision_type=2 2 2 2 2 2 2 2 2 2 2 2 2 2 2 2 2 2 2 2 2 2 2
left_child=2 13 15 5 6 9 -5 -4 -9 -3 11 12 -11 -2 16 18 -12 -13 19 -1 21 22 -21
right_child=1 3 7 4 -6 -7 -8 8 -10 10 14 17 -14 -15 -16 -17 -18 -19 -20 20 -22 -23 -24
leaf_value=0.019501814997721825 -0.0044418965144612989 -0.0051942376015313993 0.014899683731697227 -0.0085266116816891408 -0.019588970572850934 0.00057286515976601778 0.010573756537750494 -0.012335034691181886 0.009303530688232732 -0.017573634745561631 -0.012920913216362646 -0.019072355027025322 0.0048091019962938518 0.0092933433501823769 -0.0093252521334491641 0.012433183744355354 -0.01844228646306087 -0.015268686464338892 0.017517489867839995 0.019435523957713769 0.019484224384809148 0.019463154049630758 0.019423354107550528
leaf_weight=15.238545894622801 15.498556241393091 18.49323758482933 21.485703244805336 15.243349865078924 18.990089058876038 15.999545276165007 19.246841713786125 15.746951803565024 19.746591508388519 19.491573393344879 28.485017985105515 47.716133534908295 22.245816722512245 15.998666465282438 17.49175913631916 22.485606417059898 538.0805886387825 67.462676778435707 14.99010421335697 57.700476184487343 16.488200783729553 15.238314121961592 517.04388517141342
leaf_count=61 62 74 86 61 76 64 77 63 79 78 114 191 89 64 70 90 2154 270 60 231 66 61 2070
internal_value=-3.07459e-06 -0.0150339 0.0180558 -0.0157014 -0.00558073 -0.0163994 0.00213212 0.00543363 -0.000296566 -0.0167569 -0.0170455 -0.0138652 -0.00564375 0.00253477 -0.0179 0.0191469 -0.0181647 -0.0168445 0.019384 0.019429 0.0194272 0.0194256 0.0194246
internal_weight=1576.61 860.444 716.164 828.947 53.4803 775.466 34.4902 56.9792 35.4935 759.467 740.974 156.916 41.7374 31.4972 584.057 659.185 566.566 115.179 636.7 621.709 606.471 589.983 574.744
internal_count=6311 3444 2867 3318 214 3104 138 228 142 3040 2966 628 167 126 2338 2639 2268 461 2549 2489 2428 2362 2301
is_linear=0
shrinkage=0.01


end of trees

feature_importances:
V14=18
V7=14
V4=13
V12=5
V13=5
V20=5
V28=5
V1=4
Amount_scaled=4
V8=3
V10=3
V18=3
V19=3
V3=2
V6=2
V9=2
V11=2
V15=2
V17=2
V21=2
V26=2
V16=1
V23=1
V25=1
V27=1

parameters:
[boosting: gbdt]
[objective: binary]
[metric: auc]
[tree_learner: serial]
[device_type: cpu]
[data_sample_strategy: bagging]
[data: ]
[valid: ]
[num_iterations: 10000]
[learning_rate: 0.01]
[num_leaves: 40]
[num_threads: 0]
[seed: 0]
[deterministic: 0]
[force_col_wise: 0]
[force_row_wise: 0]
[histogram_pool_size: -1]
[max_depth: 8]
[min_data_in_leaf: 60]
[min_sum_hessian_in_leaf: 0.001]
[bagging_fraction: 0.8]
[pos_bagging_fraction: 1]
[neg_bagging_fraction: 1]
[bagging_freq: 5]
[bagging_seed: 3]
[bagging_by_query: 0]
[feature_fraction: 0.8]
[feature_fraction_bynode: 1]
[feature_fraction_seed: 2]
[extra_trees: 0]
[extra_seed: 6]
[early_stopping_round: 0]
[early_stopping_min_delta: 0]
[first_metric_only: 0]
[max_delta_step: 0]
[lambda_l1: 0]
[lambda_l2: 0]
[linear_lambda: 0]
[min_gain_to_split: 0]
[drop_rate: 0.1]
[max_drop: 50]
[skip_drop: 0.5]
[xgboost_dart_mode: 0]
[uniform_drop: 0]
[drop_seed: 4]
[top_rate: 0.2]
[other_rate: 0.1]
[min_data_per_group: 100]
[max_cat_threshold: 32]
[cat_l2: 10]
[cat_smooth: 10]
[max_cat_to_onehot: 4]
[top_k: 20]
[monotone_constraints: ]
[monotone_constraints_method: basic]
[monotone_penalty: 0]
[feature_contri: ]
[forcedsplits_filename: ]
[refit_decay_rate: 0.9]
[cegb_tradeoff: 1]
[cegb_penalty_split: 0]
[cegb_penalty_feature_lazy: ]
[cegb_penalty_feature_coupled: ]
[path_smooth: 0]
[interaction_constraints: ]
[verbosity: -1]
[saved_feature_importance_type: 0]
[use_quantized_grad: 0]
[num_grad_quant_bins: 4]
[quant_train_renew_leaf: 0]
[stochastic_rounding: 1]
[linear_tree: 0]
[max_bin: 255]
[max_bin_by_feature: ]
[min_data_in_bin: 3]
[bin_construct_sample_cnt: 200000]
[data_random_seed: 1]
[is_enable_sparse: 1]
[enable_bundle: 1]
[use_missing: 1]
[zero_as_missing: 0]
[feature_pre_filter: 1]
[pre_partition: 0]
[two_round: 0]
[header: 0]
[label_column: ]
[weight_column: ]
[group_column: ]
[ignore_column: ]
[categorical_feature: ]
[forcedbins_filename: ]
[precise_float_parser: 0]
[parser_config_file: ]
[objective_seed: 5]
[num_class: 1]
[is_unbalance: 0]
[scale_pos_weight: 1]
[sigmoid: 1]
[boost_from_average: 1]
[reg_sqrt: 0]
[alpha: 0.9]
[fair_c: 1]
[poisson_max_delta_step: 0.7]
[tweedie_variance_power: 1.5]
[lambdarank_truncation_level: 30]
[lambdarank_norm: 1]
[label_gain: ]
[lambdarank_position_bias_regularization: 0]
[eval_at: ]
[multi_error_top_k: 1]
[auc_mu_weights: ]
[num_machines: 1]
[local_listen_port: 12400]
[time_out: 120]
[machine_list_filename: ]
[machines: ]
[gpu_platform_id: -1]
[gpu_device_id: -1]
[gpu_use_dp: 0]
[num_gpu: 1]

end of parameters

pandas_categorical:[]
