{"learner":{"attributes":{"best_iteration":"36","best_score":"0.9757217004697208"},"feature_names":["V1","V2","V3","V4","V5","V6","V7","V8","V9","V10","V11","V12","V13","V14","V15","V16","V17","V18","V19","V20","V21","V22","V23","V24","V25","V26","V27","V28","Amount_scaled"],"feature_types":["float","float","float","float","float","float","float","float","float","float","float","float","float","float","float","float","float","float","float","float","float","float","float","float","float","float","float","float","float"],"gradient_booster":{"model":{"gbtree_model_param":{"num_parallel_tree":"1","num_trees":"137"},"iteration_indptr":[0,1,2,3,4,5,6,7,8,9,10,11,12,13,14,15,16,17,18,19,20,21,22,23,24,25,26,27,28,29,30,31,32,33,34,35,36,37,38,39,40,41,42,43,44,45,46,47,48,49,50,51,52,53,54,55,56,57,58,59,60,61,62,63,64,65,66,67,68,69,70,71,72,73,74,75,76,77,78,79,80,81,82,83,84,85,86,87,88,89,90,91,92,93,94,95,96,97,98,99,100,101,102,103,104,105,106,107,108,109,110,111,112,113,114,115,116,117,118,119,120,121,122,123,124,125,126,127,128,129,130,131,132,133,134,135,136,137],"tree_info":[0,0,0,0,0,0,0,0,0,0,0,0,0,0,0,0,0,0,0,0,0,0,0,0,0,0,0,0,0,0,0,0,0,0,0,0,0,0,0,0,0,0,0,0,0,0,0,0,0,0,0,0,0,0,0,0,0,0,0,0,0,0,0,0,0,0,0,0,0,0,0,0,0,0,0,0,0,0,0,0,0,0,0,0,0,0,0,0,0,0,0,0,0,0,0,0,0,0,0,0,0,0,0,0,0,0,0,0,0,0,0,0,0,0,0,0,0,0,0,0,0,0,0,0,0,0,0,0,0,0,0,0,0,0,0,0,0],"trees":[{"base_weights":[-1.411161E-2,1.8786128E0,-1.5230415E0,1.9887686E-2,8.673836E-3,-1.8235294E0,-8.015564E-1,-1.9458897E-2,-1.3660377E0,3.3232628E-3,-1.3323823E0,-7.1020406E-3,-1.9031141E-2,-8.22695E-3,-1.6595745E-2],"categories":[],"categories_nodes":[],"categories_segments":[],"categories_sizes":[],"default_left":[0,0,0,0,0,0,0,0,0,0,0,0,0,0,0],"id":0,"left_children":[1,3,5,-1,-1,7,9,-1,11,-1,13,-1,-1,-1,-1],"loss_changes":[4.4553467E3,7.535889E1,1.8671863E2,0E0,0E0,3.160083E1,1.5512962E2,0E0,4.531926E1,0E0,2.7860352E1,0E0,0E0,0E0,0E0],"parents":[2147483647,0,0,1,1,2,2,5,5,6,6,8,8,10,10],"right_children":[2,4,6,-1,-1,8,10,-1,12,-1,14,-1,-1,-1,-1],"split_conditions":[-1.8576362E0,-1.3465993E0,7.4406105E-1,1.9887686E-2,8.673836E-3,7.1955043E-1,-4.4742262E-1,-1.9458897E-2,-8.9888304E-2,3.3232628E-3,-1.9226065E-1,-7.1020406E-3,-1.9031141E-2,-8.22695E-3,-1.6595745E-2],"split_indices":[13,11,3,0,0,6,11,0,25,0,13,0,0,0,0],"split_type":[0,0,0,0,0,0,0,0,0,0,0,0,0,0,0],"sum_hessian":[1.558E3,6.91E2,8.67E2,6.2225E2,6.875E1,6.11E2,2.56E2,4.795E2,1.315E2,8.175E1,1.7425E2,6.025E1,7.125E1,6.95E1,1.0475E2],"tree_param":{"num_deleted":"0","num_feature":"29","num_nodes":"15","size_leaf_vector":"1"}},{"base_weights":[-5.99614E-3,1.8570215E0,-1.5143957E0,1.9681778E-2,8.045737E-3,-1.8120174E0,-7.9244536E-1,-1.8811216E0,-1.2599428E-2,3.7070797E-4,-1.4046788E0,-1.4747183E-2,-1.9616598E-2,-9.791385E-3,-1.6946945E-2],"categories":[],"categories_nodes":[],"categories_segments":[],"categories_sizes":[],"default_left":[0,0,0,0,0,0,0,0,0,0,0,0,0,0,0],"id":1,"left_children":[1,3,5,-1,-1,7,9,11,-1,-1,13,-1,-1,-1,-1],"loss_changes":[4.441832E3,8.114746E1,1.8623804E2,0E0,0E0,2.119519E1,1.3044008E2,1.5009644E1,0E0,0E0,1.6574097E1,0E0,0E0,0E0,0E0],"parents":[2147483647,0,0,1,1,2,2,5,5,6,6,7,7,10,10],"right_children":[2,4,6,-1,-1,8,10,12,-1,-1,14,-1,-1,-1,-1],"split_conditions":[-1.8576362E0,-1.5795476E0,7.4406105E-1,1.9681778E-2,8.045737E-3,4.6345967E-1,-2.1362914E-1,-6.6310203E-1,-1.2599428E-2,3.7070797E-4,-1.2413879E-1,-1.4747183E-2,-1.9616598E-2,-9.791385E-3,-1.6946945E-2],"split_indices":[13,9,3,0,0,28,11,13,0,0,13,0,0,0,0],"split_type":[0,0,0,0,0,0,0,0,0,0,0,0,0,0,0],"sum_hessian":[1.5786241E3,7.061859E2,8.724382E2,6.379386E2,6.824734E1,6.166969E2,2.557413E2,5.459518E2,7.0745125E1,1.089985E2,1.467428E2,9.349229E1,4.5245947E2,6.124868E1,8.549412E1],"tree_param":{"num_deleted":"0","num_feature":"29","num_nodes":"15","size_leaf_vector":"1"}},{"base_weights":[-8.514508E-3,1.8258897E0,-1.517911E0,1.937201E-2,7.6861414E-3,-1.7219408E0,-3.835877E-1,-1.2149459E0,-1.8265859E0,2.9682587E-3,-1.0762516E-2,-1.7571392E-2,-6.2320028E-3,-1.911092E0,-1.087353E-2,-1.9430317E-2,-1.713041E-2],"categories":[],"categories_nodes":[],"categories_segments":[],"categories_sizes":[],"default_left":[0,0,0,0,0,0,0,0,0,0,0,0,0,0,0,0,0],"id":2,"left_children":[1,3,5,-1,-1,7,9,11,13,-1,-1,-1,-1,15,-1,-1,-1],"loss_changes":[4.3519653E3,8.201001E1,1.9889832E2,0E0,0E0,3.653833E1,6.2878315E1,3.996347E1,3.56261E1,0E0,0E0,0E0,0E0,8.935547E-2,0E0,0E0,0E0],"parents":[2147483647,0,0,1,1,2,2,5,5,6,6,7,7,8,8,13,13],"right_children":[2,4,6,-1,-1,8,10,12,14,-1,-1,-1,-1,16,-1,-1,-1],"split_conditions":[-1.7656939E0,-3.267286E0,1.3796189E0,1.937201E-2,7.6861414E-3,-6.391796E-1,2.8940296E-2,-7.55867E-2,5.5971617E-1,2.9682587E-3,-1.0762516E-2,-1.7571392E-2,-6.2320028E-3,7.655082E-1,-1.087353E-2,-1.9430317E-2,-1.713041E-2],"split_indices":[13,13,3,0,0,13,7,3,28,0,0,0,0,3,0,0,0],"split_type":[0,0,0,0,0,0,0,0,0,0,0,0,0,0,0,0,0],"sum_hessian":[1.569762E3,7.0849817E2,8.6126385E2,6.402586E2,6.8239525E1,7.295265E2,1.3173737E2,1.26971794E2,6.025547E2,6.674464E1,6.499272E1,6.5232445E1,6.173935E1,5.393169E2,6.323775E1,4.568327E2,8.2484215E1],"tree_param":{"num_deleted":"0","num_feature":"29","num_nodes":"17","size_leaf_vector":"1"}},{"base_weights":[2.123009E-2,1.8193394E0,-1.4589871E0,1.925035E-2,8.084765E-3,-1.7550422E0,-7.426077E-1,-1.826748E0,-1.1313081E-2,4.414946E-3,-1.111457E0,-1.3998464E-2,-1.9155579E-2,-2.7513667E-3,-1.4980065E0,-1.8003063E-2,-1.109611E-2],"categories":[],"categories_nodes":[],"categories_segments":[],"categories_sizes":[],"default_left":[0,0,0,0,0,0,0,0,0,0,0,0,0,0,0,0,0],"id":3,"left_children":[1,3,5,-1,-1,7,9,11,-1,-1,13,-1,-1,-1,15,-1,-1],"loss_changes":[4.235026E3,7.520361E1,1.8379297E2,0E0,0E0,2.5519775E1,1.1270964E2,1.8230469E1,0E0,0E0,6.3013794E1,0E0,0E0,0E0,1.3730011E1,0E0,0E0],"parents":[2147483647,0,0,1,1,2,2,5,5,6,6,7,7,10,10,14,14],"right_children":[2,4,6,-1,-1,8,10,12,-1,-1,14,-1,-1,-1,16,-1,-1],"split_conditions":[-1.8576362E0,-1.5795476E0,7.655082E-1,1.925035E-2,8.084765E-3,4.8692954E-1,-3.0081323E-1,-6.6310203E-1,-1.1313081E-2,4.414946E-3,-3.1390405E-1,-1.3998464E-2,-1.9155579E-2,-2.7513667E-3,-2.2573264E-1,-1.8003063E-2,-1.109611E-2],"split_indices":[13,9,3,0,0,28,7,13,0,0,13,0,0,0,25,0,0],"split_type":[0,0,0,0,0,0,0,0,0,0,0,0,0,0,0,0,0],"sum_hessian":[1.5891653E3,7.174303E2,8.71735E2,6.486981E2,6.873216E1,6.1579724E2,2.5593777E2,5.5057336E2,6.522388E1,6.074229E1,1.951955E2,9.7699875E1,4.5287347E2,6.224244E1,1.3295305E2,7.271869E1,6.0234367E1],"tree_param":{"num_deleted":"0","num_feature":"29","num_nodes":"17","size_leaf_vector":"1"}},{"base_weights":[-2.722015E-4,1.8360047E0,-1.3173459E0,1.9189646E-2,1.0084166E-2,-1.5995735E0,2.2511348E-1,-1.7545291E0,-1.0231918E0,-6.561458E-3,1.0972459E-2,-1.8398069E0,-1.2108045E-2,-1.656066E-2,-3.1871193E-3,-1.8812388E-2,-1.6203314E-2],"categories":[],"categories_nodes":[],"categories_segments":[],"categories_sizes":[],"default_left":[0,0,0,0,0,0,0,0,0,0,0,0,0,0,0,0,0],"id":4,"left_children":[1,3,5,-1,-1,7,9,11,13,-1,-1,15,-1,-1,-1,-1,-1],"loss_changes":[3.8015647E3,4.313965E1,3.98828E2,0E0,0E0,6.7322876E1,1.10205864E2,2.5987549E1,7.3647385E1,0E0,0E0,1.7175293E0,0E0,0E0,0E0,0E0,0E0],"parents":[2147483647,0,0,1,1,2,2,5,5,6,6,7,7,8,8,11,11],"right_children":[2,4,6,-1,-1,8,10,12,14,-1,-1,16,-1,-1,-1,-1,-1],"split_conditions":[-1.8456665E0,-2.5306077E0,1.6337242E0,1.9189646E-2,1.0084166E-2,5.595723E-1,4.3917483E-1,9.728947E-1,3.8260892E-1,-6.561458E-3,1.0972459E-2,7.655082E-1,-1.2108045E-2,-1.656066E-2,-3.1871193E-3,-1.8812388E-2,-1.6203314E-2],"split_indices":[9,11,3,0,0,16,10,6,3,0,0,3,0,0,0,0,0],"split_type":[0,0,0,0,0,0,0,0,0,0,0,0,0,0,0,0,0],"sum_hessian":[1.569861E3,6.5552606E2,9.143349E2,5.946026E2,6.0923492E1,7.728817E2,1.4145314E2,6.075127E2,1.6536903E2,7.0481606E1,7.0971535E1,5.230879E2,8.442481E1,8.640012E1,7.89689E1,4.3365237E2,8.9435524E1],"tree_param":{"num_deleted":"0","num_feature":"29","num_nodes":"17","size_leaf_vector":"1"}},{"base_weights":[3.514601E-3,1.7880845E0,-1.4498243E0,1.8964285E-2,7.945059E-3,-5.3463476E-3,-1.5888908E0,-6.5876544E-3,-1.705699E0,-1.1151974E-2,-1.770395E0,-1.8102584E0,-1.46299265E-2,-1.8728286E-2,-1.6399658E0,-1.3079649E-2,-1.877089E-2],"categories":[],"categories_nodes":[],"categories_segments":[],"categories_sizes":[],"default_left":[0,0,0,0,0,0,0,0,0,0,0,0,0,0,0,0,0],"id":5,"left_children":[1,3,5,-1,-1,-1,7,-1,9,-1,11,13,-1,-1,15,-1,-1],"loss_changes":[4.0981763E3,7.484155E1,1.09989746E2,0E0,0E0,0E0,8.095825E1,0E0,2.3643799E1,0E0,4.7368164E0,2.5681152E0,0E0,0E0,9.37381E0,0E0,0E0],"parents":[2147483647,0,0,1,1,2,2,6,6,8,8,10,10,11,11,14,14],"right_children":[2,4,6,-1,-1,-1,8,-1,10,-1,12,14,-1,-1,16,-1,-1],"split_conditions":[-1.8576362E0,-1.2786313E0,-4.2408958E-1,1.8964285E-2,7.945059E-3,-5.3463476E-3,-9.25824E-1,-6.5876544E-3,-1.0506274E0,-1.1151974E-2,9.0884286E-1,3.1671515E-1,-1.46299265E-2,-1.8728286E-2,3.196043E-2,-1.3079649E-2,-1.877089E-2],"split_indices":[13,11,7,0,0,0,13,0,18,0,18,24,0,0,13,0,0],"split_type":[0,0,0,0,0,0,0,0,0,0,0,0,0,0,0,0,0],"sum_hessian":[1.5781207E3,7.0823785E2,8.6988293E2,6.3778265E2,7.045522E1,1.15384926E2,7.54498E2,8.492139E1,6.695766E2,6.791672E1,6.016599E2,5.2826636E2,7.339352E1,3.790099E2,1.4925648E2,6.490195E1,8.435454E1],"tree_param":{"num_deleted":"0","num_feature":"29","num_nodes":"17","size_leaf_vector":"1"}},{"base_weights":[9.852539E-3,1.7595779E0,-1.4522458E0,1.8822692E-2,7.6063178E-3,-5.065042E-3,-1.5957127E0,-9.871835E-1,-1.724667E0,-3.6923832E-3,-1.5171938E-2,-1.7755154E0,-1.256308E-2,-1.6098688E0,-1.8402375E-2,-1.8288612E-2,-1.3746496E-2],"categories":[],"categories_nodes":[],"categories_segments":[],"categories_sizes":[],"default_left":[0,0,0,0,0,0,0,0,0,0,0,0,0,0,0,0,0],"id":6,"left_children":[1,3,5,-1,-1,-1,7,9,11,-1,-1,13,-1,15,-1,-1,-1],"loss_changes":[4.00741E3,8.596509E1,1.1497925E2,0E0,0E0,0E0,5.6406372E1,4.2613358E1,1.2289307E1,0E0,0E0,2.9077148E0,0E0,5.8216248E0,0E0,0E0,0E0],"parents":[2147483647,0,0,1,1,2,2,6,6,7,7,8,8,11,11,13,13],"right_children":[2,4,6,-1,-1,-1,8,10,12,-1,-1,14,-1,16,-1,-1,-1],"split_conditions":[-1.7656939E0,-1.5857611E0,-4.2408958E-1,1.8822692E-2,7.6063178E-3,-5.065042E-3,-6.6310203E-1,-2.751895E-1,8.968778E-1,-3.6923832E-3,-1.5171938E-2,-3.225241E-1,-1.256308E-2,-2.5225643E-2,-1.8402375E-2,-1.8288612E-2,-1.3746496E-2],"split_indices":[13,11,7,0,0,0,13,12,6,0,0,28,0,12,0,0,0],"split_type":[0,0,0,0,0,0,0,0,0,0,0,0,0,0,0,0,0],"sum_hessian":[1.5644539E3,7.120839E2,8.5236993E2,6.3340436E2,7.8679565E1,1.1286799E2,7.3950195E2,1.308207E2,6.086812E2,6.1183178E1,6.963751E1,5.465527E2,6.2128574E1,1.608231E2,3.8572955E2,7.977563E1,8.1047485E1],"tree_param":{"num_deleted":"0","num_feature":"29","num_nodes":"17","size_leaf_vector":"1"}},{"base_weights":[-1.580748E-2,1.7640159E0,-1.4421356E0,1.855401E-2,8.269701E-3,-1.7200657E0,-7.704524E-1,-1.8302776E-2,-1.324592E0,3.1922832E-3,-1.1089004E0,-6.754869E-3,-1.8209802E-2,-3.5189171E-3,-1.4529068E0,-1.7949952E-2,-1.0149804E-2],"categories":[],"categories_nodes":[],"categories_segments":[],"categories_sizes":[],"default_left":[0,0,0,0,0,0,0,0,0,0,0,0,0,0,0,0,0],"id":7,"left_children":[1,3,5,-1,-1,7,9,-1,11,-1,13,-1,-1,-1,15,-1,-1],"loss_changes":[3.9737751E3,5.80979E1,1.6089221E2,0E0,0E0,2.4329468E1,9.481639E1,0E0,4.304094E1,0E0,5.0440994E1,0E0,0E0,0E0,1.8283356E1,0E0,0E0],"parents":[2147483647,0,0,1,1,2,2,5,5,6,6,8,8,10,10,14,14],"right_children":[2,4,6,-1,-1,8,10,-1,12,-1,14,-1,-1,-1,16,-1,-1],"split_conditions":[-1.8576362E0,-1.4958119E0,7.4406105E-1,1.855401E-2,8.269701E-3,7.1955043E-1,-3.0081323E-1,-1.8302776E-2,-8.214269E-2,3.1922832E-3,-3.1390405E-1,-6.754869E-3,-1.8209802E-2,-3.5189171E-3,-2.2143555E-1,-1.7949952E-2,-1.0149804E-2],"split_indices":[13,9,3,0,0,6,7,0,25,0,13,0,0,0,25,0,0],"split_type":[0,0,0,0,0,0,0,0,0,0,0,0,0,0,0,0,0],"sum_hessian":[1.5633317E3,6.953777E2,8.67954E2,6.3269434E2,6.2683372E1,6.128197E2,2.5513425E2,4.76421E2,1.3639873E2,6.0476974E1,1.9465727E2,6.0130085E1,7.626865E1,6.14517E1,1.3320557E2,7.304628E1,6.015929E1],"tree_param":{"num_deleted":"0","num_feature":"29","num_nodes":"17","size_leaf_vector":"1"}},{"base_weights":[7.3602204E-3,1.7397053E0,-1.408577E0,1.8482918E-2,8.314518E-3,-1.7035434E0,-7.1241724E-1,-1.8125385E-2,-1.3024776E0,1.407429E-3,-1.3364899E0,-6.527727E-3,-1.814913E-2,-1.6509248E-2,-9.932724E-3],"categories":[],"categories_nodes":[],"categories_segments":[],"categories_sizes":[],"default_left":[0,0,0,0,0,0,0,0,0,0,0,0,0,0,0],"id":8,"left_children":[1,3,5,-1,-1,7,9,-1,11,-1,13,-1,-1,-1,-1],"loss_changes":[3.9100437E3,6.916919E1,1.7890027E2,0E0,0E0,2.4539795E1,1.4009045E2,0E0,4.3778717E1,0E0,1.4747742E1,0E0,0E0,0E0,0E0],"parents":[2147483647,0,0,1,1,2,2,5,5,6,6,8,8,10,10],"right_children":[2,4,6,-1,-1,8,10,-1,12,-1,14,-1,-1,-1,-1],"split_conditions":[-1.8576362E0,-1.5857611E0,7.4406105E-1,1.8482918E-2,8.314518E-3,7.1955043E-1,-2.1362914E-1,-1.8125385E-2,-8.750487E-2,1.407429E-3,-2.5044307E-1,-6.527727E-3,-1.814913E-2,-1.6509248E-2,-9.932724E-3],"split_indices":[13,11,3,0,0,6,11,0,25,0,25,0,0,0,0],"split_type":[0,0,0,0,0,0,0,0,0,0,0,0,0,0,0],"sum_hessian":[1.5920557E3,7.159227E2,8.761329E2,6.3854614E2,7.737659E1,6.143728E2,2.6176007E2,4.803199E2,1.3405293E2,1.1091049E2,1.5084956E2,6.0112083E1,7.394084E1,7.673734E1,7.411221E1],"tree_param":{"num_deleted":"0","num_feature":"29","num_nodes":"15","size_leaf_vector":"1"}},{"base_weights":[2.931744E-2,1.7194294E0,-1.3959144E0,1.8298889E-2,7.240896E-3,-5.162205E-3,-1.5349876E0,-7.5690644E-3,-1.6595304E0,-1.1254106E-2,-1.7176896E0,-1.7559882E0,-1.3821589E-2,-1.823946E-2,-1.5826428E0,-1.2422746E-2,-1.8188437E-2],"categories":[],"categories_nodes":[],"categories_segments":[],"categories_sizes":[],"default_left":[0,0,0,0,0,0,0,0,0,0,0,0,0,0,0,0,0],"id":9,"left_children":[1,3,5,-1,-1,-1,7,-1,9,-1,11,13,-1,-1,15,-1,-1],"loss_changes":[3.780158E3,7.760791E1,1.0336731E2,0E0,0E0,0E0,6.9934814E1,0E0,1.7713379E1,0E0,4.8776855E0,3.0800781E0,0E0,0E0,9.816376E0,0E0,0E0],"parents":[2147483647,0,0,1,1,2,2,6,6,8,8,10,10,11,11,14,14],"right_children":[2,4,6,-1,-1,-1,8,-1,10,-1,12,14,-1,-1,16,-1,-1],"split_conditions":[-1.8576362E0,-1.3465993E0,-4.2408958E-1,1.8298889E-2,7.240896E-3,-5.162205E-3,-7.873289E-1,-7.5690644E-3,-1.0506274E0,-1.1254106E-2,3.3511248E-1,3.2976666E-1,-1.3821589E-2,-1.823946E-2,3.8805977E-2,-1.2422746E-2,-1.8188437E-2],"split_indices":[13,11,7,0,0,0,13,0,18,0,22,24,0,0,13,0,0],"split_type":[0,0,0,0,0,0,0,0,0,0,0,0,0,0,0,0,0],"sum_hessian":[1.5673143E3,7.169328E2,8.5038153E2,6.4456287E2,7.236995E1,1.16729836E2,7.336517E2,1.022048E2,6.314469E2,6.400364E1,5.6744324E2,5.0550934E2,6.193391E1,3.5630313E2,1.492062E2,6.3689053E1,8.551716E1],"tree_param":{"num_deleted":"0","num_feature":"29","num_nodes":"17","size_leaf_vector":"1"}},{"base_weights":[4.918055E-3,1.7032002E0,-1.4165484E0,1.8062957E-2,6.841658E-3,-1.689596E0,-7.5252485E-1,-1.744098E0,-1.1773704E-2,3.5694954E-3,-1.1107304E0,-1.3801989E-2,-1.815334E-2,-3.8286727E-3,-1.4923557E0,-1.749373E-2,-1.2018649E-2],"categories":[],"categories_nodes":[],"categories_segments":[],"categories_sizes":[],"default_left":[0,0,0,0,0,0,0,0,0,0,0,0,0,0,0,0,0],"id":10,"left_children":[1,3,5,-1,-1,7,9,11,-1,-1,13,-1,-1,-1,15,-1,-1],"loss_changes":[3.789114E3,7.389819E1,1.5364746E2,0E0,0E0,1.48272705E1,1.0005899E2,1.1607788E1,0E0,0E0,5.2153046E1,0E0,0E0,0E0,7.1687927E0,0E0,0E0],"parents":[2147483647,0,0,1,1,2,2,5,5,6,6,7,7,10,10,14,14],"right_children":[2,4,6,-1,-1,8,10,12,-1,-1,14,-1,-1,-1,16,-1,-1],"split_conditions":[-1.7656939E0,-3.267286E0,7.4406105E-1,1.8062957E-2,6.841658E-3,5.5971617E-1,-3.0081323E-1,-6.6310203E-1,-1.1773704E-2,3.5694954E-3,-1.9226065E-1,-1.3801989E-2,-1.815334E-2,-3.8286727E-3,-5.703916E-2,-1.749373E-2,-1.2018649E-2],"split_indices":[13,13,3,0,0,28,7,13,0,0,13,0,0,0,12,0,0],"split_type":[0,0,0,0,0,0,0,0,0,0,0,0,0,0,0,0,0],"sum_hessian":[1.5676088E3,7.14167E2,8.534418E2,6.4785144E2,6.6315575E1,6.036679E2,2.4977385E2,5.4343976E2,6.0228146E1,6.096127E1,1.8881258E2,9.230213E1,4.5113763E2,6.563398E1,1.231786E2,6.2690125E1,6.0488472E1],"tree_param":{"num_deleted":"0","num_feature":"29","num_nodes":"17","size_leaf_vector":"1"}},{"base_weights":[3.2557768E-3,1.6954668E0,-1.3797663E0,1.79479E-2,6.9775525E-3,-1.664754E0,-6.8743986E-1,-1.7687157E-2,-1.2753503E0,1.6708323E-3,-1.3120996E0,-6.7451466E-3,-1.760677E-2,-9.063451E-3,-1.5934147E-2],"categories":[],"categories_nodes":[],"categories_segments":[],"categories_sizes":[],"default_left":[0,0,0,0,0,0,0,0,0,0,0,0,0,0,0],"id":11,"left_children":[1,3,5,-1,-1,7,9,-1,11,-1,13,-1,-1,-1,-1],"loss_changes":[3.7038062E3,6.927722E1,1.7067749E2,0E0,0E0,2.2690063E1,1.3667892E2,0E0,3.7720993E1,0E0,1.5426285E1,0E0,0E0,0E0,0E0],"parents":[2147483647,0,0,1,1,2,2,5,5,6,6,8,8,10,10],"right_children":[2,4,6,-1,-1,8,10,-1,12,-1,14,-1,-1,-1,-1],"split_conditions":[-1.8576362E0,-1.5795476E0,7.4406105E-1,1.79479E-2,6.9775525E-3,7.1955043E-1,-2.1362914E-1,-1.7687157E-2,-5.0812162E-2,1.6708323E-3,-1.2413879E-1,-6.7451466E-3,-1.760677E-2,-9.063451E-3,-1.5934147E-2],"split_indices":[13,9,3,0,0,6,11,0,25,0,13,0,0,0,0],"split_type":[0,0,0,0,0,0,0,0,0,0,0,0,0,0,0],"sum_hessian":[1.5805767E3,7.1072986E2,8.6984674E2,6.456553E2,6.507457E1,6.152019E2,2.5464488E2,4.8277112E2,1.3243076E2,1.0784602E2,1.4679886E2,6.0241486E1,7.218928E1,6.1834183E1,8.4964676E1],"tree_param":{"num_deleted":"0","num_feature":"29","num_nodes":"15","size_leaf_vector":"1"}},{"base_weights":[1.0895509E-2,1.6766374E0,-1.3727651E0,1.7805113E-2,6.959752E-3,-1.6486052E0,-7.1731085E-1,-1.7096032E0,-1.1145286E-2,2.67845E-3,-1.0389351E0,-1.3681955E-2,-1.7881379E-2,-4.31745E-3,-1.316593E0,-8.973762E-3,-1.7165843E-2],"categories":[],"categories_nodes":[],"categories_segments":[],"categories_sizes":[],"default_left":[0,0,0,0,0,0,0,0,0,0,0,0,0,0,0,0,0],"id":12,"left_children":[1,3,5,-1,-1,7,9,11,-1,-1,13,-1,-1,-1,15,-1,-1],"loss_changes":[3.614106E3,7.1238525E1,1.5368433E2,0E0,0E0,1.7709229E1,8.122563E1,1.1991943E1,0E0,0E0,3.1936432E1,0E0,0E0,0E0,2.0562714E1,0E0,0E0],"parents":[2147483647,0,0,1,1,2,2,5,5,6,6,7,7,10,10,14,14],"right_children":[2,4,6,-1,-1,8,10,12,-1,-1,14,-1,-1,-1,16,-1,-1],"split_conditions":[-1.7656939E0,-1.4958119E0,7.4406105E-1,1.7805113E-2,6.959752E-3,5.5971617E-1,-4.9304172E-1,-5.966389E-1,-1.1145286E-2,2.67845E-3,-9.740867E-2,-1.3681955E-2,-1.7881379E-2,-4.31745E-3,7.808915E-2,-8.973762E-3,-1.7165843E-2],"split_indices":[13,9,3,0,0,28,13,13,0,0,20,0,0,0,24,0,0],"split_type":[0,0,0,0,0,0,0,0,0,0,0,0,0,0,0,0,0],"sum_hessian":[1.5660648E3,7.1050287E2,8.5556195E2,6.417153E2,6.878757E1,6.010866E2,2.5447536E2,5.374969E2,6.358969E1,6.2672535E1,1.9180283E2,1.03963974E2,4.3353293E2,6.0987854E1,1.3081497E2,6.545618E1,6.5358795E1],"tree_param":{"num_deleted":"0","num_feature":"29","num_nodes":"17","size_leaf_vector":"1"}},{"base_weights":[2.2796806E-2,1.6515243E0,-1.3464606E0,1.7761735E-2,7.14883E-3,-3.5086353E-3,-1.4811649E0,-6.857896E-3,-1.5704788E0,-1.6326423E0,-9.995063E-3,-1.7568229E-2,-1.5500048E0,-1.1904003E-2,-1.615265E0,-1.3103177E-2,-1.6838449E0,-1.7668951E-2,-1.4564504E-2],"categories":[],"categories_nodes":[],"categories_segments":[],"categories_sizes":[],"default_left":[0,0,0,0,0,0,0,0,0,0,0,0,0,0,0,0,0,0,0],"id":13,"left_children":[1,3,5,-1,-1,-1,7,-1,9,11,-1,-1,13,-1,15,-1,17,-1,-1],"loss_changes":[3.5125012E3,8.2714355E1,1.1423523E2,0E0,0E0,0E0,5.2442017E1,0E0,2.238147E1,3.5218506E0,0E0,0E0,6.8515625E0,0E0,4.3531494E0,0E0,2.196167E0,0E0,0E0],"parents":[2147483647,0,0,1,1,2,2,6,6,8,8,9,9,12,12,14,14,16,16],"right_children":[2,4,6,-1,-1,-1,8,-1,10,12,-1,-1,14,-1,16,-1,18,-1,-1],"split_conditions":[-1.7656939E0,-1.5857611E0,-4.7139797E-1,1.7761735E-2,7.14883E-3,-3.5086353E-3,-9.25824E-1,-6.857896E-3,9.728947E-1,-6.91776E-3,-9.995063E-3,-1.7568229E-2,-4.2347538E-1,-1.1904003E-2,-1.9782442E-1,-1.3103177E-2,1.6298635E-1,-1.7668951E-2,-1.4564504E-2],"split_indices":[13,11,7,0,0,0,13,0,6,27,0,0,13,0,19,0,9,0,0],"split_type":[0,0,0,0,0,0,0,0,0,0,0,0,0,0,0,0,0,0,0],"sum_hessian":[1.5730115E3,7.1834094E2,8.5467053E2,6.3318036E2,8.516063E1,1.0228544E2,7.523851E2,7.683327E1,6.755518E2,6.0754706E2,6.800475E1,2.3465984E2,3.7288724E2,6.0231777E1,3.1265546E2,6.109533E1,2.5156012E2,1.793037E2,7.225643E1],"tree_param":{"num_deleted":"0","num_feature":"29","num_nodes":"19","size_leaf_vector":"1"}},{"base_weights":[-2.8422188E-3,1.664648E0,-1.2167258E0,1.7651506E-2,6.5723145E-3,-1.4679506E0,2.9519027E-1,-1.6367455E0,-9.6372294E-1,1.1665101E-2,-6.685707E-3,-1.2074511E-2,-1.7106156E0,-1.4220288E-3,-1.3245753E0,-1.7502613E-2,-1.4131154E-2,-1.5576107E-2,-1.01064425E-2],"categories":[],"categories_nodes":[],"categories_segments":[],"categories_sizes":[],"default_left":[0,0,0,0,0,0,0,0,0,0,0,0,0,0,0,0,0,0,0],"id":14,"left_children":[1,3,5,-1,-1,7,9,11,13,-1,-1,-1,15,-1,17,-1,-1,-1,-1],"loss_changes":[3.1645425E3,6.552612E1,3.4408923E2,0E0,0E0,6.446985E1,1.0973605E2,1.632605E1,5.8228546E1,0E0,0E0,0E0,3.3343506E0,0E0,8.433411E0,0E0,0E0,0E0,0E0],"parents":[2147483647,0,0,1,1,2,2,5,5,6,6,7,7,8,8,12,12,14,14],"right_children":[2,4,6,-1,-1,8,10,12,14,-1,-1,-1,16,-1,18,-1,-1,-1,-1],"split_conditions":[-1.6638023E0,-2.4275565E0,1.7670346E0,1.7651506E-2,6.5723145E-3,6.2566525E-1,3.29452E-1,-8.713082E-1,-2.5146186E-1,1.1665101E-2,-6.685707E-3,-1.2074511E-2,2.7047205E-1,-1.4220288E-3,1.864908E-1,-1.7502613E-2,-1.4131154E-2,-1.5576107E-2,-1.01064425E-2],"split_indices":[9,11,3,0,0,3,9,9,11,0,0,0,28,0,16,0,0,0,0],"split_type":[0,0,0,0,0,0,0,0,0,0,0,0,0,0,0,0,0,0,0],"sum_hessian":[1.5614012E3,6.576407E2,9.037606E2,5.9730023E2,6.0340427E1,7.7501135E2,1.2874925E2,5.789548E2,1.9605656E2,6.750698E1,6.1242275E1,8.754351E1,4.914113E2,6.0260654E1,1.3579591E2,4.293161E2,6.2095173E1,7.566619E1,6.0129715E1],"tree_param":{"num_deleted":"0","num_feature":"29","num_nodes":"19","size_leaf_vector":"1"}},{"base_weights":[-9.95096E-3,1.61197E0,-1.3694371E0,1.7465632E-2,6.2483787E-3,-1.6324508E0,-7.3698074E-1,-1.7139965E0,-1.211957E-2,7.41934E-4,-1.3275805E0,-1.5034637E-2,-1.7436193E-2,-1.0066537E-2,-1.5497189E-2],"categories":[],"categories_nodes":[],"categories_segments":[],"categories_sizes":[],"default_left":[0,0,0,0,0,0,0,0,0,0,0,0,0,0,0],"id":15,"left_children":[1,3,5,-1,-1,7,9,11,-1,-1,13,-1,-1,-1,-1],"loss_changes":[3.4078057E3,9.254089E1,1.386543E2,0E0,0E0,1.8256348E1,1.1927911E2,4.6105957E-1,0E0,0E0,8.706512E0,0E0,0E0,0E0,0E0],"parents":[2147483647,0,0,1,1,2,2,5,5,6,6,7,7,10,10],"right_children":[2,4,6,-1,-1,8,10,12,-1,-1,14,-1,-1,-1,-1],"split_conditions":[-1.6761496E0,-1.3465993E0,7.4406105E-1,1.7465632E-2,6.2483787E-3,8.968778E-1,-2.1362914E-1,-7.005516E-1,-1.211957E-2,7.41934E-4,-2.3570042E-2,-1.5034637E-2,-1.7436193E-2,-1.0066537E-2,-1.5497189E-2],"split_indices":[13,11,3,0,0,6,11,13,0,0,20,0,0,0,0],"split_type":[0,0,0,0,0,0,0,0,0,0,0,0,0,0,0],"sum_hessian":[1.5435037E3,7.037346E2,8.3976904E2,6.18618E2,8.511663E1,5.9199884E2,2.477702E2,4.9326465E2,9.873421E1,1.04759705E2,1.430105E2,6.7227356E1,4.260373E2,6.076054E1,8.224995E1],"tree_param":{"num_deleted":"0","num_feature":"29","num_nodes":"15","size_leaf_vector":"1"}},{"base_weights":[9.591867E-4,1.6138453E0,-1.3258976E0,1.7226022E-2,5.89653E-3,-1.6029547E0,-6.771414E-1,-1.7141942E-2,-1.1901033E0,1.7691517E-3,-1.2886407E0,-1.5778132E-2,-7.381103E-3,-9.734502E-3,-1.5815238E-2],"categories":[],"categories_nodes":[],"categories_segments":[],"categories_sizes":[],"default_left":[0,0,0,0,0,0,0,0,0,0,0,0,0,0,0],"id":16,"left_children":[1,3,5,-1,-1,7,9,-1,11,-1,13,-1,-1,-1,-1],"loss_changes":[3.3243545E3,7.708093E1,1.5210242E2,0E0,0E0,2.535376E1,1.3433171E2,0E0,2.159517E1,0E0,1.2285309E1,0E0,0E0,0E0,0E0],"parents":[2147483647,0,0,1,1,2,2,5,5,6,6,8,8,10,10],"right_children":[2,4,6,-1,-1,8,10,-1,12,-1,14,-1,-1,-1,-1],"split_conditions":[-1.7656939E0,-3.267286E0,7.4406105E-1,1.7226022E-2,5.89653E-3,7.1955043E-1,-2.1362914E-1,-1.7141942E-2,-1.775475E-1,1.7691517E-3,1.893898E-2,-1.5778132E-2,-7.381103E-3,-9.734502E-3,-1.5815238E-2],"split_indices":[13,13,3,0,0,6,11,0,14,0,13,0,0,0,0],"split_type":[0,0,0,0,0,0,0,0,0,0,0,0,0,0,0],"sum_hessian":[1.5513868E3,7.0012286E2,8.51264E2,6.3229846E2,6.782441E1,5.954857E2,2.5577824E2,4.6660947E2,1.2887628E2,1.0701933E2,1.4875893E2,6.803046E1,6.084583E1,7.373334E1,7.502558E1],"tree_param":{"num_deleted":"0","num_feature":"29","num_nodes":"15","size_leaf_vector":"1"}},{"base_weights":[1.6641468E-2,1.6581401E0,-1.1396506E0,1.02706E-2,1.7240493E-2,-1.412945E0,2.716656E-1,-1.6265603E0,-1.0520611E0,-5.506463E-3,1.0948637E-2,-1.6883044E0,-1.19068045E-2,-1.0947235E-3,-1.3408754E0,-1.7429154E-2,-1.5512924E0,-6.4413687E-3,-1.61096E0,-1.6790695E-2,-1.3988026E-2,-1.3937043E-2,-1.7564815E-2],"categories":[],"categories_nodes":[],"categories_segments":[],"categories_sizes":[],"default_left":[0,0,0,0,0,0,0,0,0,0,0,0,0,0,0,0,0,0,0,0,0,0,0],"id":17,"left_children":[1,3,5,-1,-1,7,9,11,13,-1,-1,15,-1,-1,17,-1,19,-1,21,-1,-1,-1,-1],"loss_changes":[2.9326956E3,2.479004E1,3.5004175E2,0E0,0E0,5.6849365E1,1.0072504E2,1.0782715E1,7.7517426E1,0E0,0E0,3.9379883E-1,0E0,0E0,4.003891E1,0E0,1.2734985E-1,0E0,2.504242E0,0E0,0E0,0E0,0E0],"parents":[2147483647,0,0,1,1,2,2,5,5,6,6,7,7,8,8,11,11,14,14,16,16,18,18],"right_children":[2,4,6,-1,-1,8,10,12,14,-1,-1,16,-1,-1,18,-1,20,-1,22,-1,-1,-1,-1],"split_conditions":[-1.8456665E0,1.7226365E0,1.6337242E0,1.02706E-2,1.7240493E-2,3.2916737E-1,4.3917483E-1,3.0555117E-1,-5.306328E-1,-5.506463E-3,1.0948637E-2,-2.3363945E-1,-1.19068045E-2,-1.0947235E-3,-4.4129917E-1,-1.7429154E-2,-6.91776E-3,-6.4413687E-3,1.17593355E-1,-1.6790695E-2,-1.3988026E-2,-1.3937043E-2,-1.7564815E-2],"split_indices":[9,10,3,0,0,3,10,28,9,0,0,3,0,0,0,0,27,0,8,0,0,0,0],"split_type":[0,0,0,0,0,0,0,0,0,0,0,0,0,0,0,0,0,0,0,0,0,0,0],"sum_hessian":[1.5431127E3,6.375699E2,9.055428E2,6.1858337E1,5.7571155E2,7.586356E2,1.4690718E2,4.7435E2,2.842856E2,7.3658775E1,7.32484E1,4.1297687E2,6.1373146E1,6.700004E1,2.1728558E2,2.869011E2,1.2607577E2,6.1644894E1,1.556407E2,6.314937E1,6.2926403E1,6.667534E1,8.8965355E1],"tree_param":{"num_deleted":"0","num_feature":"29","num_nodes":"23","size_leaf_vector":"1"}},{"base_weights":[3.1814459E-3,1.6081997E0,-1.3091574E0,1.7097497E-2,7.49464E-3,-1.5765636E0,-6.735701E-1,-1.6799487E-2,-1.1994764E0,3.7357348E-3,-1.1684248E0,-6.2496625E-3,-1.6677672E-2,-6.7267343E-3,-1.4710325E-2],"categories":[],"categories_nodes":[],"categories_segments":[],"categories_sizes":[],"default_left":[0,0,0,0,0,0,0,0,0,0,0,0,0,0,0],"id":18,"left_children":[1,3,5,-1,-1,7,9,-1,11,-1,13,-1,-1,-1,-1],"loss_changes":[3.2641519E3,5.9509766E1,1.4384253E2,0E0,0E0,2.1351196E1,1.321709E2,0E0,3.459514E1,0E0,2.494571E1,0E0,0E0,0E0,0E0],"parents":[2147483647,0,0,1,1,2,2,5,5,6,6,8,8,10,10],"right_children":[2,4,6,-1,-1,8,10,-1,12,-1,14,-1,-1,-1,-1],"split_conditions":[-1.8576362E0,-1.5857611E0,7.4406105E-1,1.7097497E-2,7.49464E-3,7.1955043E-1,-4.4742262E-1,-1.6799487E-2,-4.6034716E-2,3.7357348E-3,-1.9226065E-1,-6.2496625E-3,-1.6677672E-2,-6.7267343E-3,-1.4710325E-2],"split_indices":[13,11,3,0,0,6,11,0,25,0,13,0,0,0,0],"split_type":[0,0,0,0,0,0,0,0,0,0,0,0,0,0,0],"sum_hessian":[1.5476888E3,6.961082E2,8.5158057E2,6.216087E2,7.4499504E1,5.983574E2,2.5322318E2,4.6689474E2,1.3146266E2,8.134248E1,1.7188069E2,6.0084343E1,7.137832E1,6.6370766E1,1.0550993E2],"tree_param":{"num_deleted":"0","num_feature":"29","num_nodes":"15","size_leaf_vector":"1"}},{"base_weights":[4.999721E-3,1.5908602E0,-1.2697713E0,1.6991977E-2,7.053806E-3,-1.5573622E0,-6.0135716E-1,-1.6337589E0,-9.9391695E-3,2.142779E-3,-1.2149799E0,-1.325427E-2,-1.6936282E-2,-8.35884E-3,-1.5959274E-2],"categories":[],"categories_nodes":[],"categories_segments":[],"categories_sizes":[],"default_left":[0,0,0,0,0,0,0,0,0,0,0,0,0,0,0],"id":19,"left_children":[1,3,5,-1,-1,7,9,11,-1,-1,13,-1,-1,-1,-1],"loss_changes":[3.110475E3,6.4575806E1,1.6302966E2,0E0,0E0,2.4020264E1,1.2949956E2,7.4106445E0,0E0,0E0,1.9968872E1,0E0,0E0,0E0,0E0],"parents":[2147483647,0,0,1,1,2,2,5,5,6,6,7,7,10,10],"right_children":[2,4,6,-1,-1,8,10,12,-1,-1,14,-1,-1,-1,-1],"split_conditions":[-1.8576362E0,-1.5857611E0,7.4406105E-1,1.6991977E-2,7.053806E-3,1.0204974E0,-2.0008416E-1,-6.6310203E-1,-9.9391695E-3,2.142779E-3,3.8805977E-2,-1.325427E-2,-1.6936282E-2,-8.35884E-3,-1.5959274E-2],"split_indices":[13,11,3,0,0,6,11,13,0,0,13,0,0,0,0],"split_type":[0,0,0,0,0,0,0,0,0,0,0,0,0,0,0],"sum_hessian":[1.5366143E3,6.8464435E2,8.519699E2,6.091915E2,7.545281E1,5.9474567E2,2.5722424E2,5.220606E2,7.268504E1,1.107134E2,1.4651085E2,8.8649055E1,4.3341156E2,7.50349E1,7.1475945E1],"tree_param":{"num_deleted":"0","num_feature":"29","num_nodes":"15","size_leaf_vector":"1"}},{"base_weights":[-1.1536011E-3,1.6112894E0,-1.1312615E0,1.6899591E-2,8.770112E-3,-1.3991283E0,2.4343513E-1,-1.5187277E0,-7.606772E-1,-5.2074404E-3,1.0590496E-2,-1.5868022E0,-9.042854E-3,-3.5449076E-3,-1.1525342E-2,-1.2285963E-2,-1.6387906E0,-1.6759811E-2,-1.4881657E-2],"categories":[],"categories_nodes":[],"categories_segments":[],"categories_sizes":[],"default_left":[0,0,0,0,0,0,0,0,0,0,0,0,0,0,0,0,0,0,0],"id":20,"left_children":[1,3,5,-1,-1,7,9,11,13,-1,-1,15,-1,-1,-1,-1,17,-1,-1],"loss_changes":[2.8043115E3,3.5149414E1,3.335193E2,0E0,0E0,5.667798E1,9.30486E1,2.5204956E1,1.8930061E1,0E0,0E0,8.639648E0,0E0,0E0,0E0,0E0,2.8735352E-1,0E0,0E0],"parents":[2147483647,0,0,1,1,2,2,5,5,6,6,7,7,8,8,11,11,16,16],"right_children":[2,4,6,-1,-1,8,10,12,14,-1,-1,16,-1,-1,-1,-1,18,-1,-1],"split_conditions":[-1.8456665E0,-2.6129818E0,1.5398034E0,1.6899591E-2,8.770112E-3,7.6085496E-1,4.3917483E-1,1.1345395E0,-6.06763E-2,-5.2074404E-3,1.0590496E-2,-6.5228724E-1,-9.042854E-3,-3.5449076E-3,-1.1525342E-2,-1.2285963E-2,6.0704756E-1,-1.6759811E-2,-1.4881657E-2],"split_indices":[9,11,3,0,0,16,10,6,22,0,0,18,0,0,0,0,3,0,0],"split_type":[0,0,0,0,0,0,0,0,0,0,0,0,0,0,0,0,0,0,0],"sum_hessian":[1.5369407E3,6.3314325E2,9.037974E2,5.706978E2,6.244545E1,7.563926E2,1.4740482E2,6.358936E2,1.2049899E2,7.628869E1,7.1116135E1,5.7104456E2,6.484907E1,6.0102894E1,6.03961E1,7.549656E1,4.9554797E2,3.8929956E2,1.06248436E2],"tree_param":{"num_deleted":"0","num_feature":"29","num_nodes":"19","size_leaf_vector":"1"}},{"base_weights":[5.623639E-3,1.5653793E0,-1.2689242E0,1.675974E-2,7.666841E-3,-1.547554E0,-6.249777E-1,-1.657879E-2,-1.1656849E0,1.9072205E-3,-1.211479E0,-5.8686696E-3,-1.6354317E-2,-8.800915E-3,-1.5485625E-2],"categories":[],"categories_nodes":[],"categories_segments":[],"categories_sizes":[],"default_left":[0,0,0,0,0,0,0,0,0,0,0,0,0,0,0],"id":21,"left_children":[1,3,5,-1,-1,7,9,-1,11,-1,13,-1,-1,-1,-1],"loss_changes":[3.0073687E3,5.8804565E1,1.4840247E2,0E0,0E0,2.2519531E1,1.21318115E2,0E0,3.5328873E1,0E0,1.5099533E1,0E0,0E0,0E0,0E0],"parents":[2147483647,0,0,1,1,2,2,5,5,6,6,8,8,10,10],"right_children":[2,4,6,-1,-1,8,10,-1,12,-1,14,-1,-1,-1,-1],"split_conditions":[-1.7656939E0,-1.5857611E0,7.4406105E-1,1.675974E-2,7.666841E-3,6.862798E-1,-2.1362914E-1,-1.657879E-2,-6.3203946E-2,1.9072205E-3,3.8805977E-2,-5.8686696E-3,-1.6354317E-2,-8.800915E-3,-1.5485625E-2],"split_indices":[13,11,3,0,0,6,11,0,25,0,13,0,0,0,0],"split_type":[0,0,0,0,0,0,0,0,0,0,0,0,0,0,0],"sum_hessian":[1.5107745E3,6.792722E2,8.315023E2,5.956891E2,8.3583145E1,5.793986E2,2.5210371E2,4.4693427E2,1.3246432E2,1.0573015E2,1.4637357E2,6.0350407E1,7.211392E1,7.563128E1,7.0742294E1],"tree_param":{"num_deleted":"0","num_feature":"29","num_nodes":"15","size_leaf_vector":"1"}},{"base_weights":[1.4687234E-2,1.5640258E0,-1.2542629E0,1.657425E-2,6.4977356E-3,-1.5255605E0,-6.2010354E-1,-1.6395168E-2,-1.1141413E0,3.9748447E-3,-1.1194713E0,-5.2085156E-3,-1.6197475E-2,-6.4972388E-3,-1.4031578E-2],"categories":[],"categories_nodes":[],"categories_segments":[],"categories_sizes":[],"default_left":[0,0,0,0,0,0,0,0,0,0,0,0,0,0,0],"id":22,"left_children":[1,3,5,-1,-1,7,9,-1,11,-1,13,-1,-1,-1,-1],"loss_changes":[2.9930269E3,5.74541E1,1.4304248E2,0E0,0E0,2.5622559E1,1.287261E2,0E0,3.818631E1,0E0,2.169017E1,0E0,0E0,0E0,0E0],"parents":[2147483647,0,0,1,1,2,2,5,5,6,6,8,8,10,10],"right_children":[2,4,6,-1,-1,8,10,-1,12,-1,14,-1,-1,-1,-1],"split_conditions":[-1.8576362E0,-1.4958119E0,7.4406105E-1,1.657425E-2,6.4977356E-3,7.1955043E-1,-4.4742262E-1,-1.6395168E-2,-3.89767E-2,3.9748447E-3,-1.9226065E-1,-5.2085156E-3,-1.6197475E-2,-6.4972388E-3,-1.4031578E-2],"split_indices":[13,9,3,0,0,6,11,0,25,0,13,0,0,0,0],"split_type":[0,0,0,0,0,0,0,0,0,0,0,0,0,0,0],"sum_hessian":[1.5203705E3,6.8445056E2,8.359199E2,6.202713E2,6.4179245E1,5.844729E2,2.5144702E2,4.553605E2,1.2911241E2,8.2841194E1,1.6860582E2,6.033918E1,6.877323E1,6.472314E1,1.0388269E2],"tree_param":{"num_deleted":"0","num_feature":"29","num_nodes":"15","size_leaf_vector":"1"}},{"base_weights":[-1.6562126E-3,1.5371687E0,-1.28318E0,1.655349E-2,6.743927E-3,-3.814951E-3,-1.4228079E0,-9.143185E-1,-1.5271605E0,-4.2682094E-3,-1.3637413E-2,-1.101104E-2,-1.5753027E0,-1.6108954E-2,-1.3006466E-2],"categories":[],"categories_nodes":[],"categories_segments":[],"categories_sizes":[],"default_left":[0,0,0,0,0,0,0,0,0,0,0,0,0,0,0],"id":23,"left_children":[1,3,5,-1,-1,-1,7,9,11,-1,-1,-1,13,-1,-1],"loss_changes":[2.9984827E3,6.93291E1,1.0390491E2,0E0,0E0,0E0,3.670227E1,2.6749763E1,1.0454224E1,0E0,0E0,0E0,3.1016846E0,0E0,0E0],"parents":[2147483647,0,0,1,1,2,2,6,6,7,7,8,8,12,12],"right_children":[2,4,6,-1,-1,-1,8,10,12,-1,-1,-1,14,-1,-1],"split_conditions":[-1.6761496E0,-1.5857611E0,-4.2408958E-1,1.655349E-2,6.743927E-3,-3.814951E-3,-6.391796E-1,-2.0103171E-1,-1.0506274E0,-4.2682094E-3,-1.3637413E-2,-1.101104E-2,9.0884286E-1,-1.6108954E-2,-1.3006466E-2],"split_indices":[13,11,7,0,0,0,13,12,18,0,0,0,18,0,0],"split_type":[0,0,0,0,0,0,0,0,0,0,0,0,0,0,0],"sum_hessian":[1.5184971E3,6.898914E2,8.2860565E2,6.059692E2,8.392227E1,1.1160688E2,7.169988E2,1.237502E2,5.9324854E2,6.0295856E1,6.345434E1,6.2652065E1,5.305965E2,4.6541772E2,6.517876E1],"tree_param":{"num_deleted":"0","num_feature":"29","num_nodes":"15","size_leaf_vector":"1"}},{"base_weights":[1.4969772E-2,1.5420038E0,-1.2318772E0,1.6387878E-2,6.551372E-3,-3.8695817E-3,-1.366249E0,-5.0666323E-3,-1.4716011E0,-1.5218308E0,-1.0421847E-2,-1.2744897E-2,-1.5775803E0,-1.6596626E-2,-1.4729097E0,-1.6487142E-2,-1.31040765E-2],"categories":[],"categories_nodes":[],"categories_segments":[],"categories_sizes":[],"default_left":[0,0,0,0,0,0,0,0,0,0,0,0,0,0,0,0,0],"id":24,"left_children":[1,3,5,-1,-1,-1,7,-1,9,11,-1,-1,13,-1,15,-1,-1],"loss_changes":[2.8892666E3,5.7474365E1,9.431604E1,0E0,0E0,0E0,6.449036E1,0E0,1.2244263E1,5.875E0,0E0,0E0,1.5289307E0,0E0,3.9005737E0,0E0,0E0],"parents":[2147483647,0,0,1,1,2,2,6,6,8,8,9,9,12,12,14,14],"right_children":[2,4,6,-1,-1,-1,8,-1,10,12,-1,-1,14,-1,16,-1,-1],"split_conditions":[-1.8576362E0,-1.5795476E0,-4.2408958E-1,1.6387878E-2,6.551372E-3,-3.8695817E-3,-9.25824E-1,-5.0666323E-3,8.968778E-1,-7.3934877E-1,-1.0421847E-2,-1.2744897E-2,-9.536587E-2,-1.6596626E-2,2.177179E-3,-1.6487142E-2,-1.31040765E-2],"split_indices":[13,9,7,0,0,0,13,0,6,14,0,0,4,0,27,0,0],"split_type":[0,0,0,0,0,0,0,0,0,0,0,0,0,0,0,0,0],"sum_hessian":[1.515492E3,6.811004E2,8.3439154E2,6.133206E2,6.777974E1,1.15021996E2,7.1936957E2,7.917514E1,6.401944E2,5.708742E2,6.9320206E1,1.0939377E2,4.6148044E2,2.5032219E2,2.1115823E2,9.703459E1,1.1412365E2],"tree_param":{"num_deleted":"0","num_feature":"29","num_nodes":"17","size_leaf_vector":"1"}},{"base_weights":[-6.178662E-3,1.5332844E0,-1.2280054E0,1.6311994E-2,7.0465677E-3,-1.3945463E0,-2.0203125E-3,-8.7945676E-1,-1.5173849E0,-1.4485603E-2,-2.785448E-3,-1.5941137E0,-8.567694E-3,-1.6392006E-2,-1.3717926E-2],"categories":[],"categories_nodes":[],"categories_segments":[],"categories_sizes":[],"default_left":[0,0,0,0,0,0,0,0,0,0,0,0,0,0,0],"id":25,"left_children":[1,3,5,-1,-1,7,-1,9,11,-1,-1,13,-1,-1,-1],"loss_changes":[2.8342878E3,5.2947388E1,1.4326001E2,0E0,0E0,4.4385864E1,0E0,4.7993515E1,2.8138428E1,0E0,0E0,2.966919E0,0E0,0E0,0E0],"parents":[2147483647,0,0,1,1,2,2,5,5,7,7,8,8,11,11],"right_children":[2,4,6,-1,-1,8,-1,10,12,-1,-1,14,-1,-1,-1],"split_conditions":[-1.8576362E0,-1.3465993E0,1.4642557E0,1.6311994E-2,7.0465677E-3,-6.391796E-1,-2.0203125E-3,-2.2955498E-2,5.5971617E-1,-1.4485603E-2,-2.785448E-3,7.655082E-1,-8.567694E-3,-1.6392006E-2,-1.3717926E-2],"split_indices":[13,11,3,0,0,13,0,3,28,0,0,3,0,0,0],"split_type":[0,0,0,0,0,0,0,0,0,0,0,0,0,0,0],"sum_hessian":[1.5048318E3,6.657512E2,8.390805E2,5.9453E2,7.1221245E1,7.215895E2,1.1749101E2,1.4051947E2,5.8107E2,7.144536E1,6.907411E1,5.1933716E2,6.1732826E1,4.2647455E2,9.286263E1],"tree_param":{"num_deleted":"0","num_feature":"29","num_nodes":"15","size_leaf_vector":"1"}},{"base_weights":[9.952061E-3,1.5158479E0,-1.2359586E0,1.6141232E-2,6.4135944E-3,-1.4987093E0,-6.222003E-1,-1.5741475E0,-9.883878E-3,1.8339565E-3,-1.2031198E0,-1.3103201E-2,-1.6233355E-2,-8.673567E-3,-1.4375235E-2],"categories":[],"categories_nodes":[],"categories_segments":[],"categories_sizes":[],"default_left":[0,0,0,0,0,0,0,0,0,0,0,0,0,0,0],"id":26,"left_children":[1,3,5,-1,-1,7,9,11,-1,-1,13,-1,-1,-1,-1],"loss_changes":[2.8320645E3,5.7698486E1,1.3227917E2,0E0,0E0,2.0684448E1,1.1690425E2,4.3824463E0,0E0,0E0,1.0165207E1,0E0,0E0,0E0,0E0],"parents":[2147483647,0,0,1,1,2,2,5,5,6,6,7,7,10,10],"right_children":[2,4,6,-1,-1,8,10,12,-1,-1,14,-1,-1,-1,-1],"split_conditions":[-1.7656939E0,-3.267286E0,7.4406105E-1,1.6141232E-2,6.4135944E-3,1.0204974E0,-2.1362914E-1,-6.6310203E-1,-9.883878E-3,1.8339565E-3,-1.2413879E-1,-1.3103201E-2,-1.6233355E-2,-8.673567E-3,-1.4375235E-2],"split_indices":[13,13,3,0,0,6,11,13,0,0,13,0,0,0,0],"split_type":[0,0,0,0,0,0,0,0,0,0,0,0,0,0,0],"sum_hessian":[1.5074603E3,6.8242114E2,8.250392E2,6.127179E2,6.9703224E1,5.7670795E2,2.4833122E2,5.006194E2,7.608857E1,1.04332016E2,1.439992E2,8.301203E1,4.1760736E2,6.1132504E1,8.28667E1],"tree_param":{"num_deleted":"0","num_feature":"29","num_nodes":"15","size_leaf_vector":"1"}},{"base_weights":[2.0804195E-2,1.4885443E0,-1.2153083E0,1.5994905E-2,5.448899E-3,-1.4812224E0,-5.9366715E-1,-1.5964631E-2,-1.0797156E0,1.1043751E-3,-1.1441959E0,-5.0548334E-3,-1.5627524E-2,-7.819894E-3,-1.4980104E-2],"categories":[],"categories_nodes":[],"categories_segments":[],"categories_sizes":[],"default_left":[0,0,0,0,0,0,0,0,0,0,0,0,0,0,0],"id":27,"left_children":[1,3,5,-1,-1,7,9,-1,11,-1,13,-1,-1,-1,-1],"loss_changes":[2.729264E3,7.1128784E1,1.341073E2,0E0,0E0,2.4709106E1,9.560912E1,0E0,3.5404907E1,0E0,1.6555649E1,0E0,0E0,0E0,0E0],"parents":[2147483647,0,0,1,1,2,2,5,5,6,6,8,8,10,10],"right_children":[2,4,6,-1,-1,8,10,-1,12,-1,14,-1,-1,-1,-1],"split_conditions":[-1.6761496E0,-3.267286E0,7.4406105E-1,1.5994905E-2,5.448899E-3,6.862798E-1,-2.0008416E-1,-1.5964631E-2,-2.623239E-2,1.1043751E-3,3.8805977E-2,-5.0548334E-3,-1.5627524E-2,-7.819894E-3,-1.4980104E-2],"split_indices":[13,13,3,0,0,6,11,0,25,0,13,0,0,0,0],"split_type":[0,0,0,0,0,0,0,0,0,0,0,0,0,0,0],"sum_hessian":[1.5023164E3,6.867163E2,8.1560016E2,6.138505E2,7.2865814E1,5.702755E2,2.453246E2,4.4078497E2,1.2949057E2,1.0799836E2,1.3732625E2,6.009561E1,6.939496E1,6.944463E1,6.788161E1],"tree_param":{"num_deleted":"0","num_feature":"29","num_nodes":"15","size_leaf_vector":"1"}},{"base_weights":[5.330755E-3,1.4725356E0,-1.2278731E0,1.6009402E-2,6.1080838E-3,-1.4798628E0,-6.362299E-1,-1.5821936E-2,-1.0964379E0,1.1351126E-3,-1.1758608E0,-1.4972533E-2,-6.6738008E-3,-8.586281E-3,-1.5028768E-2],"categories":[],"categories_nodes":[],"categories_segments":[],"categories_sizes":[],"default_left":[0,0,0,0,0,0,0,0,0,0,0,0,0,0,0],"id":28,"left_children":[1,3,5,-1,-1,7,9,-1,11,-1,13,-1,-1,-1,-1],"loss_changes":[2.715095E3,7.484741E1,1.20611084E2,0E0,0E0,2.0670166E1,9.937108E1,0E0,2.02482E1,0E0,1.3514847E1,0E0,0E0,0E0,0E0],"parents":[2147483647,0,0,1,1,2,2,5,5,6,6,8,8,10,10],"right_children":[2,4,6,-1,-1,8,10,-1,12,-1,14,-1,-1,-1,-1],"split_conditions":[-1.6761496E0,-1.5857611E0,7.4406105E-1,1.6009402E-2,6.1080838E-3,7.1955043E-1,-2.0008416E-1,-1.5821936E-2,-5.4922163E-1,1.1351126E-3,3.8805977E-2,-1.4972533E-2,-6.6738008E-3,-8.586281E-3,-1.5028768E-2],"split_indices":[13,11,3,0,0,6,11,0,3,0,13,0,0,0,0],"split_type":[0,0,0,0,0,0,0,0,0,0,0,0,0,0,0],"sum_hessian":[1.4985817E3,6.842732E2,8.143084E2,5.947872E2,8.9486015E1,5.70025E2,2.442834E2,4.4747388E2,1.22551125E2,1.0256853E2,1.4171487E2,6.2073734E1,6.0477394E1,7.377382E1,6.7941055E1],"tree_param":{"num_deleted":"0","num_feature":"29","num_nodes":"15","size_leaf_vector":"1"}},{"base_weights":[-6.7823455E-3,1.4943681E0,-1.192252E0,1.5912456E-2,6.486913E-3,-1.4615524E0,-5.6580764E-1,-1.5664019E-2,-1.0753089E0,1.9754877E-3,-1.1419004E0,-4.8979297E-3,-1.5880136E-2,-8.175107E-3,-1.4679422E-2],"categories":[],"categories_nodes":[],"categories_segments":[],"categories_sizes":[],"default_left":[0,0,0,0,0,0,0,0,0,0,0,0,0,0,0],"id":29,"left_children":[1,3,5,-1,-1,7,9,-1,11,-1,13,-1,-1,-1,-1],"loss_changes":[2.6602732E3,5.3009277E1,1.4008496E2,0E0,0E0,2.1946777E1,1.11376495E2,0E0,3.7579147E1,0E0,1.4050262E1,0E0,0E0,0E0,0E0],"parents":[2147483647,0,0,1,1,2,2,5,5,6,6,8,8,10,10],"right_children":[2,4,6,-1,-1,8,10,-1,12,-1,14,-1,-1,-1,-1],"split_conditions":[-1.8576362E0,-1.3465993E0,7.4406105E-1,1.5912456E-2,6.486913E-3,7.1955043E-1,-2.1362914E-1,-1.5664019E-2,-8.9888304E-2,1.9754877E-3,3.8805977E-2,-4.8979297E-3,-1.5880136E-2,-8.175107E-3,-1.4679422E-2],"split_indices":[13,11,3,0,0,6,11,0,25,0,13,0,0,0,0],"split_type":[0,0,0,0,0,0,0,0,0,0,0,0,0,0,0],"sum_hessian":[1.4928969E3,6.5862494E2,8.342719E2,5.9013904E2,6.8485886E1,5.825206E2,2.5175124E2,4.5574802E2,1.26772644E2,1.08560005E2,1.4319122E2,6.0096687E1,6.667596E1,7.3535614E1,6.965562E1],"tree_param":{"num_deleted":"0","num_feature":"29","num_nodes":"15","size_leaf_vector":"1"}},{"base_weights":[-9.441258E-3,1.458219E0,-1.1993374E0,1.5736422E-2,4.3512573E-3,-1.4617031E0,-6.0391307E-1,-1.5331273E0,-9.414819E-3,1.401443E-3,-1.1562097E0,-1.2375717E-2,-1.5829396E-2,-8.2450565E-3,-1.4587259E-2],"categories":[],"categories_nodes":[],"categories_segments":[],"categories_sizes":[],"default_left":[0,0,0,0,0,0,0,0,0,0,0,0,0,0,0],"id":30,"left_children":[1,3,5,-1,-1,7,9,11,-1,-1,13,-1,-1,-1,-1],"loss_changes":[2.6015908E3,7.8081665E1,1.2763953E2,0E0,0E0,1.9749634E1,1.04269325E2,5.400879E0,0E0,0E0,1.3399094E1,0E0,0E0,0E0,0E0],"parents":[2147483647,0,0,1,1,2,2,5,5,6,6,7,7,10,10],"right_children":[2,4,6,-1,-1,8,10,12,-1,-1,14,-1,-1,-1,-1],"split_conditions":[-1.7656939E0,-3.267286E0,7.4406105E-1,1.5736422E-2,4.3512573E-3,1.0204974E0,-2.1362914E-1,-7.005516E-1,-9.414819E-3,1.401443E-3,3.8805977E-2,-1.2375717E-2,-1.5829396E-2,-8.2450565E-3,-1.4587259E-2],"split_indices":[13,13,3,0,0,6,11,13,0,0,13,0,0,0,0],"split_type":[0,0,0,0,0,0,0,0,0,0,0,0,0,0,0],"sum_hessian":[1.4877178E3,6.660108E2,8.21707E2,5.980069E2,6.800392E1,5.693678E2,2.523392E2,4.989209E2,7.0446884E1,1.0782413E2,1.4451508E2,7.5686584E1,4.232343E2,7.070917E1,7.3805916E1],"tree_param":{"num_deleted":"0","num_feature":"29","num_nodes":"15","size_leaf_vector":"1"}},{"base_weights":[8.0221034E-5,-1.162017E0,1.2673836E0,1.5936759E-3,-1.2778836E0,-2.324268E-3,1.5337307E0,-1.404936E0,-6.6852283E-1,1.5756657E-2,1.14591E-2,-1.4885813E0,-6.7912904E-3,-1.390283E-2,1.0798043E-3,-1.5386369E0,-1.1844211E-2,-1.575254E-2,-1.36762215E-2],"categories":[],"categories_nodes":[],"categories_segments":[],"categories_sizes":[],"default_left":[0,0,0,0,0,0,0,0,0,0,0,0,0,0,0,0,0,0,0],"id":31,"left_children":[1,3,5,-1,7,-1,9,11,13,-1,-1,15,-1,-1,-1,17,-1,-1,-1],"loss_changes":[2.1940037E3,1.191864E2,2.8502686E2,0E0,5.438501E1,0E0,8.03833E0,3.483252E1,7.031599E1,0E0,0E0,6.2247314E0,0E0,0E0,0E0,6.6674805E-1,0E0,0E0,0E0],"parents":[2147483647,0,0,1,1,2,2,4,4,6,6,7,7,8,8,11,11,15,15],"right_children":[2,4,6,-1,8,-1,10,12,14,-1,-1,16,-1,-1,-1,18,-1,-1,-1],"split_conditions":[1.4642557E0,-9.880523E-1,8.4223324E-1,1.5936759E-3,7.6085496E-1,-2.324268E-3,-2.2612293E0,5.5971617E-1,3.8260892E-1,1.5756657E-2,1.14591E-2,4.076014E-1,-6.7912904E-3,-1.390283E-2,1.0798043E-3,4.4574782E-1,-1.1844211E-2,-1.575254E-2,-1.36762215E-2],"split_indices":[3,16,10,0,16,0,11,28,3,0,0,16,0,0,0,24,0,0,0],"split_type":[0,0,0,0,0,0,0,0,0,0,0,0,0,0,0,0,0,0,0],"sum_hessian":[1.4877532E3,7.761338E2,7.116194E2,6.25392E1,7.1359454E2,1.07335686E2,6.042837E2,5.893988E2,1.24195786E2,5.425543E2,6.1729397E1,5.2755054E2,6.184826E1,6.395714E1,6.023864E1,4.4951517E2,7.803537E1,3.6347742E2,8.6037735E1],"tree_param":{"num_deleted":"0","num_feature":"29","num_nodes":"19","size_leaf_vector":"1"}},{"base_weights":[-7.2355946E-3,1.4573138E0,-1.198662E0,1.5629094E-2,6.5115253E-3,-1.3467629E0,-2.0389673E-3,-8.516664E-1,-1.4611979E0,-1.3940879E-2,-2.3610336E-3,-1.5352701E0,-8.3519155E-3,-1.2332029E-2,-1.5734483E-2],"categories":[],"categories_nodes":[],"categories_segments":[],"categories_sizes":[],"default_left":[0,0,0,0,0,0,0,0,0,0,0,0,0,0,0],"id":32,"left_children":[1,3,5,-1,-1,7,-1,9,11,-1,-1,13,-1,-1,-1],"loss_changes":[2.6038257E3,5.596643E1,1.2095178E2,0E0,0E0,3.932361E1,0E0,4.535695E1,2.5621948E1,0E0,0E0,4.029175E0,0E0,0E0,0E0],"parents":[2147483647,0,0,1,1,2,2,5,5,7,7,8,8,11,11],"right_children":[2,4,6,-1,-1,8,-1,10,12,-1,-1,14,-1,-1,-1],"split_conditions":[-1.7656939E0,-1.3465993E0,1.5398034E0,1.5629094E-2,6.5115253E-3,-6.391796E-1,-2.0389673E-3,5.934767E-2,5.5971617E-1,-1.3940879E-2,-2.3610336E-3,-3.6784217E-1,-8.3519155E-3,-1.2332029E-2,-1.5734483E-2],"split_indices":[13,11,3,0,0,13,0,3,28,0,0,19,0,0,0],"split_type":[0,0,0,0,0,0,0,0,0,0,0,0,0,0,0],"sum_hessian":[1.4902457E3,6.683993E2,8.2184644E2,5.9015814E2,7.824112E1,7.1503766E2,1.0680881E2,1.358279E2,5.792098E2,7.153127E1,6.429663E1,5.1662726E2,6.258248E1,6.170634E1,4.5492093E2],"tree_param":{"num_deleted":"0","num_feature":"29","num_nodes":"15","size_leaf_vector":"1"}},{"base_weights":[8.838864E-4,1.4917247E0,-1.0166986E0,8.471193E-3,1.5623133E-2,-1.2805636E0,3.1882733E-1,-1.4230987E0,-7.654805E-1,-4.356082E-3,1.0267194E-2,-1.4996337E0,-7.764731E-3,-2.700745E-3,-1.5643885E-2,-1.2719274E-2,-1.528188E0,-1.5612251E-2,-1.3794867E-2],"categories":[],"categories_nodes":[],"categories_segments":[],"categories_sizes":[],"default_left":[0,0,0,0,0,0,0,0,0,0,0,0,0,0,0,0,0,0,0],"id":33,"left_children":[1,3,5,-1,-1,7,9,11,13,-1,-1,15,-1,-1,-1,-1,17,-1,-1],"loss_changes":[2.2436018E3,2.597522E1,3.1015698E2,0E0,0E0,5.2810913E1,7.831959E1,2.7235962E1,6.3413223E1,0E0,0E0,1.3857422E0,0E0,0E0,0E0,0E0,5.7250977E-2,0E0,0E0],"parents":[2147483647,0,0,1,1,2,2,5,5,6,6,7,7,8,8,11,11,16,16],"right_children":[2,4,6,-1,-1,8,10,12,14,-1,-1,16,-1,-1,-1,-1,18,-1,-1],"split_conditions":[-1.8456665E0,1.7535503E0,1.6337242E0,8.471193E-3,1.5623133E-2,5.595723E-1,4.3917483E-1,5.2360934E-1,1.385543E-1,-4.356082E-3,1.0267194E-2,-7.874025E-1,-7.764731E-3,-2.700745E-3,-1.5643885E-2,-1.2719274E-2,4.1883126E-1,-1.5612251E-2,-1.3794867E-2],"split_indices":[9,10,3,0,0,16,10,28,7,0,0,9,0,0,0,0,24,0,0],"split_type":[0,0,0,0,0,0,0,0,0,0,0,0,0,0,0,0,0,0,0],"sum_hessian":[1.4769209E3,5.989479E2,8.779731E2,6.0398438E1,5.3854944E2,7.331609E2,1.4481223E2,5.728715E2,1.6028935E2,7.028775E1,7.4524475E1,5.1106268E2,6.1808834E1,9.9763596E1,6.0525757E1,6.2020996E1,4.490417E2,3.5964062E2,8.940106E1],"tree_param":{"num_deleted":"0","num_feature":"29","num_nodes":"19","size_leaf_vector":"1"}},{"base_weights":[-6.0491282E-3,1.4598119E0,-1.0352988E0,1.5511091E-2,6.433352E-3,-1.2772163E0,2.3340744E-1,-1.510012E0,-9.7413343E-1,-5.051385E-3,9.725621E-3,-1.5596417E-2,-1.291167E-2,-2.1029087E-3,-1.2247614E0,-6.2637785E-3,-1.4276863E0,-1.5345771E-2,-1.1976453E-2],"categories":[],"categories_nodes":[],"categories_segments":[],"categories_sizes":[],"default_left":[0,0,0,0,0,0,0,0,0,0,0,0,0,0,0,0,0,0,0],"id":34,"left_children":[1,3,5,-1,-1,7,9,11,13,-1,-1,-1,-1,-1,15,-1,17,-1,-1],"loss_changes":[2.2416277E3,4.468811E1,2.6820227E2,0E0,0E0,5.0264038E1,7.7261665E1,2.4707031E0,6.1262177E1,0E0,0E0,0E0,0E0,0E0,2.8461182E1,0E0,2.5819702E0,0E0,0E0],"parents":[2147483647,0,0,1,1,2,2,5,5,6,6,7,7,8,8,14,14,16,16],"right_children":[2,4,6,-1,-1,8,10,12,14,-1,-1,-1,-1,-1,16,-1,18,-1,-1],"split_conditions":[-1.6638023E0,-2.4663177E0,1.6337242E0,1.5511091E-2,6.433352E-3,1.4635944E-1,4.3917483E-1,6.282207E-2,-4.9671313E-1,-5.051385E-3,9.725621E-3,-1.5596417E-2,-1.291167E-2,-2.1029087E-3,-2.1421067E-1,-6.2637785E-3,-1.7162045E-2,-1.5345771E-2,-1.1976453E-2],"split_indices":[9,11,3,0,0,3,10,28,9,0,0,0,0,0,19,0,5,0,0],"split_type":[0,0,0,0,0,0,0,0,0,0,0,0,0,0,0,0,0,0,0],"sum_hessian":[1.4837626E3,6.1188934E2,8.718732E2,5.495408E2,6.234855E1,7.3224225E2,1.3963097E2,4.1189026E2,3.20352E2,7.000261E1,6.9628365E1,3.3075488E2,8.113539E1,7.959824E1,2.4075375E2,6.200392E1,1.7874983E2,1.1817013E2,6.0579716E1],"tree_param":{"num_deleted":"0","num_feature":"29","num_nodes":"19","size_leaf_vector":"1"}},{"base_weights":[-9.36976E-3,1.4275459E0,-1.1549227E0,1.5355736E-2,5.1678466E-3,-2.5226308E-3,-1.2917835E0,-4.187118E-3,-1.3804892E0,-8.196413E-3,-1.4407125E0,-1.3289081E0,-1.5344332E-2,-1.4590055E0,-9.604163E-3,-1.5629148E-2,-1.2035031E-2],"categories":[],"categories_nodes":[],"categories_segments":[],"categories_sizes":[],"default_left":[0,0,0,0,0,0,0,0,0,0,0,0,0,0,0,0,0],"id":35,"left_children":[1,3,5,-1,-1,-1,7,-1,9,-1,11,13,-1,15,-1,-1,-1],"loss_changes":[2.411684E3,6.314978E1,1.0038342E2,0E0,0E0,0E0,5.4226074E1,0E0,2.050122E1,0E0,4.02124E0,1.1600311E1,0E0,3.3893738E0,0E0,0E0,0E0],"parents":[2147483647,0,0,1,1,2,2,6,6,8,8,10,10,11,11,13,13],"right_children":[2,4,6,-1,-1,-1,8,-1,10,-1,12,14,-1,16,-1,-1,-1],"split_conditions":[-1.8576362E0,-1.3465993E0,-4.4191074E-1,1.5355736E-2,5.1678466E-3,-2.5226308E-3,-1.0461711E0,-4.187118E-3,-1.0506274E0,-8.196413E-3,3.8805977E-2,3.219423E-1,-1.5344332E-2,3.196779E-1,-9.604163E-3,-1.5629148E-2,-1.2035031E-2],"split_indices":[13,11,7,0,0,0,13,0,18,0,13,24,0,6,0,0,0],"split_type":[0,0,0,0,0,0,0,0,0,0,0,0,0,0,0,0,0],"sum_hessian":[1.463121E3,6.489142E2,8.142067E2,5.79493E2,6.942121E1,1.0757078E2,7.06636E2,6.570146E1,6.409345E2,6.356598E1,5.773685E2,2.7020566E2,3.0716287E2,1.9751341E2,7.269224E1,1.3677277E2,6.0740643E1],"tree_param":{"num_deleted":"0","num_feature":"29","num_nodes":"17","size_leaf_vector":"1"}},{"base_weights":[1.0220425E-3,1.4190567E0,-1.136259E0,1.5161209E0,4.687913E-3,-1.3970522E0,-5.436964E-1,1.3005423E-2,1.5381713E-2,-9.784985E-3,-1.4768356E0,2.2203973E-3,-1.1201264E0,-1.5504119E-2,-1.3388373E0,-8.130776E-3,-1.4433554E-2,-1.511433E-2,-1.102245E-2],"categories":[],"categories_nodes":[],"categories_segments":[],"categories_sizes":[],"default_left":[0,0,0,0,0,0,0,0,0,0,0,0,0,0,0,0,0,0,0],"id":36,"left_children":[1,3,5,7,-1,9,11,-1,-1,-1,13,-1,15,-1,17,-1,-1,-1,-1],"loss_changes":[2.3543062E3,5.9218018E1,1.2443384E2,7.996826E-1,0E0,1.7319092E1,1.10251854E2,0E0,0E0,0E0,2.696167E0,0E0,1.2954239E1,0E0,5.307251E0,0E0,0E0,0E0,0E0],"parents":[2147483647,0,0,1,1,2,2,3,3,5,5,6,6,10,10,12,12,14,14],"right_children":[2,4,6,8,-1,10,12,-1,-1,-1,14,-1,16,-1,18,-1,-1,-1,-1],"split_conditions":[-1.8576362E0,-3.267286E0,7.4406105E-1,1.8295122E0,4.687913E-3,-8.713082E-1,-2.1362914E-1,1.3005423E-2,1.5381713E-2,-9.784985E-3,2.4991786E-2,2.2203973E-3,3.8805977E-2,-1.5504119E-2,9.536553E-2,-8.130776E-3,-1.4433554E-2,-1.511433E-2,-1.102245E-2],"split_indices":[13,13,3,3,0,9,11,0,0,0,3,0,13,0,17,0,0,0,0],"split_type":[0,0,0,0,0,0,0,0,0,0,0,0,0,0,0,0,0,0,0],"sum_hessian":[1.4578506E3,6.4872766E2,8.091229E2,5.8806476E2,6.0662914E1,5.609049E2,2.4821802E2,6.0134754E1,5.2793E2,9.192409E1,4.689808E2,1.0686805E2,1.4134996E2,2.9921408E2,1.6976671E2,7.429221E1,6.7057755E1,9.504348E1,7.472323E1],"tree_param":{"num_deleted":"0","num_feature":"29","num_nodes":"19","size_leaf_vector":"1"}},{"base_weights":[-7.5063095E-3,1.4029971E0,-1.1477398E0,1.5106265E-2,5.070802E-3,-1.4022056E0,-5.664438E-1,-1.5071883E-2,-1.0513321E0,5.3926692E-3,-9.2408866E-1,-4.963361E-3,-1.5097125E-2,-2.3625896E-3,-1.2487562E0,-8.955277E-3,-1.5542093E-2],"categories":[],"categories_nodes":[],"categories_segments":[],"categories_sizes":[],"default_left":[0,0,0,0,0,0,0,0,0,0,0,0,0,0,0,0,0],"id":37,"left_children":[1,3,5,-1,-1,7,9,-1,11,-1,13,-1,-1,-1,15,-1,-1],"loss_changes":[2.345073E3,6.2085815E1,1.1847327E2,0E0,0E0,1.9047852E1,9.824306E1,0E0,3.2908173E1,0E0,4.149449E1,0E0,0E0,0E0,1.229921E1,0E0,0E0],"parents":[2147483647,0,0,1,1,2,2,5,5,6,6,8,8,10,10,14,14],"right_children":[2,4,6,-1,-1,8,10,-1,12,-1,14,-1,-1,-1,16,-1,-1],"split_conditions":[-1.6761496E0,-1.4958119E0,7.4406105E-1,1.5106265E-2,5.070802E-3,6.862798E-1,-2.9230624E-1,-1.5071883E-2,-8.214269E-2,5.3926692E-3,-3.225241E-1,-4.963361E-3,-1.5097125E-2,-2.3625896E-3,8.7018885E-2,-8.955277E-3,-1.5542093E-2],"split_indices":[13,9,3,0,0,6,7,0,25,0,28,0,0,0,13,0,0],"split_type":[0,0,0,0,0,0,0,0,0,0,0,0,0,0,0,0,0],"sum_hessian":[1.4561025E3,6.508057E2,8.052968E2,5.8039484E2,7.041085E1,5.591245E2,2.461723E2,4.2782275E2,1.3130179E2,6.004052E1,1.8613179E2,6.0333843E1,7.096794E1,6.023905E1,1.2589273E2,6.0204067E1,6.568867E1],"tree_param":{"num_deleted":"0","num_feature":"29","num_nodes":"17","size_leaf_vector":"1"}},{"base_weights":[4.409427E-3,1.4482852E0,-9.949184E-1,8.096612E-3,1.5198914E-2,-1.2381321E0,2.844717E-1,-1.3809038E0,-7.1218914E-1,-4.2799865E-3,9.516867E-3,-1.4579341E0,-7.359458E-3,-1.36222495E-2,-4.316649E-4,-1.24350665E-2,-1.4922916E0,-1.5270748E-2,-1.3395141E-2],"categories":[],"categories_nodes":[],"categories_segments":[],"categories_sizes":[],"default_left":[0,0,0,0,0,0,0,0,0,0,0,0,0,0,0,0,0,0,0],"id":38,"left_children":[1,3,5,-1,-1,7,9,11,13,-1,-1,15,-1,-1,-1,-1,17,-1,-1],"loss_changes":[2.1120393E3,2.6147705E1,2.695224E2,0E0,0E0,5.361035E1,6.6479355E1,2.7283081E1,6.834532E1,0E0,0E0,1.8930664E0,0E0,0E0,0E0,0E0,2.5860596E-1,0E0,0E0],"parents":[2147483647,0,0,1,1,2,2,5,5,6,6,7,7,8,8,11,11,16,16],"right_children":[2,4,6,-1,-1,8,10,12,14,-1,-1,16,-1,-1,-1,-1,18,-1,-1],"split_conditions":[-1.8456665E0,1.7535503E0,1.6337242E0,8.096612E-3,1.5198914E-2,5.595723E-1,4.3917483E-1,5.2360934E-1,3.8260892E-1,-4.2799865E-3,9.516867E-3,-6.8969476E-1,-7.359458E-3,-1.36222495E-2,-4.316649E-4,-1.24350665E-2,4.075466E-1,-1.5270748E-2,-1.3395141E-2],"split_indices":[9,10,3,0,0,16,10,28,3,0,0,9,0,0,0,0,24,0,0],"split_type":[0,0,0,0,0,0,0,0,0,0,0,0,0,0,0,0,0,0,0],"sum_hessian":[1.4617421E3,5.977032E2,8.6403894E2,6.1501957E1,5.3620123E2,7.260484E2,1.3799051E2,5.697573E2,1.5629109E2,6.690551E1,7.1085E1,5.078428E2,6.191451E1,7.874486E1,7.754623E1,7.526997E1,4.3257285E2,3.450247E2,8.7548134E1],"tree_param":{"num_deleted":"0","num_feature":"29","num_nodes":"19","size_leaf_vector":"1"}},{"base_weights":[-2.0858862E-3,1.4224808E0,-9.9131984E-1,1.5112934E-2,6.3582566E-3,-1.228168E0,2.3005147E-1,-1.3651732E0,-7.321193E-1,8.55442E-3,-5.738502E-3,-1.4456522E0,-6.8328087E-3,-1.3087234E-2,-1.1360946E-3,-1.4958373E-2,-1.266704E-2],"categories":[],"categories_nodes":[],"categories_segments":[],"categories_sizes":[],"default_left":[0,0,0,0,0,0,0,0,0,0,0,0,0,0,0,0,0],"id":39,"left_children":[1,3,5,-1,-1,7,9,11,13,-1,-1,15,-1,-1,-1,-1,-1],"loss_changes":[2.043509E3,4.055847E1,2.478498E2,0E0,0E0,4.7726196E1,7.079818E1,2.9779053E1,5.5957558E1,0E0,0E0,2.6004639E0,0E0,0E0,0E0,0E0,0E0],"parents":[2147483647,0,0,1,1,2,2,5,5,6,6,7,7,8,8,11,11],"right_children":[2,4,6,-1,-1,8,10,12,14,-1,-1,16,-1,-1,-1,-1,-1],"split_conditions":[-1.7485892E0,-2.5306077E0,1.6337242E0,1.5112934E-2,6.3582566E-3,5.595723E-1,3.7885034E-1,4.8692954E-1,3.8260892E-1,8.55442E-3,-5.738502E-3,1.864908E-1,-6.8328087E-3,-1.3087234E-2,-1.1360946E-3,-1.4958373E-2,-1.266704E-2],"split_indices":[9,11,3,0,0,16,9,28,3,0,0,16,0,0,0,0,0],"split_type":[0,0,0,0,0,0,0,0,0,0,0,0,0,0,0,0,0],"sum_hessian":[1.4480886E3,5.932823E2,8.5480634E2,5.322685E2,6.1013805E1,7.159616E2,1.3884471E2,5.5964056E2,1.5632103E2,7.8056786E1,6.078793E1,4.995608E2,6.0079784E1,8.032362E1,7.5997406E1,3.8439917E2,1.1516163E2],"tree_param":{"num_deleted":"0","num_feature":"29","num_nodes":"17","size_leaf_vector":"1"}},{"base_weights":[-3.4751738E-3,1.393098E0,-1.1145228E0,1.4896479E-2,5.080118E-3,-1.3615706E0,-5.4905367E-1,-1.4773878E0,-9.466516E-1,3.8327319E-3,-1.0106446E0,-1.2990657E-2,-1.5052593E-2,-3.6716138E-3,-1.4702693E-2,-5.859042E-3,-1.2652433E-2],"categories":[],"categories_nodes":[],"categories_segments":[],"categories_sizes":[],"default_left":[0,0,0,0,0,0,0,0,0,0,0,0,0,0,0,0,0],"id":40,"left_children":[1,3,5,-1,-1,7,9,11,13,-1,15,-1,-1,-1,-1,-1,-1],"loss_changes":[2.261627E3,5.442993E1,1.12652954E2,0E0,0E0,2.5717163E1,1.0732687E2,2.2808838E-1,3.766742E1,0E0,1.726155E1,0E0,0E0,0E0,0E0,0E0,0E0],"parents":[2147483647,0,0,1,1,2,2,5,5,6,6,7,7,8,8,10,10],"right_children":[2,4,6,-1,-1,8,10,12,14,-1,16,-1,-1,-1,-1,-1,-1],"split_conditions":[-1.8576362E0,-3.267286E0,7.4406105E-1,1.4896479E-2,5.080118E-3,7.1955043E-1,-4.4742262E-1,-7.005516E-1,-5.0812162E-2,3.8327319E-3,-2.2079137E-1,-1.2990657E-2,-1.5052593E-2,-3.6716138E-3,-1.4702693E-2,-5.859042E-3,-1.2652433E-2],"split_indices":[13,13,3,0,0,6,11,13,25,0,13,0,0,0,0,0,0],"split_type":[0,0,0,0,0,0,0,0,0,0,0,0,0,0,0,0,0],"sum_hessian":[1.4555532E3,6.447972E2,8.1075604E2,5.8076154E2,6.403567E1,5.6326385E2,2.4749217E2,4.3834656E2,1.2491727E2,8.2012344E1,1.6547983E2,6.568751E1,3.7265906E2,6.0102615E1,6.481465E1,6.32548E1,1.0222503E2],"tree_param":{"num_deleted":"0","num_feature":"29","num_nodes":"17","size_leaf_vector":"1"}},{"base_weights":[-1.253935E-2,1.3716698E0,-1.1354285E0,1.4939926E-2,4.9706665E-3,-1.3850447E0,-5.689284E-1,-1.4477441E0,-8.98555E-3,1.5139502E-3,-1.1186113E0,-1.1754446E-2,-1.5101476E-2,-8.243275E-3,-1.4233003E-2],"categories":[],"categories_nodes":[],"categories_segments":[],"categories_sizes":[],"default_left":[0,0,0,0,0,0,0,0,0,0,0,0,0,0,0],"id":41,"left_children":[1,3,5,-1,-1,7,9,11,-1,-1,13,-1,-1,-1,-1],"loss_changes":[2.2435369E3,6.842151E1,1.1190442E2,0E0,0E0,1.5551392E1,9.735348E1,6.5133667E0,0E0,0E0,1.131987E1,0E0,0E0,0E0,0E0],"parents":[2147483647,0,0,1,1,2,2,5,5,6,6,7,7,10,10],"right_children":[2,4,6,-1,-1,8,10,12,-1,-1,14,-1,-1,-1,-1],"split_conditions":[-1.6761496E0,-1.3465993E0,7.4406105E-1,1.4939926E-2,4.9706665E-3,4.6345967E-1,-1.8567885E-1,-5.966389E-1,-8.98555E-3,1.5139502E-3,3.8805977E-2,-1.1754446E-2,-1.5101476E-2,-8.243275E-3,-1.4233003E-2],"split_indices":[13,11,3,0,0,28,11,13,0,0,13,0,0,0,0],"split_type":[0,0,0,0,0,0,0,0,0,0,0,0,0,0,0],"sum_hessian":[1.4414243E3,6.4549164E2,7.959326E2,5.656685E2,7.9823135E1,5.514869E2,2.4444576E2,4.8677472E2,6.471216E1,1.0611438E2,1.3833138E2,9.445462E1,3.923201E2,7.225216E1,6.607922E1],"tree_param":{"num_deleted":"0","num_feature":"29","num_nodes":"15","size_leaf_vector":"1"}},{"base_weights":[-9.180289E-3,1.37941E0,-1.1039397E0,1.4825668E-2,5.59077E-3,-4.5150092E-1,-1.2356828E0,1.1794002E-3,-1.0066296E-2,-1.3164628E0,-4.8251525E-3,-8.3581E-3,-1.3704221E0,-1.4194431E0,-9.794451E-3,-1.4663677E0,-1.289061E0,-1.293417E-2,-1.4995562E-2,-9.693155E-3,-1.5366967E-2],"categories":[],"categories_nodes":[],"categories_segments":[],"categories_sizes":[],"default_left":[0,0,0,0,0,0,0,0,0,0,0,0,0,0,0,0,0,0,0,0,0],"id":42,"left_children":[1,3,5,-1,-1,7,9,-1,-1,11,-1,-1,13,15,-1,17,19,-1,-1,-1,-1],"loss_changes":[2.172032E3,5.2473267E1,6.811322E1,0E0,0E0,4.304567E1,3.977118E1,0E0,0E0,1.4395752E1,0E0,0E0,8.9053955E0,1.0165405E0,0E0,2.4108887E-2,9.121201E0,0E0,0E0,0E0,0E0],"parents":[2147483647,0,0,1,1,2,2,5,5,6,6,9,9,12,12,13,13,15,15,16,16],"right_children":[2,4,6,-1,-1,8,10,-1,-1,12,-1,-1,14,16,-1,18,20,-1,-1,-1,-1],"split_conditions":[-1.8576362E0,-1.8456665E0,-7.41471E-1,1.4825668E-2,5.59077E-3,-2.6505655E-1,1.1345395E0,1.1794002E-3,-1.0066296E-2,-3.57668E-1,-4.8251525E-3,-8.3581E-3,3.8685343E-1,3.4223244E-1,-9.794451E-3,-5.901744E-1,1.3327663E-1,-1.293417E-2,-1.4995562E-2,-9.693155E-3,-1.5366967E-2],"split_indices":[13,9,13,0,0,12,6,0,0,20,0,0,20,24,0,11,13,0,0,0,0],"split_type":[0,0,0,0,0,0,0,0,0,0,0,0,0,0,0,0,0,0,0,0,0],"sum_hessian":[1.4268048E3,6.2887775E2,7.979271E2,5.5791296E2,7.096477E1,1.3479619E2,6.63131E2,6.6929085E1,6.78671E1,5.982217E2,6.490928E1,6.204403E1,5.361777E2,4.741037E2,6.2073956E1,3.4109637E2,1.3300731E2,6.1352074E1,2.797443E2,6.0196407E1,7.2810905E1],"tree_param":{"num_deleted":"0","num_feature":"29","num_nodes":"21","size_leaf_vector":"1"}},{"base_weights":[4.5844694E-3,1.3339868E0,-1.1189777E0,1.4760907E-2,5.0028E-3,-1.3605891E0,-5.740301E-1,-1.4236672E0,-8.487179E-3,1.1632203E-3,-1.094817E0,-1.1137145E-2,-1.4850715E-2,-1.3755366E-2,-7.845387E-3],"categories":[],"categories_nodes":[],"categories_segments":[],"categories_sizes":[],"default_left":[0,0,0,0,0,0,0,0,0,0,0,0,0,0,0],"id":43,"left_children":[1,3,5,-1,-1,7,9,11,-1,-1,13,-1,-1,-1,-1],"loss_changes":[2.131936E3,7.67157E1,1.01068665E2,0E0,0E0,1.6072266E1,8.617802E1,7.3866577E0,0E0,0E0,1.0812164E1,0E0,0E0,0E0,0E0],"parents":[2147483647,0,0,1,1,2,2,5,5,6,6,7,7,10,10],"right_children":[2,4,6,-1,-1,8,10,12,-1,-1,14,-1,-1,-1,-1],"split_conditions":[-1.518262E0,-1.5857611E0,7.4406105E-1,1.4760907E-2,5.0028E-3,4.8692954E-1,-1.8567885E-1,-6.161068E-1,-8.487179E-3,1.1632203E-3,-2.5044307E-1,-1.1137145E-2,-1.4850715E-2,-1.3755366E-2,-7.845387E-3],"split_indices":[13,11,3,0,0,28,11,13,0,0,25,0,0,0,0],"split_type":[0,0,0,0,0,0,0,0,0,0,0,0,0,0,0],"sum_hessian":[1.4253185E3,6.5277075E2,7.725477E2,5.570517E2,9.571904E1,5.342032E2,2.3834451E2,4.7400955E2,6.019364E1,1.0282155E2,1.3552298E2,8.15425E1,3.9246704E2,6.934811E1,6.617487E1],"tree_param":{"num_deleted":"0","num_feature":"29","num_nodes":"15","size_leaf_vector":"1"}},{"base_weights":[6.6011734E-3,1.3485861E0,-1.0913616E0,1.4654166E-2,4.534688E-3,-1.3484323E0,-5.0918967E-1,-1.4540268E-2,-9.695389E-1,5.548731E-3,-8.694228E-1,-4.778536E-3,-1.4454775E-2,-2.3422828E-3,-1.1940144E-2],"categories":[],"categories_nodes":[],"categories_segments":[],"categories_sizes":[],"default_left":[0,0,0,0,0,0,0,0,0,0,0,0,0,0,0],"id":44,"left_children":[1,3,5,-1,-1,7,9,-1,11,-1,13,-1,-1,-1,-1],"loss_changes":[2.0953289E3,6.625598E1,1.1636835E2,0E0,0E0,2.0273315E1,9.2931946E1,0E0,2.7653015E1,0E0,3.6951157E1,0E0,0E0,0E0,0E0],"parents":[2147483647,0,0,1,1,2,2,5,5,6,6,8,8,10,10],"right_children":[2,4,6,-1,-1,8,10,-1,12,-1,14,-1,-1,-1,-1],"split_conditions":[-1.6761496E0,-1.5795476E0,7.4406105E-1,1.4654166E-2,4.534688E-3,7.1955043E-1,-2.8329486E-1,-1.4540268E-2,8.276586E-3,5.548731E-3,-3.132885E-1,-4.778536E-3,-1.4454775E-2,-2.3422828E-3,-1.1940144E-2],"split_indices":[13,9,3,0,0,6,7,0,25,0,28,0,0,0,0],"split_type":[0,0,0,0,0,0,0,0,0,0,0,0,0,0,0],"sum_hessian":[1.420058E3,6.3891547E2,7.811426E2,5.645883E2,7.432714E1,5.409556E2,2.4018692E2,4.2083478E2,1.2012089E2,6.0611454E1,1.7957547E2,6.0068752E1,6.0052135E1,6.1313152E1,1.1826232E2],"tree_param":{"num_deleted":"0","num_feature":"29","num_nodes":"15","size_leaf_vector":"1"}},{"base_weights":[-1.2158827E-2,1.2948668E0,-1.1363147E0,1.4636637E-2,3.2919042E-3,-1.3612729E0,-6.054465E-1,-1.4530789E-2,-1.0100547E-2,4.0169575E-6,-1.0771291E0,-7.4779824E-3,-1.3915156E-2],"categories":[],"categories_nodes":[],"categories_segments":[],"categories_sizes":[],"default_left":[0,0,0,0,0,0,0,0,0,0,0,0,0],"id":45,"left_children":[1,3,5,-1,-1,7,9,-1,-1,-1,11,-1,-1],"loss_changes":[2.0715315E3,1.0578284E2,8.969342E1,0E0,0E0,1.5671997E1,6.4982155E1,0E0,0E0,0E0,1.21970215E1,0E0,0E0],"parents":[2147483647,0,0,1,1,2,2,5,5,6,6,10,10],"right_children":[2,4,6,-1,-1,8,10,-1,-1,-1,12,-1,-1],"split_conditions":[-1.4624768E0,-1.3465993E0,7.655082E-1,1.4636637E-2,3.2919042E-3,7.1955043E-1,-1.8567885E-1,-1.4530789E-2,-1.0100547E-2,4.0169575E-6,3.196043E-2,-7.4779824E-3,-1.3915156E-2],"split_indices":[13,11,3,0,0,6,11,0,0,0,13,0,0],"split_type":[0,0,0,0,0,0,0,0,0,0,0,0,0],"sum_hessian":[1.4078745E3,6.5091797E2,7.569566E2,5.5362976E2,9.728822E1,5.3056335E2,2.2639323E2,4.1812973E2,1.1243364E2,9.953964E1,1.26853584E2,6.360437E1,6.3249214E1],"tree_param":{"num_deleted":"0","num_feature":"29","num_nodes":"13","size_leaf_vector":"1"}},{"base_weights":[9.07834E-3,1.2945995E0,-1.1163343E0,4.1801156E-4,1.4210856E0,-1.3529352E0,-5.930516E-1,1.4640746E-2,1.05363E-2,-1.4477962E-2,-1.0399005E0,-2.576621E-4,-1.144944E-2,-1.3920601E-2,-6.9018034E-3],"categories":[],"categories_nodes":[],"categories_segments":[],"categories_sizes":[],"default_left":[0,0,0,0,0,0,0,0,0,0,0,0,0,0,0],"id":46,"left_children":[1,3,5,-1,7,9,11,-1,-1,-1,13,-1,-1,-1,-1],"loss_changes":[2.0507368E3,1.0479028E2,9.2774414E1,0E0,7.9505615E0,1.3926758E1,7.4206406E1,0E0,0E0,0E0,1.4361465E1,0E0,0E0,0E0,0E0],"parents":[2147483647,0,0,1,1,2,2,4,4,5,5,6,6,10,10],"right_children":[2,4,6,-1,8,10,12,-1,-1,-1,14,-1,-1,-1,-1],"split_conditions":[-1.4624768E0,9.272434E-1,7.4406105E-1,4.1801156E-4,-1.9825908E0,6.669963E-1,3.3515155E-2,1.4640746E-2,1.05363E-2,-1.4477962E-2,-2.4596074E-1,-2.576621E-4,-1.144944E-2,-1.3920601E-2,-6.9018034E-3],"split_indices":[13,3,3,0,9,6,7,0,0,0,28,0,0,0,0],"split_type":[0,0,0,0,0,0,0,0,0,0,0,0,0,0,0],"sum_hessian":[1.4154875E3,6.606728E2,7.5481476E2,6.070844E1,5.9996436E2,5.1870026E2,2.3611447E2,5.3445374E2,6.5510605E1,3.952883E2,1.2341197E2,1.1694964E2,1.19164825E2,6.000646E1,6.3405518E1],"tree_param":{"num_deleted":"0","num_feature":"29","num_nodes":"15","size_leaf_vector":"1"}},{"base_weights":[-2.6326225E-4,1.383161E0,-9.289339E-1,1.4539412E-2,7.847947E-3,-1.1770941E0,2.1949099E-1,-1.4170796E0,-8.6966765E-1,-4.307559E-3,9.373886E-3,-1.4747519E-2,-1.1856233E-2,1.10571586E-4,-1.1859043E0,-6.336144E-3,-1.3844571E0,-1.4918695E-2,-1.1777963E-2],"categories":[],"categories_nodes":[],"categories_segments":[],"categories_sizes":[],"default_left":[0,0,0,0,0,0,0,0,0,0,0,0,0,0,0,0,0,0,0],"id":47,"left_children":[1,3,5,-1,-1,7,9,11,13,-1,-1,-1,-1,-1,15,-1,17,-1,-1],"loss_changes":[1.8165406E3,2.2911621E1,2.4136676E2,0E0,0E0,5.0105408E1,7.097234E1,3.4467773E0,8.569794E1,0E0,0E0,0E0,0E0,0E0,2.3946808E1,0E0,1.9204407E0,0E0,0E0],"parents":[2147483647,0,0,1,1,2,2,5,5,6,6,7,7,8,8,14,14,16,16],"right_children":[2,4,6,-1,-1,8,10,12,14,-1,-1,-1,-1,-1,16,-1,18,-1,-1],"split_conditions":[-1.7485892E0,-2.6635263E0,1.5398034E0,1.4539412E-2,7.847947E-3,1.4635944E-1,4.3917483E-1,6.282207E-2,-4.9671313E-1,-4.307559E-3,9.373886E-3,-1.4747519E-2,-1.1856233E-2,1.10571586E-4,-4.7165143E-1,-6.336144E-3,3.0349496E-1,-1.4918695E-2,-1.1777963E-2],"split_indices":[9,11,3,0,0,3,10,28,9,0,0,0,0,0,0,0,24,0,0],"split_type":[0,0,0,0,0,0,0,0,0,0,0,0,0,0,0,0,0,0,0],"sum_hessian":[1.4119303E3,5.669161E2,8.450142E2,5.0567087E2,6.1245205E1,6.948425E2,1.5017169E2,3.8819635E2,3.0664618E2,7.900849E1,7.11632E1,3.0646277E2,8.1733574E1,8.1270744E1,2.2537544E2,6.0706585E1,1.6466887E2,1.0426038E2,6.0408478E1],"tree_param":{"num_deleted":"0","num_feature":"29","num_nodes":"19","size_leaf_vector":"1"}},{"base_weights":[1.0269375E-4,1.2912167E0,-1.0854337E0,1.4409543E-2,3.9795083E-3,-2.302638E-3,-1.2075552E0,-6.801589E-3,-1.3057268E0,-1.3546207E0,-8.934042E-3,-1.10065E-2,-1.409098E0,-1.4835539E-2,-1.3184245E0,-1.4579407E-2,-1.1456686E-2],"categories":[],"categories_nodes":[],"categories_segments":[],"categories_sizes":[],"default_left":[0,0,0,0,0,0,0,0,0,0,0,0,0,0,0,0,0],"id":48,"left_children":[1,3,5,-1,-1,-1,7,-1,9,11,-1,-1,13,-1,15,-1,-1],"loss_changes":[1.9649153E3,8.507617E1,7.926068E1,0E0,0E0,0E0,3.360498E1,0E0,1.0090942E1,5.355957E0,0E0,0E0,7.949219E-1,0E0,2.9744263E0,0E0,0E0],"parents":[2147483647,0,0,1,1,2,2,6,6,8,8,9,9,12,12,14,14],"right_children":[2,4,6,-1,-1,-1,8,-1,10,12,-1,-1,14,-1,16,-1,-1],"split_conditions":[-1.518262E0,-1.3465993E0,-4.7139797E-1,1.4409543E-2,3.9795083E-3,-2.302638E-3,-6.6310203E-1,-6.801589E-3,9.2472464E-1,-7.3934877E-1,-8.934042E-3,-1.10065E-2,-1.3654095E-1,-1.4835539E-2,1.4664541E-2,-1.4579407E-2,-1.1456686E-2],"split_indices":[13,11,7,0,0,0,13,0,6,14,0,0,4,0,27,0,0],"split_type":[0,0,0,0,0,0,0,0,0,0,0,0,0,0,0,0,0],"sum_hessian":[1.3999574E3,6.3934485E2,7.606126E2,5.470329E2,9.231193E1,9.540603E1,6.652066E2,1.0563637E2,5.595702E2,4.9820667E2,6.1363544E1,9.1736984E1,4.064697E2,2.1475984E2,1.9170984E2,1.0194255E2,8.976729E1],"tree_param":{"num_deleted":"0","num_feature":"29","num_nodes":"17","size_leaf_vector":"1"}},{"base_weights":[-1.7056255E-2,1.3729582E0,-9.3139213E-1,1.4451759E-2,8.902774E-3,-1.0797763E0,-9.9226454E-5,-3.1837905E-4,-1.1811234E0,-7.4463445E-3,-1.2377677E0,-1.0261568E0,-1.3457869E0,-1.2346027E0,-5.528468E-3,-1.3994442E0,-1.0521595E-2,-1.4644816E-2,-9.926774E-3,-1.2557816E-2,-1.4607218E-2],"categories":[],"categories_nodes":[],"categories_segments":[],"categories_sizes":[],"default_left":[0,0,0,0,0,0,0,0,0,0,0,0,0,0,0,0,0,0,0,0,0],"id":49,"left_children":[1,3,5,-1,-1,7,-1,-1,9,-1,11,13,15,17,-1,19,-1,-1,-1,-1,-1],"loss_changes":[1.7763558E3,1.8044922E1,1.1526514E2,0E0,0E0,7.708258E1,0E0,0E0,1.5448059E1,0E0,1.19800415E1,1.922194E1,4.5739746E0,6.2906494E0,0E0,9.9542236E-1,0E0,0E0,0E0,0E0,0E0],"parents":[2147483647,0,0,1,1,2,2,5,5,8,8,10,10,11,11,12,12,13,13,15,15],"right_children":[2,4,6,-1,-1,8,-1,-1,10,-1,12,14,16,18,-1,20,-1,-1,-1,-1,-1],"split_conditions":[-1.8456665E0,-9.880523E-1,1.0204093E0,1.4451759E-2,8.902774E-3,-5.053723E-1,-9.9226454E-5,-3.1837905E-4,-8.713082E-1,-7.4463445E-3,-4.628538E-1,7.565873E-1,5.926052E-1,-1.2790174E-2,-5.528468E-3,-1.2165268E-1,-1.0521595E-2,-1.4644816E-2,-9.926774E-3,-1.2557816E-2,-1.4607218E-2],"split_indices":[9,16,16,0,0,19,0,0,9,0,8,1,18,22,0,23,0,0,0,0,0],"split_type":[0,0,0,0,0,0,0,0,0,0,0,0,0,0,0,0,0,0,0,0,0],"sum_hessian":[1.3956647E3,5.5358234E2,8.4208234E2,4.7980142E2,7.3780945E1,7.251411E2,1.16941216E2,6.406074E1,6.610804E2,7.7560646E1,5.835197E2,2.0074939E2,3.8277032E2,1.3825386E2,6.2495533E1,3.2044614E2,6.2324184E1,6.830071E1,6.995315E1,1.0224071E2,2.1820543E2],"tree_param":{"num_deleted":"0","num_feature":"29","num_nodes":"21","size_leaf_vector":"1"}},{"base_weights":[-1.6586995E-3,1.303536E0,-1.0595313E0,1.4216632E-2,4.0045413E-3,-1.3093191E0,-5.0156206E-1,-1.4208976E0,-9.5268774E-1,4.6802193E-4,-1.0315028E0,-1.2560028E-2,-1.4512102E-2,-4.5512104E-3,-1.37915965E-2,-7.196124E-3,-1.32538E-2],"categories":[],"categories_nodes":[],"categories_segments":[],"categories_sizes":[],"default_left":[0,0,0,0,0,0,0,0,0,0,0,0,0,0,0,0,0],"id":50,"left_children":[1,3,5,-1,-1,7,9,11,13,-1,15,-1,-1,-1,-1,-1,-1],"loss_changes":[1.917954E3,6.576904E1,1.0627576E2,0E0,0E0,1.9710754E1,6.946626E1,1.8249512E-1,2.6785172E1,0E0,1.0184723E1,0E0,0E0,0E0,0E0,0E0,0E0],"parents":[2147483647,0,0,1,1,2,2,5,5,6,6,7,7,8,8,10,10],"right_children":[2,4,6,-1,-1,8,10,12,14,-1,16,-1,-1,-1,-1,-1,-1],"split_conditions":[-1.6761496E0,-3.267286E0,7.4406105E-1,1.4216632E-2,4.0045413E-3,6.669963E-1,3.3515155E-2,-7.0391065E-1,-1.7759498E-2,4.6802193E-4,2.7480116E-1,-1.2560028E-2,-1.4512102E-2,-4.5512104E-3,-1.37915965E-2,-7.196124E-3,-1.32538E-2],"split_indices":[13,13,3,0,0,6,7,14,25,0,5,0,0,0,0,0,0],"split_type":[0,0,0,0,0,0,0,0,0,0,0,0,0,0,0,0,0],"sum_hessian":[1.3870869E3,6.2085223E2,7.662347E2,5.485281E2,7.232414E1,5.28357E2,2.3787767E2,4.001718E2,1.2818517E2,1.17354744E2,1.2052292E2,6.87299E1,3.3144193E2,6.0115417E1,6.8069756E1,6.0142586E1,6.0380337E1],"tree_param":{"num_deleted":"0","num_feature":"29","num_nodes":"17","size_leaf_vector":"1"}},{"base_weights":[3.0993705E-3,1.3175054E0,-1.0277212E0,1.423951E-2,5.390604E-3,-1.2785403E0,-4.60264E-1,-1.4024078E0,-8.6070776E-1,2.3875788E-3,-1.0233145E0,-1.2244952E-2,-1.4292683E-2,-1.2927048E-2,-3.8213572E-3,-6.986987E-3,-1.2808578E-2],"categories":[],"categories_nodes":[],"categories_segments":[],"categories_sizes":[],"default_left":[0,0,0,0,0,0,0,0,0,0,0,0,0,0,0,0,0],"id":51,"left_children":[1,3,5,-1,-1,7,9,11,13,-1,15,-1,-1,-1,-1,-1,-1],"loss_changes":[1.8784249E3,4.972583E1,1.1000281E2,0E0,0E0,2.6651978E1,9.4599434E1,2.263794E-1,2.5488045E1,0E0,1.0221695E1,0E0,0E0,0E0,0E0,0E0,0E0],"parents":[2147483647,0,0,1,1,2,2,5,5,6,6,7,7,8,8,10,10],"right_children":[2,4,6,-1,-1,8,10,12,14,-1,16,-1,-1,-1,-1,-1,-1],"split_conditions":[-1.8576362E0,-1.5857611E0,7.655082E-1,1.423951E-2,5.390604E-3,6.862798E-1,-2.1362914E-1,-7.005516E-1,-4.9366224E-1,2.3875788E-3,-8.3346605E-2,-1.2244952E-2,-1.4292683E-2,-1.2927048E-2,-3.8213572E-3,-6.986987E-3,-1.2808578E-2],"split_indices":[13,11,3,0,0,6,11,13,3,0,13,0,0,0,0,0,0],"split_type":[0,0,0,0,0,0,0,0,0,0,0,0,0,0,0,0,0],"sum_hessian":[1.3843773E3,6.083668E2,7.7601056E2,5.344554E2,7.3911415E1,5.372778E2,2.3873277E2,4.126039E2,1.2467387E2,1.067632E2,1.3196957E2,6.0233135E1,3.523708E2,6.463134E1,6.0042526E1,6.0025047E1,7.194452E1],"tree_param":{"num_deleted":"0","num_feature":"29","num_nodes":"17","size_leaf_vector":"1"}},{"base_weights":[8.860058E-3,1.3111259E0,-1.0239493E0,1.4174564E-2,4.7885207E-3,-3.295662E-1,-1.1581886E0,3.4342753E-3,-9.75236E-3,-1.2370777E0,-4.084603E-3,-7.376179E-3,-1.2949272E0,-1.0249987E0,-1.3785573E0,-1.3566298E-2,-6.424119E-3,-1.2632123E-2,-1.4178217E-2],"categories":[],"categories_nodes":[],"categories_segments":[],"categories_sizes":[],"default_left":[0,0,0,0,0,0,0,0,0,0,0,0,0,0,0,0,0,0,0],"id":52,"left_children":[1,3,5,-1,-1,7,9,-1,-1,11,-1,-1,13,15,17,-1,-1,-1,-1],"loss_changes":[1.8621472E3,5.3513428E1,7.15921E1,0E0,0E0,5.529739E1,3.7741272E1,0E0,0E0,1.5935791E1,0E0,0E0,1.0383972E1,1.5306824E1,2.8686523E-3,0E0,0E0,0E0,0E0],"parents":[2147483647,0,0,1,1,2,2,5,5,6,6,9,9,12,12,13,13,14,14],"right_children":[2,4,6,-1,-1,8,10,-1,-1,12,-1,-1,14,16,18,-1,-1,-1,-1],"split_conditions":[-1.7656939E0,-1.5795476E0,-7.41471E-1,1.4174564E-2,4.7885207E-3,-2.6505655E-1,1.1345395E0,3.4342753E-3,-9.75236E-3,-3.9024177E-1,-4.084603E-3,-7.376179E-3,-3.3527797E-1,-3.6964574E-1,-1.9226065E-1,-1.3566298E-2,-6.424119E-3,-1.2632123E-2,-1.4178217E-2],"split_indices":[13,9,13,0,0,12,6,0,0,19,0,0,28,5,13,0,0,0,0],"split_type":[0,0,0,0,0,0,0,0,0,0,0,0,0,0,0,0,0,0,0],"sum_hessian":[1.3825059E3,6.1136646E2,7.711394E2,5.414839E2,6.9882545E1,1.2548664E2,6.456528E2,6.167243E1,6.3814217E1,5.835947E2,6.205801E1,6.200529E1,5.215895E2,1.2651137E2,3.950781E2,6.640485E1,6.010652E1,1.08757996E2,2.863201E2],"tree_param":{"num_deleted":"0","num_feature":"29","num_nodes":"19","size_leaf_vector":"1"}},{"base_weights":[-1.1203804E-3,1.3477697E0,-8.9833814E-1,1.4167117E-2,7.802055E-3,-1.0653186E0,1.0918296E-3,3.6346514E-4,-1.171677E0,-6.3825576E-3,-1.2260249E0,-8.914123E-1,-1.3112487E0,-5.5385614E-3,-1.2206002E-2,-1.3678224E0,-1.028654E-2,-1.4113901E-2,-1.1342947E-2],"categories":[],"categories_nodes":[],"categories_segments":[],"categories_sizes":[],"default_left":[0,0,0,0,0,0,0,0,0,0,0,0,0,0,0,0,0,0,0],"id":53,"left_children":[1,3,5,-1,-1,7,-1,-1,9,-1,11,13,15,-1,-1,17,-1,-1,-1],"loss_changes":[1.6698334E3,2.046045E1,1.3951678E2,0E0,0E0,8.333838E1,0E0,0E0,1.8012817E1,0E0,1.5579041E1,1.2918327E1,6.0424194E0,0E0,0E0,2.3182373E0,0E0,0E0,0E0],"parents":[2147483647,0,0,1,1,2,2,5,5,8,8,10,10,11,11,12,12,15,15],"right_children":[2,4,6,-1,-1,8,-1,-1,10,-1,12,14,16,-1,-1,18,-1,-1,-1],"split_conditions":[-1.8456665E0,-2.6129818E0,1.0204093E0,1.4167117E-2,7.802055E-3,-6.93273E-1,1.0918296E-3,3.6346514E-4,-1.0506274E0,-6.3825576E-3,-5.5743086E-1,1.8777853E-1,4.076014E-1,-5.5385614E-3,-1.2206002E-2,8.9045703E-1,-1.028654E-2,-1.4113901E-2,-1.1342947E-2],"split_indices":[9,11,16,0,0,7,0,0,18,0,15,11,16,0,0,11,0,0,0],"split_type":[0,0,0,0,0,0,0,0,0,0,0,0,0,0,0,0,0,0,0],"sum_hessian":[1.3777441E3,5.5014545E2,8.2759875E2,4.8922342E2,6.0922016E1,7.0988873E2,1.1771001E2,6.2558937E1,6.473298E2,6.103347E1,5.862963E2,1.2134023E2,4.649561E2,6.1233063E1,6.010717E1,3.8420105E2,8.075504E1,3.195424E2,6.465865E1],"tree_param":{"num_deleted":"0","num_feature":"29","num_nodes":"19","size_leaf_vector":"1"}},{"base_weights":[1.3770475E-2,1.2602758E0,-1.0340701E0,1.4797099E-3,1.3791674E0,-1.284356E0,-4.633895E-1,1.4135702E-2,1.07723875E-2,-1.3990996E-2,-9.183426E-1,2.6635483E-3,-1.0053651E0,-1.3136001E-2,-4.8687207E-3,-6.9734505E-3,-1.3065251E-2],"categories":[],"categories_nodes":[],"categories_segments":[],"categories_sizes":[],"default_left":[0,0,0,0,0,0,0,0,0,0,0,0,0,0,0,0,0],"id":54,"left_children":[1,3,5,-1,7,9,11,-1,-1,-1,13,-1,15,-1,-1,-1,-1],"loss_changes":[1.7917693E3,8.264752E1,1.058587E2,0E0,4.3551025E0,2.044983E1,9.075212E1,0E0,0E0,0E0,2.092173E1,0E0,1.1286423E1,0E0,0E0,0E0,0E0],"parents":[2147483647,0,0,1,1,2,2,4,4,5,5,6,6,10,10,12,12],"right_children":[2,4,6,-1,8,10,12,-1,-1,-1,14,-1,16,-1,-1,-1,-1],"split_conditions":[-1.518262E0,1.0334482E0,7.943363E-1,1.4797099E-3,-1.9825908E0,6.669963E-1,-2.1362914E-1,1.4135702E-2,1.07723875E-2,-1.3990996E-2,-1.775475E-1,2.6635483E-3,3.196043E-2,-1.3136001E-2,-4.8687207E-3,-6.9734505E-3,-1.3065251E-2],"split_indices":[13,3,3,0,9,6,11,0,0,0,14,0,13,0,0,0,0],"split_type":[0,0,0,0,0,0,0,0,0,0,0,0,0,0,0,0,0],"sum_hessian":[1.3698082E3,6.255065E2,7.4430176E2,6.0619366E1,5.648871E2,5.1651917E2,2.2778262E2,5.0380072E2,6.108639E1,3.910911E2,1.2542806E2,9.729206E1,1.3049057E2,6.4394066E1,6.1033997E1,6.614964E1,6.434092E1],"tree_param":{"num_deleted":"0","num_feature":"29","num_nodes":"17","size_leaf_vector":"1"}},{"base_weights":[-4.6531362E-3,1.2760335E0,-1.0407774E0,4.4842493E-3,1.4032685E-2,-1.2853211E0,-4.9901065E-1,-1.3836536E0,-9.327154E-3,1.9879714E-3,-1.009549E0,-1.23514375E-2,-1.4134561E-2,-7.0885494E-3,-1.3165598E-2],"categories":[],"categories_nodes":[],"categories_segments":[],"categories_sizes":[],"default_left":[0,0,0,0,0,0,0,0,0,0,0,0,0,0,0],"id":55,"left_children":[1,3,5,-1,-1,7,9,11,-1,-1,13,-1,-1,-1,-1],"loss_changes":[1.8199655E3,6.3960205E1,9.980347E1,0E0,0E0,1.67995E1,8.478429E1,5.0598145E-2,0E0,0E0,1.1739334E1,0E0,0E0,0E0,0E0],"parents":[2147483647,0,0,1,1,2,2,5,5,6,6,7,7,10,10],"right_children":[2,4,6,-1,-1,8,10,12,-1,-1,14,-1,-1,-1,-1],"split_conditions":[-1.6761496E0,1.7295182E0,7.4406105E-1,4.4842493E-3,1.4032685E-2,7.1955043E-1,-2.0008416E-1,-6.662268E-1,-9.327154E-3,1.9879714E-3,3.8805977E-2,-1.23514375E-2,-1.4134561E-2,-7.0885494E-3,-1.3165598E-2],"split_indices":[13,3,3,0,0,6,11,14,0,0,13,0,0,0,0],"split_type":[0,0,0,0,0,0,0,0,0,0,0,0,0,0,0],"sum_hessian":[1.3695388E3,6.1238165E2,7.571571E2,8.2204155E1,5.3017755E2,5.207346E2,2.3642249E2,4.048956E2,1.1583903E2,1.0014885E2,1.3627362E2,7.476658E1,3.3012903E2,7.051671E1,6.575692E1],"tree_param":{"num_deleted":"0","num_feature":"29","num_nodes":"15","size_leaf_vector":"1"}},{"base_weights":[-2.1456562E-2,1.2356395E0,-1.0409931E0,1.3949302E-2,3.4911074E-3,-1.210406E0,-1.6388546E-1,-8.884172E-1,-1.3448017E0,4.493862E-3,-7.93935E-3,-1.3012041E-2,-4.5374576E-3,-1.1915631E0,-1.41112255E-2,-8.925372E-3,-1.404426E-2],"categories":[],"categories_nodes":[],"categories_segments":[],"categories_sizes":[],"default_left":[0,0,0,0,0,0,0,0,0,0,0,0,0,0,0,0,0],"id":56,"left_children":[1,3,5,-1,-1,7,9,11,13,-1,-1,-1,-1,15,-1,-1,-1],"loss_changes":[1.7518529E3,8.595514E1,1.1195038E2,0E0,0E0,2.6171814E1,4.8012314E1,3.3352753E1,2.833191E0,0E0,0E0,0E0,0E0,7.6966248E0,0E0,0E0,0E0],"parents":[2147483647,0,0,1,1,2,2,5,5,6,6,7,7,8,8,13,13],"right_children":[2,4,6,-1,-1,8,10,12,14,-1,-1,-1,-1,16,-1,-1,-1],"split_conditions":[-1.518262E0,-1.3465993E0,1.3796189E0,1.3949302E-2,3.4911074E-3,-5.601306E-1,2.4560705E-2,1.4635944E-1,-5.727219E-1,4.493862E-3,-7.93935E-3,-1.3012041E-2,-4.5374576E-3,-1.5528542E-1,-1.41112255E-2,-8.925372E-3,-1.404426E-2],"split_indices":[13,11,3,0,0,12,7,3,10,0,0,0,0,25,0,0,0],"split_type":[0,0,0,0,0,0,0,0,0,0,0,0,0,0,0,0,0],"sum_hessian":[1.3648638E3,6.111274E2,7.5373645E2,5.175592E2,9.356815E1,6.314016E2,1.2233482E2,1.8817572E2,4.432259E2,6.2138138E1,6.0196686E1,9.5495026E1,9.26807E1,1.3961148E2,3.0361438E2,6.0215218E1,7.939627E1],"tree_param":{"num_deleted":"0","num_feature":"29","num_nodes":"17","size_leaf_vector":"1"}},{"base_weights":[1.8961652E-3,1.3291112E0,-8.6881584E-1,7.987008E-3,1.3950853E-2,-1.098468E0,3.303533E-1,-1.3700265E0,-8.223632E-1,9.888759E-3,-3.914151E-3,-1.4282722E-2,-1.08019505E-2,4.0684134E-4,-1.0102451E0,-3.6163852E-3,-1.2519792E0,-1.0821024E-2,-1.3807609E-2],"categories":[],"categories_nodes":[],"categories_segments":[],"categories_sizes":[],"default_left":[0,0,0,0,0,0,0,0,0,0,0,0,0,0,0,0,0,0,0],"id":57,"left_children":[1,3,5,-1,-1,7,9,11,13,-1,-1,-1,-1,-1,15,-1,17,-1,-1],"loss_changes":[1.547806E3,1.7452942E1,2.2309375E2,0E0,0E0,4.9784973E1,6.2538548E1,4.2108154E0,5.5041275E1,0E0,0E0,0E0,0E0,0E0,4.322754E1,0E0,2.9369202E0,0E0,0E0],"parents":[2147483647,0,0,1,1,2,2,5,5,6,6,7,7,8,8,14,14,16,16],"right_children":[2,4,6,-1,-1,8,10,12,14,-1,-1,-1,-1,-1,16,-1,18,-1,-1],"split_conditions":[-1.8456665E0,1.8291796E0,1.7295182E0,7.987008E-3,1.3950853E-2,2.4991786E-2,3.080026E-1,1.3772915E-1,-3.5826015E-1,9.888759E-3,-3.914151E-3,-1.4282722E-2,-1.08019505E-2,4.0684134E-4,-4.8618537E-1,-3.6163852E-3,1.17593355E-1,-1.0821024E-2,-1.3807609E-2],"split_indices":[9,10,3,0,0,3,9,28,7,0,0,0,0,0,9,0,8,0,0],"split_type":[0,0,0,0,0,0,0,0,0,0,0,0,0,0,0,0,0,0,0],"sum_hessian":[1.3373712E3,5.29593E2,8.0777826E2,6.003528E1,4.6955774E2,6.780158E2,1.2976242E2,3.3982468E2,3.3819116E2,6.766059E1,6.2101826E1,2.7968924E2,6.013543E1,6.060083E1,2.7759033E2,7.604553E1,2.0154478E2,9.09606E1,1.1058419E2],"tree_param":{"num_deleted":"0","num_feature":"29","num_nodes":"19","size_leaf_vector":"1"}},{"base_weights":[-3.574169E-4,1.3140358E0,-8.938814E-1,1.3898944E-2,6.9083464E-3,-1.1206778E0,1.431038E-1,-1.352816E0,-8.180141E-1,-5.2218456E-3,8.680879E-3,-1.4083167E-2,-1.1293684E-2,-7.894088E-4,-1.0721095E0,-4.796197E-3,-1.3020267E0,-1.4248479E-2,-1.0923787E-2],"categories":[],"categories_nodes":[],"categories_segments":[],"categories_sizes":[],"default_left":[0,0,0,0,0,0,0,0,0,0,0,0,0,0,0,0,0,0,0],"id":58,"left_children":[1,3,5,-1,-1,7,9,11,13,-1,-1,-1,-1,-1,15,-1,17,-1,-1],"loss_changes":[1.5948444E3,2.502002E1,1.9028491E2,0E0,0E0,4.5506775E1,7.0854225E1,3.046875E0,5.4471024E1,0E0,0E0,0E0,0E0,0E0,2.8813797E1,0E0,2.437378E0,0E0,0E0],"parents":[2147483647,0,0,1,1,2,2,5,5,6,6,7,7,8,8,14,14,16,16],"right_children":[2,4,6,-1,-1,8,10,12,14,-1,-1,-1,-1,-1,16,-1,18,-1,-1],"split_conditions":[-1.7485892E0,-2.6129818E0,1.494274E0,1.3898944E-2,6.9083464E-3,1.6651496E-1,4.3917483E-1,6.282207E-2,-5.114638E-1,-5.2218456E-3,8.680879E-3,-1.4083167E-2,-1.1293684E-2,-7.894088E-4,-4.3033022E-1,-4.796197E-3,2.998668E-1,-1.4248479E-2,-1.0923787E-2],"split_indices":[9,11,3,0,0,3,10,28,9,0,0,0,0,0,0,0,24,0,0],"split_type":[0,0,0,0,0,0,0,0,0,0,0,0,0,0,0,0,0,0,0],"sum_hessian":[1.3559592E3,5.485539E2,8.0740533E2,4.8793076E2,6.0623154E1,6.624433E2,1.4496204E2,3.7293704E2,2.8950626E2,7.57391E1,6.9222946E1,2.944883E2,7.844873E1,7.44035E1,2.1510274E2,6.0998238E1,1.541045E2,9.351995E1,6.0584553E1],"tree_param":{"num_deleted":"0","num_feature":"29","num_nodes":"19","size_leaf_vector":"1"}},{"base_weights":[-6.618972E-4,1.2212553E0,-1.0181892E0,3.856336E-3,1.3813913E-2,-1.2647039E0,-4.8710728E-1,-1.3381461E0,-7.4916864E-3,4.598442E-3,-8.3872104E-1,-1.07091E-2,-1.3791546E-2,-2.9732655E-3,-1.1391717E-2],"categories":[],"categories_nodes":[],"categories_segments":[],"categories_sizes":[],"default_left":[0,0,0,0,0,0,0,0,0,0,0,0,0,0,0],"id":59,"left_children":[1,3,5,-1,-1,7,9,11,-1,-1,13,-1,-1,-1,-1],"loss_changes":[1.6869037E3,8.195825E1,9.630267E1,0E0,0E0,1.8116943E1,7.9069435E1,3.3531494E0,0E0,0E0,2.7750137E1,0E0,0E0,0E0,0E0],"parents":[2147483647,0,0,1,1,2,2,5,5,6,6,7,7,10,10],"right_children":[2,4,6,-1,-1,8,10,12,-1,-1,14,-1,-1,-1,-1],"split_conditions":[-1.4624768E0,1.7295182E0,7.4406105E-1,3.856336E-3,1.3813913E-2,1.0204974E0,-2.5008547E-1,-6.6310203E-1,-7.4916864E-3,4.598442E-3,-3.132885E-1,-1.07091E-2,-1.3791546E-2,-2.9732655E-3,-1.1391717E-2],"split_indices":[13,3,3,0,0,6,7,13,0,0,28,0,0,0,0],"split_type":[0,0,0,0,0,0,0,0,0,0,0,0,0,0,0],"sum_hessian":[1.3547579E3,6.1546484E2,7.392931E2,9.9526024E1,5.1593884E2,5.0397797E2,2.3531511E2,4.3973804E2,6.4239944E1,6.3633156E1,1.7168196E2,6.2109653E1,3.7762836E2,6.1982586E1,1.0969937E2],"tree_param":{"num_deleted":"0","num_feature":"29","num_nodes":"15","size_leaf_vector":"1"}},{"base_weights":[4.3935296E-3,1.2724304E0,-9.807771E-1,5.4403157E-3,1.3809163E-2,-1.2465519E0,-4.1447616E-1,-1.3532673E0,-8.962216E-1,6.159923E-3,-7.739705E-1,-1.2078099E-2,-1.3849468E-2,-1.2477724E-2,-5.2797818E-3,-1.3401489E-3,-1.10497195E-2],"categories":[],"categories_nodes":[],"categories_segments":[],"categories_sizes":[],"default_left":[0,0,0,0,0,0,0,0,0,0,0,0,0,0,0,0,0],"id":60,"left_children":[1,3,5,-1,-1,7,9,11,13,-1,15,-1,-1,-1,-1,-1,-1],"loss_changes":[1.6589712E3,4.5131226E1,1.1196686E2,0E0,0E0,1.7784363E1,8.946289E1,1.1303711E-1,1.508403E1,0E0,3.766886E1,0E0,0E0,0E0,0E0,0E0,0E0],"parents":[2147483647,0,0,1,1,2,2,5,5,6,6,7,7,8,8,10,10],"right_children":[2,4,6,-1,-1,8,10,12,14,-1,16,-1,-1,-1,-1,-1,-1],"split_conditions":[-1.8576362E0,1.7295182E0,7.4406105E-1,5.4403157E-3,1.3809163E-2,6.862798E-1,-3.0081323E-1,-5.69194E-1,3.5773568E-2,6.159923E-3,-2.9082996E-1,-1.2078099E-2,-1.3849468E-2,-1.2477724E-2,-5.2797818E-3,-1.3401489E-3,-1.10497195E-2],"split_indices":[13,3,3,0,0,6,7,13,17,0,13,0,0,0,0,0,0],"split_type":[0,0,0,0,0,0,0,0,0,0,0,0,0,0,0,0,0],"sum_hessian":[1.325993E3,5.796369E2,7.463562E2,7.591837E1,5.037185E2,5.071437E2,2.3921251E2,3.865365E2,1.20607216E2,6.1684414E1,1.7752809E2,7.612623E1,3.1041028E2,6.048018E1,6.0127033E1,6.099866E1,1.16529434E2],"tree_param":{"num_deleted":"0","num_feature":"29","num_nodes":"17","size_leaf_vector":"1"}},{"base_weights":[6.7816246E-3,1.2271802E0,-1.0016882E0,1.3602119E-2,3.5137944E-3,-1.2072875E-3,-1.1497099E0,-6.6696457E-3,-1.2445295E0,-8.4286E-3,-1.2982091E0,-1.3424795E0,-1.0085976E-2,-1.1523348E-2,-1.3778044E-2],"categories":[],"categories_nodes":[],"categories_segments":[],"categories_sizes":[],"default_left":[0,0,0,0,0,0,0,0,0,0,0,0,0,0,0],"id":61,"left_children":[1,3,5,-1,-1,-1,7,-1,9,-1,11,13,-1,-1,-1],"loss_changes":[1.6350325E3,6.955438E1,9.4716736E1,0E0,0E0,0E0,2.7671204E1,0E0,1.0102234E1,0E0,4.495117E0,1.0499878E0,0E0,0E0,0E0],"parents":[2147483647,0,0,1,1,2,2,6,6,8,8,10,10,11,11],"right_children":[2,4,6,-1,-1,-1,8,-1,10,-1,12,14,-1,-1,-1],"split_conditions":[-1.518262E0,-3.267286E0,-4.4191074E-1,1.3602119E-2,3.5137944E-3,-1.2072875E-3,-6.391796E-1,-6.6696457E-3,-9.9889743E-1,-8.4286E-3,8.524468E-1,-8.039298E-1,-1.0085976E-2,-1.1523348E-2,-1.3778044E-2],"split_indices":[13,13,7,0,0,0,13,0,18,0,18,14,0,0,0],"split_type":[0,0,0,0,0,0,0,0,0,0,0,0,0,0,0],"sum_hessian":[1.3265018E3,6.0008856E2,7.264133E2,5.204765E2,7.961204E1,1.04757706E2,6.216556E2,1.033769E2,5.182787E2,6.3067112E1,4.5521158E2,3.917004E2,6.351119E1,6.663638E1,3.2506403E2],"tree_param":{"num_deleted":"0","num_feature":"29","num_nodes":"15","size_leaf_vector":"1"}},{"base_weights":[3.1590501E-3,1.2091078E0,-1.0236984E0,1.1402764E-3,1.3297565E0,-1.2527521E0,-5.248796E-1,1.37287695E-2,9.768339E-3,-1.3498465E-2,-8.84885E-3,3.0957675E-3,-9.413487E-1,-6.9920626E-3,-1.2471933E-2],"categories":[],"categories_nodes":[],"categories_segments":[],"categories_sizes":[],"default_left":[0,0,0,0,0,0,0,0,0,0,0,0,0,0,0],"id":62,"left_children":[1,3,5,-1,7,9,11,-1,-1,-1,-1,-1,13,-1,-1],"loss_changes":[1.6432438E3,8.047717E1,8.123071E1,0E0,7.0230103E0,1.6323303E1,7.927042E1,0E0,0E0,0E0,0E0,0E0,1.0373428E1,0E0,0E0],"parents":[2147483647,0,0,1,1,2,2,4,4,5,5,6,6,12,12],"right_children":[2,4,6,-1,8,10,12,-1,-1,-1,-1,-1,14,-1,-1],"split_conditions":[-1.4624768E0,9.8390687E-1,7.4406105E-1,1.1402764E-3,-2.0522673E0,7.1955043E-1,-4.2933917E-1,1.37287695E-2,9.768339E-3,-1.3498465E-2,-8.84885E-3,3.0957675E-3,1.2958294E-1,-6.9920626E-3,-1.2471933E-2],"split_indices":[13,3,3,0,9,6,11,0,0,0,0,0,7,0,0],"split_type":[0,0,0,0,0,0,0,0,0,0,0,0,0,0,0],"sum_hessian":[1.3249762E3,6.092689E2,7.157073E2,6.065678E1,5.486121E2,4.894461E2,2.2626115E2,4.8630487E2,6.230727E1,3.8512674E2,1.0431935E2,7.541431E1,1.5084685E2,8.602531E1,6.482154E1],"tree_param":{"num_deleted":"0","num_feature":"29","num_nodes":"15","size_leaf_vector":"1"}},{"base_weights":[1.0487331E-2,1.2553372E0,-9.4441766E-1,5.2023237E-3,1.3668612E-2,-1.2180942E0,-3.7001005E-1,-8.739677E-3,-1.3192692E0,4.588449E-3,-8.059703E-1,-1.1256244E-2,-1.3565529E-2,-1.1236425E-2,-4.599881E-3],"categories":[],"categories_nodes":[],"categories_segments":[],"categories_sizes":[],"default_left":[0,0,0,0,0,0,0,0,0,0,0,0,0,0,0],"id":63,"left_children":[1,3,5,-1,-1,7,9,-1,11,-1,13,-1,-1,-1,-1],"loss_changes":[1.5583901E3,4.594409E1,1.1617737E2,0E0,0E0,1.6327026E1,8.739946E1,0E0,1.2600098E0,0E0,1.6870056E1,0E0,0E0,0E0,0E0],"parents":[2147483647,0,0,1,1,2,2,5,5,6,6,8,8,10,10],"right_children":[2,4,6,-1,-1,8,10,-1,12,-1,14,-1,-1,-1,-1],"split_conditions":[-1.8576362E0,1.7295182E0,7.4406105E-1,5.2023237E-3,1.3668612E-2,-7.2675854E-1,-4.4742262E-1,-8.739677E-3,-1.085174E0,4.588449E-3,5.7042774E-2,-1.1256244E-2,-1.3565529E-2,-1.1236425E-2,-4.599881E-3],"split_indices":[13,3,3,0,0,9,11,0,0,0,16,0,0,0,0],"split_type":[0,0,0,0,0,0,0,0,0,0,0,0,0,0,0],"sum_hessian":[1.3089915E3,5.680915E2,7.409E2,7.557921E1,4.9251227E2,5.0105273E2,2.3984726E2,1.1603177E2,3.8502097E2,8.2653175E1,1.5719408E2,6.719807E1,3.178229E2,8.077804E1,7.6416046E1],"tree_param":{"num_deleted":"0","num_feature":"29","num_nodes":"15","size_leaf_vector":"1"}},{"base_weights":[2.0396838E-2,1.1979458E0,-9.728705E-1,1.357767E-2,3.3083893E-3,-1.051006E-3,-1.1073581E0,-5.047215E-3,-1.1960295E0,-7.2136107E-3,-1.2549251E0,-1.03363525E-2,-1.3141564E0,-1.3546308E-2,-1.0994417E-2],"categories":[],"categories_nodes":[],"categories_segments":[],"categories_sizes":[],"default_left":[0,0,0,0,0,0,0,0,0,0,0,0,0,0,0],"id":64,"left_children":[1,3,5,-1,-1,-1,7,-1,9,-1,11,-1,13,-1,-1],"loss_changes":[1.53583E3,8.281201E1,8.301166E1,0E0,0E0,0E0,3.234601E1,0E0,1.4101257E1,0E0,4.8831787E0,0E0,1.743103E0,0E0,0E0],"parents":[2147483647,0,0,1,1,2,2,6,6,8,8,10,10,12,12],"right_children":[2,4,6,-1,-1,-1,8,-1,10,-1,12,-1,14,-1,-1],"split_conditions":[-1.518262E0,-1.3465993E0,-4.7139797E-1,1.357767E-2,3.3083893E-3,-1.051006E-3,-7.873289E-1,-5.047215E-3,-9.9889743E-1,-7.2136107E-3,-5.200344E-1,-1.03363525E-2,8.9045703E-1,-1.3546308E-2,-1.0994417E-2],"split_indices":[13,11,7,0,0,0,13,0,18,0,15,0,11,0,0],"split_type":[0,0,0,0,0,0,0,0,0,0,0,0,0,0,0],"sum_hessian":[1.3111042E3,5.9980774E2,7.112965E2,5.059816E2,9.382611E1,9.5684105E1,6.156124E2,7.982063E1,5.357918E2,6.0603867E1,4.7518793E2,1.0423059E2,3.7095734E2,3.0765463E2,6.3302708E1],"tree_param":{"num_deleted":"0","num_feature":"29","num_nodes":"15","size_leaf_vector":"1"}},{"base_weights":[-4.981988E-4,-9.4793737E-1,1.0831658E0,-1.1838214E0,-3.2374227E-1,-3.8452474E-3,1.29329E0,-1.3245013E0,-8.770375E-1,7.3682233E-3,-8.6210114E-1,1.3516103E-2,8.720634E-3,-1.3842584E-2,-1.0292209E-2,-1.3085349E-2,-5.071588E-3,-1.2186034E-2,-4.5031267E-3],"categories":[],"categories_nodes":[],"categories_segments":[],"categories_sizes":[],"default_left":[0,0,0,0,0,0,0,0,0,0,0,0,0,0,0,0,0,0,0],"id":65,"left_children":[1,3,5,7,9,-1,11,13,15,-1,17,-1,-1,-1,-1,-1,-1,-1,-1],"loss_changes":[1.3473163E3,1.0270392E2,1.8927643E2,2.0751892E1,1.1105763E2,0E0,1.1981201E1,4.6831665E0,2.5286324E1,0E0,1.8350792E1,0E0,0E0,0E0,0E0,0E0,0E0,0E0,0E0],"parents":[2147483647,0,0,1,1,2,2,3,3,4,4,6,6,7,7,8,8,10,10],"right_children":[2,4,6,8,10,-1,12,14,16,-1,18,-1,-1,-1,-1,-1,-1,-1,-1],"split_conditions":[1.494274E0,6.2566525E-1,4.3917483E-1,2.4991786E-2,-4.7610745E-1,-3.8452474E-3,-2.0696728E0,1.9450842E-1,-1.6933456E-2,7.3682233E-3,1.2770551E-1,1.3516103E-2,8.720634E-3,-1.3842584E-2,-1.0292209E-2,-1.3085349E-2,-5.071588E-3,-1.2186034E-2,-4.5031267E-3],"split_indices":[3,3,10,3,11,0,11,28,27,0,17,0,0,0,0,0,0,0,0],"split_type":[0,0,0,0,0,0,0,0,0,0,0,0,0,0,0,0,0,0,0],"sum_hessian":[1.3102711E3,6.9914185E2,6.111292E2,5.0674557E2,1.9239632E2,7.643198E1,5.346972E2,3.451535E2,1.6159204E2,6.4655876E1,1.2774044E2,4.6772974E2,6.696748E1,2.8399277E2,6.1160763E1,7.3412224E1,8.817982E1,6.741618E1,6.032426E1],"tree_param":{"num_deleted":"0","num_feature":"29","num_nodes":"19","size_leaf_vector":"1"}},{"base_weights":[-3.6892775E-3,1.2575569E0,-8.554098E-1,1.3521175E-2,5.31123E-3,-1.0648164E0,2.5540596E-1,-1.3351265E0,-7.990377E-1,9.401982E-3,-4.2956285E-3,-1.3806974E-2,-1.1285013E-2,-3.409785E-5,-9.779962E-1,-3.6922412E-3,-1.2050836E0,-1.3137086E-2,-1.0114012E-2],"categories":[],"categories_nodes":[],"categories_segments":[],"categories_sizes":[],"default_left":[0,0,0,0,0,0,0,0,0,0,0,0,0,0,0,0,0,0,0],"id":66,"left_children":[1,3,5,-1,-1,7,9,11,13,-1,-1,-1,-1,-1,15,-1,17,-1,-1],"loss_changes":[1.3971223E3,3.529413E1,1.8085443E2,0E0,0E0,4.58739E1,5.854072E1,1.4780273E0,4.7260162E1,0E0,0E0,0E0,0E0,0E0,3.7017365E1,0E0,2.8143005E0,0E0,0E0],"parents":[2147483647,0,0,1,1,2,2,5,5,6,6,7,7,8,8,14,14,16,16],"right_children":[2,4,6,-1,-1,8,10,12,14,-1,-1,-1,-1,-1,16,-1,18,-1,-1],"split_conditions":[-1.6638023E0,-2.5306077E0,1.7670346E0,1.3521175E-2,5.31123E-3,2.4991786E-2,3.080026E-1,8.0420144E-2,-3.407532E-1,9.401982E-3,-4.2956285E-3,-1.3806974E-2,-1.1285013E-2,-3.409785E-5,-4.8618537E-1,-3.6922412E-3,5.873275E-1,-1.3137086E-2,-1.0114012E-2],"split_indices":[9,11,3,0,0,3,9,28,7,0,0,0,0,0,9,0,2,0,0],"split_type":[0,0,0,0,0,0,0,0,0,0,0,0,0,0,0,0,0,0,0],"sum_hessian":[1.2985798E3,5.2325543E2,7.753244E2,4.6222568E2,6.1029724E1,6.523815E2,1.2294295E2,3.2143878E2,3.309427E2,6.1293068E1,6.1649883E1,2.5870065E2,6.273811E1,6.095649E1,2.6998618E2,7.406361E1,1.9592258E2,1.21818756E2,7.410383E1],"tree_param":{"num_deleted":"0","num_feature":"29","num_nodes":"19","size_leaf_vector":"1"}},{"base_weights":[4.039419E-4,1.2540746E0,-8.5307425E-1,1.3451845E-2,5.729787E-3,-1.0823358E0,1.1935685E-1,-1.3296034E0,-8.0327934E-1,-5.676743E-3,6.150314E-3,-1.3779067E-2,-1.1243714E-2,-4.21283E-4,-1.0579652E0,-5.11556E-3,-1.2584062E0,-1.3811786E-2,-1.0335704E-2],"categories":[],"categories_nodes":[],"categories_segments":[],"categories_sizes":[],"default_left":[0,0,0,0,0,0,0,0,0,0,0,0,0,0,0,0,0,0,0],"id":67,"left_children":[1,3,5,-1,-1,7,9,11,13,-1,-1,-1,-1,-1,15,-1,17,-1,-1],"loss_changes":[1.3886962E3,3.1850586E1,1.7228027E2,0E0,0E0,4.205536E1,5.0824303E1,1.720459E0,5.7362366E1,0E0,0E0,0E0,0E0,0E0,2.365364E1,0E0,3.033844E0,0E0,0E0],"parents":[2147483647,0,0,1,1,2,2,5,5,6,6,7,7,8,8,14,14,16,16],"right_children":[2,4,6,-1,-1,8,10,12,14,-1,-1,-1,-1,-1,16,-1,18,-1,-1],"split_conditions":[-1.5795476E0,-2.5306077E0,1.4642557E0,1.3451845E-2,5.729787E-3,5.934767E-2,6.38413E-2,6.282207E-2,-5.434515E-1,-5.676743E-3,6.150314E-3,-1.3779067E-2,-1.1243714E-2,-4.21283E-4,-4.4129917E-1,-5.11556E-3,3.0349496E-1,-1.3811786E-2,-1.0335704E-2],"split_indices":[9,11,3,0,0,3,10,28,9,0,0,0,0,0,0,0,24,0,0],"split_type":[0,0,0,0,0,0,0,0,0,0,0,0,0,0,0,0,0,0,0],"sum_hessian":[1.2958706E3,5.246885E2,7.711821E2,4.6192224E2,6.2766243E1,6.239628E2,1.4721927E2,3.288284E2,2.9513446E2,6.163904E1,8.558023E1,2.6155508E2,6.7273315E1,7.4286896E1,2.2084758E2,6.022482E1,1.6062276E2,1.00565506E2,6.0057247E1],"tree_param":{"num_deleted":"0","num_feature":"29","num_nodes":"19","size_leaf_vector":"1"}},{"base_weights":[2.92789E-3,1.184961E0,-9.724498E-1,1.3351396E-2,3.270039E-3,-1.2131622E0,-4.675669E-1,-1.3065705E0,-7.5976537E-3,3.4802814E-3,-8.571108E-1,-1.1141483E-2,-1.3445357E-2,-1.12513015E-2,-5.520382E-3],"categories":[],"categories_nodes":[],"categories_segments":[],"categories_sizes":[],"default_left":[0,0,0,0,0,0,0,0,0,0,0,0,0,0,0],"id":68,"left_children":[1,3,5,-1,-1,7,9,11,-1,-1,13,-1,-1,-1,-1],"loss_changes":[1.4757318E3,7.412549E1,8.46626E1,0E0,0E0,1.9092773E1,7.2748405E1,1.364624E0,0E0,0E0,1.2021202E1,0E0,0E0,0E0,0E0],"parents":[2147483647,0,0,1,1,2,2,5,5,6,6,7,7,10,10],"right_children":[2,4,6,-1,-1,8,10,12,-1,-1,14,-1,-1,-1,-1],"split_conditions":[-1.518262E0,-1.3465993E0,7.4406105E-1,1.3351396E-2,3.270039E-3,8.968778E-1,-4.4742262E-1,-5.69194E-1,-7.5976537E-3,3.4802814E-3,-2.3495007E-1,-1.1141483E-2,-1.3445357E-2,-1.12513015E-2,-5.520382E-3],"split_indices":[13,11,3,0,0,6,11,13,0,0,25,0,0,0,0],"split_type":[0,0,0,0,0,0,0,0,0,0,0,0,0,0,0],"sum_hessian":[1.2779858E3,5.7768756E2,7.0029834E2,4.91158E2,8.652955E1,4.7325992E2,2.2703844E2,3.9085468E2,8.2405235E1,7.3421364E1,1.5361707E2,6.940898E1,3.2144568E2,8.034365E1,7.327342E1],"tree_param":{"num_deleted":"0","num_feature":"29","num_nodes":"15","size_leaf_vector":"1"}},{"base_weights":[-6.011972E-3,1.1874402E0,-9.653691E-1,1.3341472E-2,3.7959218E-3,-1.1226627E0,-1.6751741E-3,-1.3127148E0,-8.979815E-1,-1.1377902E-2,-1.3501905E-2,-3.1550878E-3,-1.1656572E0,-1.3339972E-2,-1.0258685E-2],"categories":[],"categories_nodes":[],"categories_segments":[],"categories_sizes":[],"default_left":[0,0,0,0,0,0,0,0,0,0,0,0,0,0,0],"id":69,"left_children":[1,3,5,-1,-1,7,-1,9,11,-1,-1,-1,13,-1,-1],"loss_changes":[1.4679459E3,6.720813E1,8.900995E1,0E0,0E0,2.4165771E1,0E0,5.574951E-1,4.253244E1,0E0,0E0,0E0,3.0590057E0,0E0,0E0],"parents":[2147483647,0,0,1,1,2,2,5,5,7,7,8,8,12,12],"right_children":[2,4,6,-1,-1,8,-1,10,12,-1,-1,-1,14,-1,-1],"split_conditions":[-1.518262E0,-1.3465993E0,1.3956224E0,1.3341472E-2,3.7959218E-3,2.4991786E-2,-1.6751741E-3,-8.887217E-1,-6.956041E-2,-1.1377902E-2,-1.3501905E-2,-3.1550878E-3,-6.91776E-3,-1.3339972E-2,-1.0258685E-2],"split_indices":[13,11,3,0,0,3,0,9,11,0,0,0,27,0,0],"split_type":[0,0,0,0,0,0,0,0,0,0,0,0,0,0,0],"sum_hessian":[1.2801073E3,5.703487E2,7.0975854E2,4.8213953E2,8.8209175E1,5.925352E2,1.1722333E2,3.183817E2,2.7415353E2,6.1708187E1,2.5667352E2,8.700528E1,1.8714825E2,8.102779E1,1.0612046E2],"tree_param":{"num_deleted":"0","num_feature":"29","num_nodes":"15","size_leaf_vector":"1"}},{"base_weights":[-1.0247931E-2,1.201578E0,-9.3492454E-1,1.3155375E-2,3.5261533E-3,-3.04304E-3,-1.0550475E0,-3.5903486E-3,-1.1325859E0,-1.203028E0,-5.5825477E-3,-1.2842191E0,-9.773813E-1,-1.1048956E-2,-1.3561029E-2,-6.223119E-3,-1.27548035E-2],"categories":[],"categories_nodes":[],"categories_segments":[],"categories_sizes":[],"default_left":[0,0,0,0,0,0,0,0,0,0,0,0,0,0,0,0,0],"id":70,"left_children":[1,3,5,-1,-1,-1,7,-1,9,11,-1,13,15,-1,-1,-1,-1],"loss_changes":[1.4193463E3,5.2573914E1,5.4102295E1,0E0,0E0,0E0,3.214026E1,0E0,2.126294E1,7.576538E0,0E0,3.0303955E0,1.3150764E1,0E0,0E0,0E0,0E0],"parents":[2147483647,0,0,1,1,2,2,6,6,8,8,9,9,11,11,12,12],"right_children":[2,4,6,-1,-1,-1,8,-1,10,12,-1,14,16,-1,-1,-1,-1],"split_conditions":[-1.7656939E0,-3.267286E0,-7.6279485E-1,1.3155375E-2,3.5261533E-3,-3.04304E-3,-4.305282E-1,-3.5903486E-3,4.8265126E-1,3.4223244E-1,-5.5825477E-3,-3.0648592E-1,1.2521036E-1,-1.1048956E-2,-1.3561029E-2,-6.223119E-3,-1.27548035E-2],"split_indices":[13,13,13,0,0,0,19,0,19,24,0,11,13,0,0,0,0],"split_type":[0,0,0,0,0,0,0,0,0,0,0,0,0,0,0,0,0],"sum_hessian":[1.2646522E3,5.472108E2,7.1744135E2,4.8196533E2,6.524553E1,1.15359764E2,6.0208154E2,6.0915154E1,5.4116644E2,4.8106836E2,6.0098072E1,3.503249E2,1.3074345E2,1.0493122E2,2.4539368E2,6.1079063E1,6.966439E1],"tree_param":{"num_deleted":"0","num_feature":"29","num_nodes":"17","size_leaf_vector":"1"}},{"base_weights":[-1.197415E-2,1.2243397E0,-9.218571E-1,5.17972E-3,1.3280077E-2,-1.1777673E0,-3.983026E-1,-1.2987113E-2,-7.5929337E-3,4.511585E-3,-8.5614294E-1,-6.323856E-3,-1.1937262E-2],"categories":[],"categories_nodes":[],"categories_segments":[],"categories_sizes":[],"default_left":[0,0,0,0,0,0,0,0,0,0,0,0,0],"id":71,"left_children":[1,3,5,-1,-1,7,9,-1,-1,-1,11,-1,-1],"loss_changes":[1.4311692E3,3.8809753E1,9.772394E1,0E0,0E0,2.3902344E1,9.455327E1,0E0,0E0,0E0,1.1155296E1,0E0,0E0],"parents":[2147483647,0,0,1,1,2,2,5,5,6,6,10,10],"right_children":[2,4,6,-1,-1,8,10,-1,-1,-1,12,-1,-1],"split_conditions":[-1.8576362E0,1.7295182E0,7.4406105E-1,5.17972E-3,1.3280077E-2,7.1955043E-1,-4.4742262E-1,-1.2987113E-2,-7.5929337E-3,4.511585E-3,1.8965162E-1,-6.323856E-3,-1.1937262E-2],"split_indices":[13,3,3,0,0,6,11,0,0,0,13,0,0],"split_type":[0,0,0,0,0,0,0,0,0,0,0,0,0],"sum_hessian":[1.270259E3,5.383815E2,7.3187756E2,6.966924E1,4.6871225E2,4.9075165E2,2.4112592E2,3.7908737E2,1.1166429E2,8.445171E1,1.5667421E2,9.594988E1,6.0724327E1],"tree_param":{"num_deleted":"0","num_feature":"29","num_nodes":"13","size_leaf_vector":"1"}},{"base_weights":[1.3622702E-2,1.2139953E0,-9.2302144E-1,1.3201167E-2,4.2525763E-3,-1.3719416E-3,-1.0599718E0,-4.2420425E-3,-1.1876826E0,-8.095499E-3,-1.2396135E0,-1.2809777E0,-9.691342E-3,-1.3598033E-2,-1.0796968E-2],"categories":[],"categories_nodes":[],"categories_segments":[],"categories_sizes":[],"default_left":[0,0,0,0,0,0,0,0,0,0,0,0,0,0,0],"id":72,"left_children":[1,3,5,-1,-1,-1,7,-1,9,-1,11,13,-1,-1,-1],"loss_changes":[1.411478E3,4.549414E1,7.5745056E1,0E0,0E0,0E0,4.824286E1,0E0,8.802856E0,0E0,3.6500244E0,4.4990845E0,0E0,0E0,0E0],"parents":[2147483647,0,0,1,1,2,2,6,6,8,8,10,10,11,11],"right_children":[2,4,6,-1,-1,-1,8,-1,10,-1,12,14,-1,-1,-1],"split_conditions":[-1.8576362E0,-1.3465993E0,-4.2408958E-1,1.3201167E-2,4.2525763E-3,-1.3719416E-3,-7.41471E-1,-4.2420425E-3,-9.4215375E-1,-8.095499E-3,3.0043772E-1,3.4223244E-1,-9.691342E-3,-1.3598033E-2,-1.0796968E-2],"split_indices":[13,11,7,0,0,0,13,0,18,0,22,24,0,0,0],"split_type":[0,